-0.0300808
0.0178076
0.0423494
0.0621528
-0.0194971
0.0407637
0.0532511
-0.0616146
-0.0115702
-0.0576209
-0.120454
-0.0275861
0.012229
-0.0528417
0.00345504
0.00543082
-0.0533399
0.0624497
-0.0416827
0.0266417
-0.0329172
0.0337283
-0.0353076
0.00385674
-0.0020367
0.0437361
-0.0141685
-0.00622329
0.0854432
0.082858
0.0545651
-0.033467
-0.0352174
-0.0434585
-0.079411
0.025431
-0.00372972
0.111578
0.070584
0.0700452
0.0983874
0.107212
-0.0749329
-0.0421227
0.048591
-0.0466145
0.0545516
-0.00129852
0.0438497
-0.0948001
-0.0300767
0.0787705
-0.0226385
-0.101407
-0.0961598
-0.0191219
-0.0403064
0.0326467
0.101355
-0.0721083
0.0222783
0.082622
-0.0318817
0.032339
0.0293756
-0.0509356
0.0456502
0.0534871
-0.0622778
-0.0398858
0.10225
-0.0392533
0.0475251
-0.0140571
-0.00347607
0.0140688
-0.0395882
-0.0250914
-0.0156984
0.0590257
0.0913214
-0.0381572
0.013909
0.0299579
0.0456326
0.00506251
0.0100153
-0.072631
0.00545656
0.0862889
-0.0610237
0.0271812
-0.0226182
-0.0224673
0.0309065
0.0349311
-0.000250541
0.0529094
0.0578791
0.100092
-0.0771437
0.0408051
0.0312681
0.0431727
0.00296788
-0.00855601
-0.0305178
0.0334371
0.0663416
0.0263929
-0.0277869
0.00739396
-0.024573
0.0199224
0.038738
-0.064962
0.0295328
-0.0115585
0.00711123
-0.0110403
0.0118746
0.0153445
-0.0354008
0.0611687
-0.00305253
0.0186369
-0.000578637
-0.00376046
-0.042267
-0.00355541
0.055277
0.0677372
0.029999
-0.00773935
-0.0852536
0.0191125
-0.0511625
-0.0439161
0.0064373
-0.0209635
0.0566023
0.0621025
-0.0111925
0.0387851
-0.144279
-0.0296653
0.0209097
-0.0346605
0.0830402
-0.104075
-0.0562959
0.0418049
0.0958244
0.0631485
-0.00295384
0.0748814
-7.67514e-05
0.00567752
-0.0872836
0.0193463
-0.022568
-0.0164618
-0.00299725
0.0826227
0.0431972
-0.0188186
-8.74811e-06
0.014408
0.025602
-0.00261685
0.00813951
0.0315505
0.0036933
0.0490995
-0.0311494
0.103022
0.015956
0.0312441
-0.0143681
-0.0113382
0.0130621
-0.00907323
-0.0193792
-0.0590732
-0.00684813
0.0218219
0.059744
-0.0414404
-0.0100852
0.0640576
-0.0328147
0.00544486
-0.0387192
-0.0782744
-0.0541213
-0.012303
-0.0599705
-0.00963372
-0.0534349
-0.00305586
-0.0436025
0.0525908
-0.000598543
-0.0329155
0.141799
0.0135348
-0.0295806
0.0307535
0.0718654
-0.0193846
0.0745068
-0.159759
0.0449726
0.0216794
-0.0328254
0.0863878
-0.0472978
-0.0769483
0.00358908
0.0703057
0.028173
-0.0182089
-0.0177272
0.0510182
-0.026946
0.0524751
-0.0415332
-0.0060845
-0.0567673
0.0374587
-0.0979515
-0.00881478
0.0337416
0.0167946
0.0255063
-0.012145
0.0837724
-0.0183391
0.00531604
0.0189584
0.0238922
-0.0913699
-0.00644819
0.0237198
0.08931
-0.00805032
0.00425504
-0.0160499
-0.0388418
-0.092535
0.027195
-0.000897167
0.12496
-0.0709842
0.000553326
0.035338
0.0334485
-0.043646
-0.0307509
0.0396991
-0.0661095
0.0788398
0.0387995
0.0864503
-0.0597561
0.0640247
-0.0521038
-0.0393112
0.072636
-0.100748
0.033147
-0.0560241
0.0222852
-0.0183141
-0.0596797
0.0491669
-0.0143893
0.018276
0.0637341
0.0241439
-0.0582593
0.0340785
-0.136604
-0.04121
-0.0288479
0.00392349
-0.0436151
-0.0358609
-0.0231941
0.00464111
-0.0859006
0.0256761
-0.0728207
-0.0862652
-0.0280386
0.0663873
0.0169186
0.112812
-0.043303
0.0723006
0.0147546
0.0535953
0.0486147
0.0526897
-0.0145954
0.058171
0.0396095
0.000708497
0.0327203
-0.0233625
-0.0599711
-0.0627423
-0.0531878
0.0533674
-0.00828849
-0.0590506
-0.0117591
-0.0761295
-0.0664824
0.0312332
0.0134478
-0.0147909
0.0231671
-0.0621942
-0.00238971
-0.0434248
0.111225
-0.0163064
-0.0235335
-0.0302474
0.0695236
0.0117352
0.0333809
-0.026798
-0.0182741
-0.0352555
-0.0134714
0.100047
-0.0390073
-0.0642458
0.020164
0.109359
0.109377
-0.0332975
-0.00766109
-0.0621277
0.00618507
-0.0439967
0.0658803
0.0926558
0.0222259
-0.044739
0.000356673
0.0506796
-0.020131
0.0390319
0.0103111
0.0629783
-0.0295049
0.0431941
-0.00234873
0.0565449
0.00935961
-0.0623831
-0.0111517
-0.00330476
0.0276749
-0.0189215
0.0103358
0.0290269
-0.0289505
-0.0865378
0.0364832
0.0581081
0.0261218
-0.0707451
-0.00639802
-0.0463103
0.0357791
-0.00637981
-0.084753
-0.0219691
-0.0361415
-0.0469428
0.0228374
-0.0338919
0.0680755
-0.0725728
-0.104988
0.0270931
0.0616064
0.0623734
0.0454049
-0.018046
-0.0181122
0.0143873
-0.0191615
0.0310297
-0.0686809
0.0568302
-0.0246011
0.00368311
-0.0427061
-0.041581
0.0744734
-0.0738217
-0.057529
-0.0202996
0.0142215
-0.00452164
0.0254442
0.0272304
-0.0197703
0.0304843
-0.00161775
-0.01093
-0.0466496
0.0453564
-0.10963
-0.0173057
-0.039806
-0.0221501
-0.117288
0.0114573
-0.00517773
-0.0644694
0.0417956
-0.00405335
0.0549035
-0.037541
-0.0754179
0.0335399
0.00500733
0.0413347
0.0610836
0.0347293
0.0426211
-0.0306471
-0.017591
-0.0365932
-0.0147113
0.0305502
0.038097
0.0136192
-0.0966926
-0.0535916
-0.00147444
0.0593713
0.0990792
-0.00900728
0.0027446
0.0090048
-0.0658243
0.0541082
-0.04552
0.0201947
0.0881351
0.0402298
0.0552414
-0.053091
-0.043529
-0.0271198
0.0150823
0.0496575
-0.0778387
0.0126784
-0.0343385
0.0616406
0.0174873
0.0467879
-0.0285545
0.0366889
-0.0174055
-0.0383474
-0.0105747
-0.0240865
-0.0363958
0.0835885
-0.0220689
0.114114
-0.00878943
-0.0183285
0.00959516
-0.0337178
0.00733535
-0.0360613
0.0471621
-0.0666197
0.0257471
-0.00631978
0.0407825
0.0830442
-0.0185564
-0.106276
0.0145151
0.0454314
0.0729848
0.0414575
-0.0350669
-0.0470749
-0.0506682
-0.0905081
-0.0444086
-0.0107798
0.0474062
0.0860159
-0.062848
0.111833
0.0344187
-0.0384202
0.0502903
-0.0459937
-0.061173
0.0488437
0.0249941
0.0570658
-0.0590834
0.0644651
-0.0141432
-0.0369301
-0.0558248
-0.0126312
-0.0233666
-0.0406991
0.0374711
0.00360842
0.0551089
-0.0714354
0.0424611
0.0714186
0.00914651
-0.0919095
-0.0679092
-0.036063
0.00295226
-0.0438787
0.0632693
0.0320313
0.0247757
0.0242833
0.0155659
0.0017234
0.0102701
0.0350163
0.145982
0.0953895
0.00241552
0.000918475
0.000666825
-0.0161098
-0.00393775
0.0450975
-0.0453294
0.124297
0.0311776
0.0791006
0.0300683
-0.0228179
0.0987305
0.0212453
0.113527
0.0953652
-0.0890505
0.0918282
0.00108935
-0.0028723
0.0675466
-0.0377802
-0.0782991
-0.0526832
-0.0419206
0.0143861
0.0578425
-0.0193833
-0.0042727
0.0543849
-0.0253877
0.0137884
0.0931834
-0.0149694
-0.0303687
0.0640392
-0.0522347
-0.0874983
-0.0867005
-0.0212713
-0.0155149
0.0155886
-0.00509791
0.0288101
0.039171
0.070215
0.0315856
0.00821603
0.0284954
0.0831013
-0.0285717
-0.031081
0.0173849
0.0648703
0.0408059
-0.0289122
-0.0629941
-0.0515447
0.0401384
0.0204396
0.00620729
0.0142761
0.0281462
0.143386
-0.000692561
0.0206486
-0.00883735
-0.0559877
-0.0344409
-0.00894354
-0.0611056
-0.0180859
-0.00631629
-0.0930856
0.00159864
-0.0183942
0.0186748
-0.0168768
0.0479062
0.0424933
0.0272477
-0.020367
-0.0121198
-0.0423527
0.00619848
-0.011039
-0.0484941
-0.0621349
0.00469314
-0.0158471
0.0121822
-0.128619
0.0512769
-0.0195358
0.0332464
0.00413533
0.0749031
-0.00555673
-0.0682899
-0.00771421
0.0615236
-0.0325879
0.0152665
-0.0164991
-0.0226869
0.0345928
0.0171134
0.0623461
-0.0110705
-0.0449766
-0.0642971
-0.0111936
-0.0533494
0.00438461
0.117767
-0.0599625
0.0292771
-0.00649421
0.031413
0.00898631
-0.0261788
-0.031117
-0.000444324
0.0362132
0.00917442
0.0550274
-0.0523824
0.0357761
-0.0452395
0.0121535
0.0330846
-0.0525204
-0.0965835
0.0245351
-0.0085324
0.025119
-0.0698762
0.0348485
0.0368978
-0.0482126
-0.0363326
0.0706795
0.0877527
-0.00219932
0.0281688
0.0101201
0.0101312
0.0337437
-0.0496179
0.116303
0.00741909
-0.0494366
0.0162189
0.0560035
-0.0356691
-0.0720734
-0.0940046
0.00504384
-0.04353
0.0360876
0.0632176
-0.0657409
0.11745
-0.0347765
-0.0450317
0.0278734
0.0674432
-0.0411501
0.0399093
-0.0454261
0.0527346
-0.0860673
-0.0326842
0.0155815
-0.0727933
-0.0233465
-0.0394849
-0.0997113
-0.0178463
-0.0261758
0.0430556
-0.075487
-0.014974
-0.0862375
0.0322121
-0.00378594
0.0221564
-0.0159332
0.0246323
0.0318226
0.0796244
-0.0239322
-0.0120576
-0.0251654
-0.0100741
-0.0290474
-0.00618558
0.0607492
-0.0662083
0.0431162
-0.0378638
-0.0193119
-0.0604443
0.0307011
-0.0857177
-0.0309027
-0.0537719
0.0959565
-0.039074
-0.0765382
0.0419704
-0.0326362
-0.0433641
0.0490497
0.0186843
-0.0365886
-0.0442509
-0.0365513
-0.111462
-0.0123592
-0.0171729
-0.0206212
0.029933
0.0620623
-0.033596
0.028514
-0.0436133
0.0100351
0.115153
0.0762331
-0.128541
-0.0383705
0.0731846
0.00483184
-0.0759493
0.00628872
-0.00129891
-0.00871649
0.087736
-0.0422274
0.0436678
0.0168422
0.00320174
-0.0248666
-0.00449609
0.0374362
0.0729069
-0.05856
0.017536
0.042293
0.040735
-0.0584682
0.0660981
-0.0751755
0.0266928
-0.0190609
0.0568834
-0.0117097
0.00983645
0.0177707
0.0247434
0.0355024
0.0154547
-0.0112181
0.113363
0.0011597
0.055546
-0.0626032
-0.0406367
0.0188792
0.0283639
-0.0182749
0.066417
0.0664727
0.0230154
0.0096664
-0.0292685
0.00540107
0.0117585
-0.0534626
-0.0117527
0.0792384
-0.0600047
-0.070921
-0.00106201
0.0460864
0.10163
0.0324885
0.104433
-0.0989926
0.0233829
-0.0318438
0.0739226
-0.0337463
0.0278883
-0.106199
-0.00869558
-0.0349448
0.00703316
0.0870805
-0.0273294
0.0124048
-0.0449984
0.0178649
-0.0456578
-0.0406071
0.0593463
-0.0124963
-0.0176629
-0.0742772
-0.04965
-0.0867538
-0.0441082
-0.101327
-0.0123361
-0.0514621
-0.00385256
-0.0293972
0.0112993
-0.0550588
-0.0391566
-0.0389613
-0.0167201
-0.0890894
-0.0653044
-0.00206472
0.0369661
-0.0126803
-0.000389056
0.0409266
0.0756674
0.0651142
0.0563135
-0.0383301
0.0232641
0.0303711
-0.0296938
-0.0373667
-0.0667796
-0.0173155
-0.00299415
-0.0369984
-0.00714592
-0.0209183
-0.091361
0.053983
0.0332445
-0.0421089
0.00154577
-0.0083583
-0.0225812
-0.0128892
-0.00226784
-0.100857
0.011125
0.00872247
-0.0286232
-0.0405763
-0.0217878
-0.0170562
-0.00969145
-0.00410537
0.0217444
0.0261318
0.00758553
-0.0177382
-0.0352605
-0.0968676
0.0058567
0.00424077
-0.115111
-0.0513788
0.0173497
-0.0209941
-0.00448884
0.00579149
0.099365
-0.00907736
0.0402956
-0.00965269
-0.0333962
0.0289758
0.0618375
0.0331608
-0.110971
0.017808
-0.117295
0.0474285
-0.0615099
-0.00583969
0.014603
-0.00884933
0.0395112
-0.0329531
-0.0101095
0.00135139
-0.0184788
0.016358
-0.074714
-0.0621764
0.00660071
0.0608243
0.0317763
0.00547406
-0.0424541
0.0278957
0.0331494
0.0712226
0.0268495
-0.00630758
0.0220467
-0.054532
-0.0322346
0.0506132
0.0184068
0.000556872
0.0521499
-0.00653897
-0.00259288
-0.0221092
-0.0287379
-0.0402101
0.0513207
-0.00987728
0.0875248
-0.138079
-0.0762665
0.0113235
-0.0254206
-0.00695914
0.00614122
-0.0595892
0.0449299
0.0955439
0.0211642
0.0167917
0.015026
0.00710957
-0.102228
0.0333392
-0.0513881
0.0363079
-0.0652632
0.0218667
0.00580559
-0.0396596
0.0041626
0.116371
0.0162098
0.0681706
-0.0444328
0.0656917
0.0149809
0.0978957
-0.0305266
0.0223454
0.0444088
0.0411005
0.0595249
-0.0266902
-0.0164787
-0.00209967
-0.0280064
0.0335402
0.0293966
0.0440457
-0.0581589
-0.0259287
0.037235
-0.00699117
-0.0551418
-0.0199114
-0.0620393
0.00640034
0.0500093
-0.0332775
0.021274
-0.0772496
0.0691117
0.0184634
-0.0392555
0.00169822
-0.00961234
-0.0406014
0.0799332
0.00689064
-0.0371549
-0.0141354
-0.0109463
-0.0567011
0.074931
0.0239037
0.0306637
0.0724183
-0.00946248
-0.0256056
-0.0860714
0.020651
-0.0336584
0.039152
-0.0572902
0.0150438
-0.00828663
0.0411938
0.0414404
0.0649857
-0.0522615
0.00247414
-0.0438903
0.0103535
-0.0179822
0.0101418
-0.0701085
0.071007
0.106906
-0.00743685
0.0211887
-0.0680213
0.068828
0.0328151
0.015317
0.0273455
0.0565633
-0.028036
0.00991689
0.00271977
-0.0571263
-0.0371761
0.0172348
0.0286175
-0.0266837
-0.0457517
0.0667834
-0.121894
-0.0287763
0.00849336
-0.000766933
-0.0343772
-0.0858172
-0.0431464
0.00474208
0.0358753
0.0889224
-0.0129782
0.027626
-0.0527738
0.0357452
0.0915366
0.0939331
0.0399512
0.048512
0.0425944
-0.0706275
-0.0484702
-0.0921486
-0.0324588
-0.0144092
-0.066744
0.0143497
0.0235227
-0.0113098
-0.0394241
-0.014873
-0.0425292
-0.0213917
-0.0563088
0.0541577
-0.00907869
0.049282
-0.0911334
0.0400665
0.0124853
0.0137203
-0.0530407
-0.140685
0.0478066
0.0236941
0.0311206
0.0105297
-0.021304
0.0508092
0.111734
-0.0926907
-0.0153239
0.0423995
0.0720218
0.00801167
0.022457
-0.0464844
-0.0714721
0.0158753
-0.0709587
0.00613734
0.0208109
-0.086693
-0.0520877
-0.0566356
-0.048104
-0.00520515
-0.0697501
-0.105092
0.039399
0.0174763
0.0149672
0.0509852
-0.0281812
0.0246481
0.015387
-0.0257726
0.0252172
0.00492436
-0.046692
0.0347383
0.00713579
0.0119902
-0.0469942
-0.0343546
-0.0934343
0.0324633
-0.0135793
-0.00598627
0.0288773
-0.0739099
0.026123
-0.083752
0.00599698
-0.0437275
-0.0481822
-0.0613494
-0.0605844
-0.0452427
-0.00997453
0.0764894
0.00373629
-0.10023
0.112483
-0.00292761
0.00225829
-0.0657696
-0.0593213
-0.104443
-0.0447865
0.0348009
0.0733148
0.0112365
0.0316369
0.00775107
-0.0138489
-0.0120841
0.0601464
-0.0146709
0.0950831
0.0660378
-0.0983455
-0.058301
-0.0115007
-0.0286757
-0.0693952
0.0420955
0.0184046
-0.0546313
0.0231522
-0.0397913
-0.0165435
-6.90194e-05
-0.0423555
-0.0166634
0.0432787
-0.0574133
0.00115582
-0.0604589
0.0791485
-0.0835981
-0.0457264
-0.0453527
0.0532243
-0.0584292
-0.0144117
-0.0139064
-0.0272839
0.0154051
0.0166506
-0.0666233
-0.0178826
-0.086166
-0.0202203
-0.0520062
-0.0462574
0.0717272
-0.0171896
-0.0463417
-0.00451619
-0.0420513
-0.0190123
-0.079816
0.0378782
-0.0152712
0.0114078
-0.00734751
-0.0612046
0.0329159
-0.0387608
0.0621579
-0.0279418
0.00482531
0.0853807
-0.0833816
0.0119351
0.129621
0.0553923
0.0132776
0.0529715
0.0480351
0.0023844
0.0226669
0.05928
0.0179217
-0.0383984
-0.0160276
0.00645186
0.0785606
-0.0185185
-0.00405804
-0.0444814
-0.0103239
-0.00674512
0.104816
-0.0510277
0.0022226
0.0766854
-0.072
-0.0255766
0.0226996
-0.0367041
-0.0570263
-0.0746032
0.0348471
-0.00185356
0.0354765
-0.00654114
0.0205766
-0.069654
0.0237539
0.11514
-0.0494875
-0.0992876
-0.00261194
-0.0111832
-0.109675
-0.0302522
0.0888406
0.00485323
0.118531
-0.0966017
0.0897028
-0.0972115
-0.0255953
0.0127445
0.0529316
-0.0171959
0.0612566
-0.0229063
0.080544
-0.0108089
-0.0247128
0.0109189
-0.0496791
-0.0242295
-0.00797683
-0.00147093
0.0230861
-0.032145
-0.0495989
0.0232255
-0.0161495
0.0517415
-0.0391801
-0.0865953
0.0123985
-0.0264187
-0.0825776
-0.0822817
0.0116195
-0.0211933
-0.0603513
-0.0176845
-0.0152911
-0.000935223
-0.098574
-0.0525777
0.0414813
0.0603646
-0.0258309
-0.0610429
0.0426901
-0.0294273
0.0531782
-0.00310288
-0.00335588
0.026498
-0.0522526
-0.0444198
-0.0704274
-0.0685428
0.0202256
-0.00243012
-0.0212407
-0.0467449
0.102166
-0.137349
0.0385696
-0.0728321
0.0238019
-0.0877332
-0.023919
0.0330531
0.0641751
-0.037114
0.0409691
-0.0238676
0.00293878
0.089244
-0.0417882
-0.0571574
-0.0505935
-0.0589556
0.0434301
0.0711023
-0.0785581
0.0251309
0.00605266
0.0759427
0.0718421
0.0582951
-0.0746078
0.0422417
-0.0748631
-0.0932681
-0.0864252
0.0501995
0.110884
-0.0364518
0.034733
-0.0648608
0.0719945
-0.00685945
0.100416
-0.0758776
0.0411758
0.025379
0.0729519
-0.0740922
-0.0395124
-0.0514356
0.0136135
0.0544838
0.085649
-0.0784208
-0.00755703
0.0977695
-0.00951203
0.0198937
-0.00282089
0.0142819
-0.0138171
-0.00173676
-0.0106982
0.0849507
-0.00709589
-0.0386788
0.00701694
-0.0313909
0.00175942
0.0931593
0.0382222
0.0629858
-0.0188926
-0.0169209
0.0218637
0.0606595
-0.0108067
-0.0474155
0.0244838
-0.00253861
-0.0422252
-0.0338842
-0.00128664
0.020292
-0.0859017
-0.0287114
0.057307
-0.0296212
-0.043683
0.0171909
-0.0138803
-0.00931666
-0.0381145
-0.00242796
-0.00958242
-0.0565172
-0.0402478
-0.0972664
-0.0095825
-0.0655288
0.00897726
0.10413
-0.0550658
0.0612733
-0.0754835
0.11197
0.0422859
-0.0293888
-0.0286991
0.0519855
0.056621
-0.0493933
-0.0474888
0.140192
-0.0173069
-0.0573655
-0.0476732
0.0364901
0.0811895
-0.0151741
0.0364524
0.0436266
-0.00537261
-0.0469681
0.0592467
0.00764978
0.0888527
-0.0774774
0.0129826
-0.0556437
0.0474144
0.0357802
-0.0310592
0.0287675
0.0374159
0.0327986
-0.0187552
-0.0553101
0.0803835
-0.155142
-0.0125017
0.0536171
-0.0599692
0.0377619
-0.00911194
0.0127246
-0.0714404
0.0625472
-0.106993
0.0178667
0.0431664
-0.0012238
-0.0687732
-0.00428942
0.0551957
0.0084199
0.0741468
-0.0446605
0.0599967
0.0499215
0.0685117
-0.0182571
-0.0466686
-0.0376972
-0.0863582
-0.0547045
-0.0751676
-0.028985
-0.00779149
0.0305527
-0.0530612
0.0457306
-0.0306529
0.00600616
0.0307753
0.0233842
0.0854144
-0.0195696
-0.0564482
-0.053371
-0.0107621
0.0078107
0.0963846
0.0335388
-0.0336371
-0.141525
-0.00274368
-0.0743408
-0.00171741
0.00362984
0.0272588
0.0203495
0.0057669
-0.0250974
0.00701261
-0.00148861
0.0140329
-0.0579417
0.00708314
0.0541266
-0.028566
-0.00987494
-0.0101392
-0.0477359
-0.0262163
0.00332766
-0.0448543
0.0921487
-0.0137861
-0.0658356
-0.0292302
0.032637
0.0146918
0.0453133
-0.00536806
0.00562541
-0.100895
0.00749451
0.0927223
-0.0497924
0.0593746
-0.026334
0.0850814
-0.0298577
0.037602
0.00186309
-0.0783725
0.0571517
-0.0432865
0.0281975
-0.0413592
-0.0419609
0.0235625
-0.0268524
-0.0616798
-0.0188437
-0.00486727
0.00448629
0.00901352
-0.106423
0.0294212
0.0368407
0.0502348
0.0216798
-0.0584978
-0.0755123
-0.0815612
-0.0147214
0.0355547
0.0432095
-0.037237
0.0105871
0.0066814
0.0100805
0.0475833
-0.0182605
-0.00501748
-0.0427852
-0.00098725
-0.0613824
-0.021147
0.0714083
0.0853702
0.0367603
0.0280756
0.0202548
-0.0307768
0.0890084
0.0864392
-0.00824287
0.00412037
0.0933647
-0.0914105
-0.010741
0.0354704
-0.0296279
0.0589837
-0.0320734
0.0746748
-0.00374521
-0.0371867
0.0749696
0.00905395
0.0805157
-0.0667308
-0.0388232
-0.0214212
0.00410717
0.105432
0.00487429
-0.0152926
-0.0654631
0.053435
-0.12433
-0.144722
-0.0244641
0.0138226
-0.0464951
-0.0445431
-0.0227087
0.0174887
-0.00100241
-0.00198751
0.0569297
0.081476
0.0170463
0.0629815
-0.0090701
-0.012046
0.0938165
0.0745558
0.0754832
0.0108679
0.00239373
0.0352443
-0.101047
0.0253535
-0.0121509
-0.0523384
-0.0410488
0.0307175
-0.017965
0.0757296
0.011584
-0.0383868
0.0158541
-0.0613859
0.0151062
-0.0496063
0.00508374
0.0580584
0.0542123
0.00805979
0.0730621
-0.0509558
0.0569924
0.00161792
0.0534151
0.0315135
-0.0849429
-0.047754
0.077549
0.0152656
-0.00912088
0.0284574
0.0930025
-0.0841493
0.0349431
0.0468933
0.00825325
0.0253406
-0.0473597
-0.0141428
0.00124307
-0.045906
0.0275059
-0.0005832
0.0798585
-0.0586926
0.0674296
-0.00973684
0.0262183
-0.0370921
-0.0155122
0.0272522
0.0419254
-0.128489
0.0607935
0.00118262
0.0222749
0.0671001
-0.0543194
-0.0171466
0.0711878
-0.0345781
-0.0324696
-0.029837
-0.072413
-0.00916317
-0.00626568
-0.099165
0.0251688
0.00284406
-0.00879646
-0.000380895
-0.0443304
0.0323442
0.045124
0.0553382
0.00265271
0.0150233
0.0186356
0.0679246
-0.0428829
-0.0717377
-0.0701618
0.00515817
0.0576018
-0.0732918
-0.0311349
-0.0618174
0.0427149
-0.00539597
0.00969013
0.0911223
-0.0886241
0.0199024
0.0281425
-0.0237464
0.0181456
0.00232175
0.0516359
0.0102006
-0.0298905
-0.0184927
0.0453451
0.00548037
0.00561303
0.0267504
-0.0491525
-0.0123785
-0.0850181
0.0997349
0.047623
-0.0165134
-0.0799951
0.0272233
0.0360977
-0.0216444
-0.0614774
0.0366076
-0.0596029
-0.0330109
0.00451196
0.0497124
0.057104
-0.0487678
-0.0122221
0.0411409
0.0674297
-0.0716733
-0.0551099
0.0700116
0.0123437
0.0390733
0.0278042
0.0162057
-0.0521737
-0.000865314
-0.0375489
-0.053979
0.00832836
0.0725637
0.0591029
0.0351551
-0.111014
-0.0644053
-0.102814
-0.00239395
0.0246934
-0.0212242
0.125469
-0.0302718
-0.0233058
0.0115257
0.000812302
-0.0501694
0.043222
-0.0282697
-0.00217744
0.0521697
0.00736609
0.00301506
0.0703191
0.00330815
0.0170294
0.0327811
-0.00742605
-0.0549492
-0.0145234
0.0441274
0.0521632
-0.0528283
0.0383477
-0.12077
-0.0314539
0.0662842
0.0661114
-0.0476273
-0.00169203
0.0137417
-0.0836381
0.0252888
0.00741387
0.042232
0.0470089
0.0152355
-0.00480358
-0.0637535
-0.0211906
0.033413
-0.0324923
0.0739078
-0.0662121
-0.0214849
-0.0323565
0.0851081
0.0802255
-0.0257502
0.00921523
-0.0153519
0.0235004
0.00927874
0.0196052
0.00939605
-0.109565
0.0102872
0.0382587
-0.00661378
-0.00622187
-0.0345457
0.0757414
-0.0648093
-0.0270917
0.0387168
0.0846592
0.0344969
-0.0220394
-0.0273764
-0.00375049
0.0368153
-0.000686821
0.0294309
0.0572355
0.0394687
0.0334684
0.0378863
0.00637117
0.0332245
-0.0165302
0.00900281
-0.0650617
-0.0218381
0.000249601
0.0176337
0.0312014
0.0130114
0.0163601
0.0488981
0.026526
0.0968351
0.00313751
0.0433328
-0.00522791
-0.0369241
-0.136381
-0.0431368
0.0832021
0.0378494
-0.0105058
0.00889672
0.018693
-0.0358504
0.0298715
-0.0693159
-0.00568688
0.0218475
0.0359624
0.0461771
-0.0272095
-0.0617455
-0.0169761
0.0250233
-0.0252405
-0.134618
0.0736726
0.00421754
0.109989
-0.0295721
0.0754763
0.000224836
-0.0666873
-0.114017
-0.0104453
0.0482463
0.120069
0.0553943
-0.030752
-0.0119377
0.00425813
-0.00805017
-0.0169434
0.0522622
0.0248051
-0.0192372
0.00789185
-0.0143149
0.0321939
0.00351162
-0.0369713
0.0420339
-0.0513627
0.0281223
-0.0087131
0.0563006
-0.0441273
-0.082713
0.0153642
-0.00222996
0.0304582
0.00922438
0.124889
0.0249142
-0.0136965
-0.0302759
0.073612
-0.0457941
-0.00551671
-0.0232522
0.00540603
-0.0499064
0.0285233
-0.10704
-0.0443068
-0.0174858
-0.0481886
-0.0153437
-0.0441478
-0.0959805
0.00508613
0.077724
0.00881197
0.0445662
-0.100531
0.0440029
-0.00571113
0.0132698
-0.0912039
0.0117464
-0.040676
-0.0532769
-0.00376375
-0.0383859
0.035489
-0.0639383
-0.0235789
-0.0315565
-0.100946
0.0556368
0.0271475
-0.0894484
-0.0580291
-0.0506224
0.00727562
-0.0194414
0.000213787
-0.0422303
-0.121614
-0.0142873
0.0653664
-0.063073
0.0490456
-0.0257148
-0.00176575
-0.0292375
-0.0652038
-0.00534055
-0.0431289
-0.0520763
-0.0540971
0.0363878
-0.0471283
-0.00990424
-0.0209793
0.0891459
-0.0351147
0.0467947
-0.0476236
0.0532624
0.0450922
0.0663042
0.0364675
-0.00596257
0.0620089
0.11394
-0.0142293
-0.0288752
0.00131223
0.00498088
0.0686196
0.00355204
-0.0593055
0.0889056
-0.00312449
-0.0692154
-0.0440538
0.00976699
-0.0487294
0.0171936
0.0669165
0.0832433
0.012311
0.0113593
-0.0144823
-0.0282319
-0.0368553
0.0619964
-0.0493604
0.00568419
0.0744005
0.0280155
-0.0629978
0.0891518
0.00545686
-0.0946183
0.0658238
0.0615431
0.044891
-0.00956193
-0.0227802
0.0479995
0.0149735
0.00844968
0.0312639
0.0628436
0.00803897
-0.0476014
-0.00889196
-0.0115987
-0.0535929
-0.0872861
-0.0448245
0.0407569
0.0506383
-0.05022
0.0130625
-0.0359161
-0.0191286
-0.0365561
0.0400232
-0.0332921
0.0418843
0.0148479
0.1014
-0.0557541
-0.0344032
0.104735
-0.10215
-0.00849719
0.0390064
0.00466303
-0.0257829
-0.0229432
0.0658697
-0.00193298
0.00849855
0.0926452
0.0201157
0.0259115
-0.0146316
-0.0502468
-0.102334
0.0531988
-0.00769624
0.0600973
-0.0567866
0.0939502
-0.00248377
0.00848095
0.0296454
0.00427811
0.080943
0.0278664
-0.00180602
0.0191577
-0.079627
0.0368436
-0.00176093
0.0430524
-0.00316174
-0.00942568
0.0348704
0.0714765
0.0195979
-0.0171986
0.0173545
-0.00487313
-0.0502208
-0.0366307
0.0718422
0.0281574
-0.0522297
-0.0716443
-0.0494775
-0.0081018
-0.000343429
-0.0426633
0.011299
0.0401543
-0.00466265
0.0402261
0.0178632
-0.000362111
-0.0500881
-0.0521277
0.0148057
-0.00546282
0.05729
-0.017286
-0.0363088
0.0148292
-0.0920301
0.0398085
0.0559192
-0.00188138
-0.0471116
-0.0643265
0.0200375
0.0288949
-0.03095
0.0222396
-0.0731402
-0.0639112
0.0118145
0.0171568
0.0297362
0.0458308
-0.000500085
0.00743408
0.0474242
0.00925779
0.00681547
0.00932352
-0.0517729
0.0755137
0.0309953
0.0896806
-0.0491247
0.029117
-0.0134212
-0.123599
-0.017459
-0.0672132
-0.0642538
-0.00842357
0.00581484
0.0111257
-0.018507
0.0771984
-0.0815579
0.0995975
-0.0331424
-0.000358357
-0.0134976
0.0210178
-0.0725949
0.0709017
-0.00559228
0.0664444
0.0558073
-0.0237076
-0.00331151
0.0629915
-0.0405516
-0.0589963
-0.0255082
0.0212935
-0.0303222
-0.00987063
-0.112959
0.0135898
0.0386425
0.0849669
-0.0580579
-0.100368
0.061402
0.0224621
0.0279598
0.103383
-0.0152872
-0.00941439
-0.0292198
-0.0449242
-0.00686302
0.114437
-0.0252915
0.0806392
-0.0681182
0.0595879
0.00292066
-0.0369328
-0.00363094
0.0103285
-0.0332859
0.0233926
-0.0435231
-0.0240862
-0.00982358
0.0398984
-0.026286
0.00711711
-0.00859513
-0.0179671
0.0423349
-0.0282377
0.0237167
-0.0585928
-0.0324726
-0.106614
0.0462111
0.0016665
-0.0541748
-0.0544321
0.0229249
-0.00196544
-0.0135476
0.0431309
0.041078
-0.0194037
0.038661
-0.0211654
0.00796594
0.0507286
-0.0342906
0.0575051
0.0278245
0.0573533
-0.00719366
-0.0383934
0.017433
0.0180104
0.0703466
0.127042
0.0365558
0.0209851
-0.096267
0.0611968
0.0641197
-0.0399586
-0.0388329
-0.0305908
0.0409546
0.00236799
0.0411617
-0.0706278
0.00796346
-0.0656569
-0.0727097
-0.0546
0.00729688
0.0029957
0.0890043
-0.0862008
-0.00355123
0.0755438
0.0199556
0.0590544
0.00605881
-0.00243062
0.000180346
0.0345872
0.0282956
0.0072223
0.0311129
0.0498483
0.0120641
-0.0162916
-0.00935198
0.085668
-0.0444514
-0.00842416
0.020375
0.0577085
-0.00461743
0.0594852
0.0522169
0.0274176
-0.00277941
0.00124407
0.10598
-0.00729372
-0.015342
-0.0259427
-0.00435452
-0.0385379
-0.0562452
-0.0105277
-0.0133005
0.0550987
-0.0427135
-0.000696031
-0.0605847
-0.0654846
0.0173501
0.0663097
0.0874343
0.0458884
0.0389399
-0.0382417
-0.026206
0.0583289
0.121811
0.0861769
-0.0625541
0.0334205
-0.0267913
-0.022885
-0.0858381
0.0206431
0.00625212
0.0290613
-0.0961731
0.00270717
-0.0467509
-0.0480297
-0.0158208
0.0882567
-0.0422097
0.0159391
-0.00523915
-0.00806193
0.00850093
-0.0061203
0.017105
-0.0642786
0.108288
0.00639484
-0.0554213
0.124652
-0.0844239
0.0597922
-0.0058233
-0.0016763
0.0983397
0.0622059
-0.00665095
0.0430632
-0.0565778
-0.0520925
-0.0667833
-0.0122792
-0.0569824
0.0401185
-0.0534721
0.0881145
-0.0482389
0.117756
0.0657894
-0.0714058
-0.00358283
-0.046002
0.0124919
-0.0559869
0.00487633
0.0266581
0.0261534
-0.00360321
0.0664071
-0.0163952
0.0356358
0.039447
-0.0407346
0.031741
0.0332348
-0.051918
0.0272951
0.0509963
-0.0135588
-0.0754405
0.048064
-0.0561325
0.000458483
-0.00247676
0.0186026
-0.0400819
0.0994243
0.0195068
0.0011851
0.0184334
-0.0601823
-0.0059702
-0.0575595
-0.0474721
-0.106907
-0.0293811
0.0341903
-0.148859
-0.013897
-0.00376254
-0.0140234
-0.0497398
0.0269833
-0.039304
-0.0351394
-0.0559542
0.0209199
0.0326398
0.0295264
-0.00456525
0.0277748
-0.0105127
-0.0346618
-0.00213194
0.0881867
-0.00727681
-0.0506684
-0.079763
-0.0850417
0.046878
-0.0227952
-0.037432
-0.0444014
-0.0264566
0.0641378
-0.0150101
-0.0685235
-0.0464024
0.0072532
-0.00151822
0.0974004
0.00048055
0.0780861
-0.0379802
-0.0166303
-0.0458102
0.00881628
-0.0648613
-0.00474475
0.00710983
0.00596202
0.031047
0.00987348
0.0248661
0.028056
-0.0779319
0.034769
0.0348151
-0.133119
-0.0634756
0.0999082
-0.00947537
0.0862244
0.0535842
-0.0308948
-0.040736
-0.00893872
-0.0253201
-0.00716931
-0.0459605
-0.0223568
-0.00141964
-0.0124614
0.0131272
-0.0418618
-0.0125251
-0.0150899
0.0376501
0.00882808
0.0373382
-0.0498805
0.00569326
-0.116054
0.0966427
-0.0909546
-0.039166
-0.00634917
0.020608
0.00538001
0.0292292
0.0197803
-0.067064
0.0622518
-0.0084759
0.00726883
0.0360739
-0.0491168
-0.0294891
0.0218162
0.0508801
0.057865
-0.00564779
-0.0697906
0.0197398
-0.0335172
-0.039579
-0.0327316
0.0811387
-0.0148852
-0.0347754
-0.0206234
-0.0573561
-0.000287277
0.0789729
-0.0528258
-0.0143768
-0.0442213
0.0260856
0.0689166
0.0109943
0.00413012
-0.00825942
0.0202418
-0.070255
0.0370583
-0.117538
-0.0401818
-0.00803458
0.0318082
0.0560091
-0.0417968
-0.00483028
0.145073
0.031496
0.0968688
0.00996621
0.0479333
0.0703965
-0.0294695
-0.0169984
0.00866678
0.0107442
-0.00172326
0.0145252
-0.0320729
-0.085904
0.00605174
0.0279351
0.00208015
0.104657
-0.00180489
0.034936
-0.00882383
0.048529
0.10125
-0.064945
0.0385701
0.027396
-0.012711
-0.0843453
-0.0778391
0.0238439
-0.0871008
0.0314422
0.0542912
0.0159169
-0.0901622
0.000736593
-0.0772752
-0.0989572
-0.00506802
0.0353245
0.067346
0.0761495
-0.0515112
-0.0195775
-0.00738397
0.0432807
-0.0262764
0.0461522
0.0594677
-0.0739339
-0.053746
0.00845401
0.0552267
-0.0850633
-0.0192747
-0.0175727
0.0938796
0.00653413
-0.0222546
-0.0567536
0.00626615
0.0367989
-0.0516547
0.114127
-0.0525595
0.0484978
0.0063886
0.0429821
0.00535974
0.044276
-0.0546306
-0.0321529
-0.0304154
0.0924206
-0.0671088
-0.0437441
0.0210949
-0.0122711
-0.00320587
-0.00386953
-0.0306797
-0.0353949
-0.00839921
0.00972147
-0.0146388
-0.0127514
-0.00835312
0.0461444
-5.38598e-05
-0.0102183
0.00615172
0.0448597
0.084096
-0.0678489
-0.0995605
0.0197201
0.0129125
0.0556032
0.105614
0.00577635
-0.0684215
0.0538436
0.00658116
0.00334364
0.00873681
-0.0143451
0.0225032
0.0420573
-0.045816
0.0144867
-0.00197114
0.0443171
0.060487
-0.0048333
-0.0497908
-0.0311016
-0.0399937
0.0630403
-0.0327609
-0.0277616
0.0874744
-0.0133836
0.0369268
-0.0526709
0.0528211
-0.0868738
0.00763765
0.00338438
-0.0259665
0.0150272
-0.0736747
-0.0826352
-0.0192331
-0.0433543
-0.0129827
0.00851882
-0.0173066
0.0180826
0.038015
-0.0145392
0.0667334
0.00341462
-0.0496745
-0.106302
0.02479
-0.0770675
-0.0646538
0.00367524
-0.11857
0.0484339
-0.116088
-0.0936184
-0.0400513
0.0428148
-0.0184689
-0.0469018
0.0631498
-0.00404852
-0.0441783
-0.0278656
-0.0234099
-0.101235
0.0381564
-0.00174856
-0.0363363
-0.0149836
0.0148866
0.0226843
0.0378074
0.0124239
-0.0904287
-0.0123882
-0.0111037
-0.0215009
0.018818
0.00701771
0.049992
0.0279151
0.0181534
0.00743838
-0.0264194
-0.0565997
-0.0227479
0.0165483
0.0541855
0.000821037
-0.0103608
0.0505588
0.0318026
-0.0113903
-0.0710107
0.023886
-0.0292812
-0.00281021
0.0193569
-0.0573558
0.0548383
0.0844078
0.0144059
-0.00268288
-0.00753865
-0.0451441
0.00488297
-0.0573358
0.0771796
-0.0276093
0.0690003
0.0630759
-0.018884
-0.0422453
0.0504032
0.00822171
0.0728143
0.0161137
0.00558377
-0.0303793
0.0136004
0.00244119
-0.0864028
-0.0591887
-0.0282839
0.0189394
-0.0507923
0.0409724
-0.0181997
0.0400237
-0.0164839
-0.0274246
-0.029456
-0.00652253
-0.0229568
-0.0217682
-0.0330412
0.0499631
0.0191352
-0.0209631
-0.0664193
0.0103936
0.00236916
-0.0307711
-0.108957
-0.0601046
0.0716219
0.089656
-0.00860231
-0.0396427
0.0428415
0.0660021
0.00385018
-0.102233
-0.0252273
-0.00227836
0.0815384
0.10661
0.027559
-0.0167307
0.0563734
-0.0806879
-0.00529667
-0.0289869
0.0468741
-0.0979799
-0.0130646
0.0352383
0.0450362
0.0542815
0.0332972
-0.0894686
0.0585603
-0.0402216
0.00479006
-0.0324085
-0.0318591
-0.0237653
0.00359863
-0.0195514
-0.06125
-0.00482046
-0.0416859
-0.000825845
0.0758036
-0.0122428
0.0233876
0.0261767
-0.0129665
0.0267068
0.00622556
0.0471876
0.0205624
0.0602775
0.0165982
0.00586603
0.0698231
0.0542897
0.0386423
0.0423437
-0.0403535
-0.00928389
0.0309696
0.0549633
-0.0521522
-0.12077
-0.0347059
-0.0731945
0.0266211
0.0295009
-0.0108094
0.0237386
0.0284732
-0.0356709
-0.0834057
-0.0166665
0.0380259
0.0283123
0.0277777
0.0180214
0.0647222
0.0521234
0.0662506
0.0205807
0.0358172
-0.0285323
0.00901995
-0.092701
0.0710377
-0.0211563
-0.0232568
0.0316046
-0.0361165
0.00788143
0.0350319
0.0298507
0.0231233
0.021766
-0.0136743
-0.018561
-0.0774957
0.0204955
0.0329809
0.0631915
-0.00192608
-0.0292235
-0.018654
0.0600376
-0.0294476
0.10265
-0.0749126
0.02947
-0.0395371
0.097833
0.00865179
0.00504137
-0.0497826
-0.0782828
-0.0563411
-0.0617988
0.0340402
-0.0206385
-0.0179104
0.074451
-0.0432666
0.00286914
0.0156609
0.0251271
0.054044
-0.0956818
0.000547448
-0.0344093
0.0548942
0.0013401
-0.067306
0.0404119
0.0359962
0.0112251
0.0426643
0.0334489
-0.00584735
0.0140454
-0.00349979
0.0751194
-0.0365758
-0.0303956
-0.0266445
-0.0673762
0.0165692
-0.0945021
-0.0438158
0.0299236
0.00404884
0.0204373
-0.0597535
-0.0811035
0.0645079
0.0557127
0.00389868
-0.121821
-0.0696178
-0.0498018
-0.0143947
0.0367432
0.0405364
-0.0029952
-0.0142425
0.0677609
-0.0182599
-0.103631
0.00817993
-0.0849986
-0.0841201
0.075912
-0.0525196
-0.0609902
-0.00562267
0.0262095
-0.0115083
-0.0110677
-0.0595646
0.00800789
0.0072255
-0.0249025
0.00904453
-0.00870359
0.0189716
0.0192781
0.0340607
0.0689274
-0.037958
-0.071708
0.0340413
0.0149943
-0.02925
0.0176446
-0.0138692
0.00374588
-0.00723922
-0.0410605
0.0383625
-0.0306719
-0.0766108
-0.0164529
-0.00631878
-0.0056073
0.0671706
-0.029095
0.0445231
0.019679
-0.0452962
-0.138406
0.0912655
0.0788742
-0.0409025
0.0296464
0.0404998
-0.0043112
0.0187041
-0.063814
0.0232936
-0.00224509
-0.0156133
0.0242795
-0.018902
0.000553049
0.0784195
-0.0373905
0.0172151
-0.0411012
0.0121028
0.0269012
-0.0221582
-0.0247003
-0.00345613
-0.114727
0.0309211
0.0053916
-0.0539865
0.0777778
0.00567119
-0.0744236
0.0913141
0.0850176
-0.125564
-0.0352774
-0.066642
0.0216845
-0.132603
-0.0244222
0.0260668
0.101191
0.035839
0.0884643
-0.057272
0.00220607
0.000876398
0.0652793
-0.0789999
-0.0291976
0.0103964
0.00307202
-0.0620974
-0.0664386
0.0074433
-0.0741356
0.0120846
-0.00887514
0.0499237
-0.0243258
-0.019762
0.0477892
0.0112483
0.0372377
0.0454642
-0.00607104
-0.0741011
-0.0571318
0.0295011
-0.00562499
0.105742
0.0423337
0.0783985
-0.0204879
-0.0303107
0.0846859
-0.0784327
0.0021231
-0.0221942
-0.0132594
0.0588329
-0.00900813
-0.0821673
0.0206614
0.0369011
-0.0379978
0.0228545
0.0312138
-0.128074
0.0236857
-0.0943369
-0.0134333
0.0395344
-0.0465638
0.0488565
0.0840676
0.0467009
-0.0202338
-0.0172151
0.0667816
0.0787531
0.0534675
0.0196849
0.0156151
-0.0156809
0.0786799
0.0831287
-0.0491256
0.080388
-0.0128676
0.13858
0.0466773
0.0839004
0.0639219
-0.0245957
-0.00828142
-0.0321984
0.0582439
-0.0182247
-0.0890706
-0.00110749
-0.0554611
-0.0581041
-0.0129663
0.0184254
-0.0988483
-0.00342788
0.0405679
0.0367383
0.120123
0.0462858
-0.0505448
0.045807
-0.0287404
-0.0219841
0.0233797
0.00716018
0.0244922
-0.0130767
-0.037434
-0.0240557
-0.00985028
-0.0638865
0.0310318
-0.0567197
0.0419822
0.0343626
0.0490461
0.0172897
-0.0254903
0.0189115
-0.0252328
-0.0698972
0.0107591
-0.0473283
-0.0194154
-0.137655
-0.124003
-0.116788
-0.0452954
0.0134852
-0.0306116
-0.0256757
-0.0402043
0.000868771
0.0517179
0.0117803
-0.0125537
-0.0449707
0.042639
0.0258877
0.0348224
-0.0415893
-0.0413441
0.0992501
0.0862732
0.0346151
-0.0694426
0.0226926
-0.00529529
-0.0550312
-0.0265896
-0.0374595
-0.0127768
-0.0232259
0.0874331
0.00247109
0.0321604
0.0556737
-0.0431688
0.0891965
0.0230666
0.0112903
0.0438063
-0.0478616
0.0128214
0.00167963
-0.0430258
-0.0613311
-0.0251776
0.038691
0.0595551
0.00249494
0.0562714
-0.0368673
-0.0352143
0.0565291
-0.0585698
-0.0303409
-0.0544517
-0.0160044
0.0347307
0.00824712
-0.0618165
-0.0208786
-0.0819515
-0.0663701
0.0139711
-0.0419809
0.0665953
0.102641
-0.0380979
-0.118826
0.0911362
-0.114343
0.0789971
0.0148179
0.020659
-0.0407634
0.00931875
-0.0204452
0.0990762
-0.0943914
0.0393391
-0.0891365
0.0163597
-0.00925262
-0.0182704
0.00990975
0.0549445
0.0257733
-0.00178586
0.018665
0.0339832
0.0992755
0.00832957
-0.000842248
0.0177568
0.0731231
-0.0204172
-0.0417698
-0.0321465
-0.00397037
-0.00177149
-0.113151
-0.0416473
-0.0668579
0.043941
0.0637047
-0.0285033
-0.108194
0.0183284
0.0634021
-0.0485906
-0.026958
0.0223454
-0.00961165
-0.0522017
0.0127131
-0.0431588
0.0403384
0.114857
6.74201e-05
0.12079
0.0254512
0.0457456
0.0307144
-0.0426792
-0.00599943
0.085888
0.0377138
-0.148794
0.0161392
0.00346467
-0.0579936
0.0386314
-0.0678113
0.0879784
0.00918092
0.0217733
-0.0866417
-0.0201523
-0.070897
0.070781
0.0205931
-0.0784882
-0.00540931
0.0112457
0.0560984
0.0238211
-0.0174798
0.0631366
-0.0113361
0.033505
-0.0140547
-0.0774087
0.0976858
-0.0578654
0.0366317
-0.0549292
0.0350164
0.00876742
0.0857572
-0.0499623
0.00868319
-0.039456
-0.0131853
0.00804608
0.139224
-0.082877
0.000223317
0.0631232
-0.0436673
-0.00942711
-0.00614723
-0.0464614
0.0362297
-0.0163496
0.102795
0.0765826
0.0686349
-0.00390196
-0.0376943
-0.00693568
0.0135427
-0.0779006
-0.0508291
-0.0495557
-0.0403997
0.0253941
-0.0802217
0.00621811
-0.0191821
-0.00693191
0.00178399
0.0396736
0.0406216
-0.00944461
0.00583862
-0.00963443
0.00800708
-0.0342526
0.0558841
-0.0013714
-0.0529895
0.0109012
-0.0556091
-0.0180439
0.0104035
0.00328669
0.0239198
-0.0303062
-0.0700751
0.0309802
-0.0336227
-0.0515462
0.0335469
-0.0163121
0.0834071
-0.0498493
0.0784335
-0.0215203
0.059968
-0.00199667
-0.0194962
-0.0515861
0.0376222
0.0104485
0.0369643
0.0282861
0.0441039
-0.0397601
0.0265146
0.0354615
0.00471691
0.0457301
0.0120061
-0.0603949
-0.0388755
-0.0237582
0.0274091
-0.0647125
-0.0236666
-0.0163641
0.0347702
-3.21482e-05
-0.0222836
-0.103035
-0.0135978
0.035672
0.0136038
0.0284529
-0.0138092
-0.0203159
-0.0718517
0.0199114
0.0256906
-0.0469786
-0.0556026
0.00652561
0.00858015
0.0573258
-0.0886059
-0.0466956
0.0726605
-0.00422587
0.0100937
-0.0441215
0.0113553
-0.00572545
0.0219524
-0.0408254
0.117306
-0.029462
-0.0512812
0.00896683
0.0757787
-0.00548411
-0.0432111
0.0148624
-0.0149112
-0.0860031
-0.0974647
-0.0384344
0.0386766
-0.0591767
0.0272245
0.00443696
0.000786848
-0.0518938
0.0780356
-0.0438066
0.0339632
-0.0118038
-0.0260625
0.0293637
0.026324
-0.00377386
0.0173363
-0.0577556
0.0509632
0.138743
0.0288868
0.00683798
-0.0355424
0.0777177
-0.0672661
0.0388595
0.0454087
0.0198182
-0.0879974
0.00894498
0.00497638
-0.0482347
0.0152903
0.0221197
0.0206575
-0.0523503
0.0215685
-0.0355186
-0.00659344
0.0489006
0.0578989
-0.0777157
-0.0357423
0.0566777
0.102018
0.0248201
0.00867536
-0.00767424
0.0770868
0.028512
0.0155588
0.0219177
0.0692756
-0.0320573
0.0239672
0.0477524
-0.00334003
-0.0255061
0.0670015
-0.0482711
-0.00377884
0.0595388
-0.0614652
-0.0287587
-0.048336
-0.0416976
-0.023753
-0.0634046
0.0474556
-0.0404318
0.00734185
0.0509335
0.052621
0.0331154
0.0817972
0.00759663
-0.0691835
0.0455263
-0.0130832
-0.0197416
0.0642321
-0.0405737
-0.0287485
0.0673734
-0.0512624
-0.0879169
-0.0669771
0.0316925
0.0425242
0.00822614
0.129643
-0.108439
0.0405868
-0.0794799
-0.0122231
0.0748443
-0.0320089
0.00303989
0.0835989
0.0242658
-0.0384973
-0.0346354
-0.00577675
-0.0510132
0.0213785
-0.041902
-0.0738307
-0.0897563
0.00503026
-0.0615254
-0.0214443
-0.0144905
0.0681729
-0.00115226
0.0912312
-0.122774
-0.0397007
-0.0612837
-0.0386334
-0.00729664
-0.0104708
0.0757043
-0.0268653
0.0135812
0.0297346
-0.0530828
0.074766
-0.0593957
0.0439276
-0.011781
-0.0357262
-0.0138675
0.132127
0.108183
0.0422292
-0.0328084
0.0670703
0.0517035
0.0085699
0.0867104
0.0295052
-0.0475185
0.00183064
0.0351653
-0.0158898
0.0322581
0.101078
0.0195976
0.0992161
0.016608
0.0204633
0.00776345
0.123226
-0.0837274
-0.0905928
-0.0030264
0.0805326
0.0428741
-0.0316022
-0.0130825
-0.0059897
0.0191496
0.0174244
-0.106466
-0.00427112
-0.065543
-0.0792386
-0.00232214
0.047175
-0.0114497
0.00157472
0.00538735
-0.0546733
0.0227662
0.0877435
0.0281991
-0.000823195
-0.0259212
0.0519675
0.000910451
0.0485527
-0.0248858
-0.00934098
1.0301e-05
-0.0295981
-0.0106622
0.0384317
0.091075
0.05352
-0.0885778
0.0139144
0.0432712
-0.0428693
0.0233783
-0.062108
-0.0620669
-0.00506118
-0.00657314
-0.00382557
0.0110027
-0.0475938
0.0214882
-0.0287147
0.0256454
0.0242725
-0.0168516
-0.0140759
-0.0292929
0.0373956
0.0513323
0.0388027
-0.0363081
-0.0592931
0.014897
-0.0648124
-0.0145776
0.0622008
0.0527687
0.0620977
0.00485314
-0.00261592
-0.0933375
-0.103801
0.00368627
-0.0101675
-0.0100424
-0.0921155
-0.0280704
-0.0914267
-0.0565613
-0.0970907
-0.0192654
0.0366921
0.0789422
-0.000689075
0.0169587
0.00684308
0.0726095
0.0305181
-0.0146793
-0.0387057
-0.0376145
-0.0454939
-0.00375181
-0.0243592
0.035223
-0.00562295
-0.0595369
-0.00678552
0.0407843
-0.0127535
0.0350588
0.0411235
0.00162864
0.0186461
-0.0273151
0.03272
-0.0675455
-0.000800887
-0.0177833
-0.0194533
-0.0137125
0.0525708
0.0500801
0.0369309
-0.117375
0.0281339
0.0519423
-0.0192969
0.0430535
-0.0328468
-0.00355287
0.0202842
-0.0412086
0.0146052
0.0283874
0.0150797
0.00465254
0.102105
-0.0527647
-0.00458196
-0.0624051
-0.0271973
0.0440275
-0.0829317
-0.074732
0.0426817
0.0846279
-0.0728612
-0.0292054
0.0355714
-0.0183772
-0.0508346
0.00697658
0.00053728
0.00391692
0.0460895
0.0760396
-0.0384067
0.107535
-0.01914
0.0671312
-0.033815
0.0101862
-0.00915924
0.0536207
-0.0543067
-0.0488442
-0.133722
0.0149294
-0.0382804
-0.0445413
-0.0139471
0.015761
-0.0514133
0.102171
-0.0402954
-0.00036338
0.0894154
-0.073451
-0.0285836
-0.0724924
0.115126
0.136522
-0.0217557
0.0037295
-0.0892236
-0.0089315
0.0821396
-0.00897355
0.0754784
0.072962
-0.0274935
0.0208401
-0.0595622
-0.0943406
-0.111503
0.0735353
0.0577178
0.0822572
0.0218876
0.0855544
0.0216154
0.0216708
-0.0309085
0.096155
-0.0454381
-0.00116592
0.00290471
0.0740102
0.00499822
-0.0129517
-0.0114785
0.000182439
0.0299978
-0.0875833
-0.06943
0.0542332
0.0742367
0.0398287
0.0342412
-0.00194089
0.0684269
0.00233296
-0.0332784
0.0375847
0.0194858
-0.0246715
-0.0315139
-0.0198026
0.0362647
0.00200712
-0.0436037
0.0104744
-0.0517676
0.0184697
0.0101982
-0.0182439
0.0237492
0.0173379
-0.0143193
0.000388324
-0.0458637
0.0476927
-0.0226321
-0.00811681
-0.0510403
0.115877
-0.00100252
-0.0290422
-0.0756015
-0.0460192
0.043155
0.0632285
0.0682572
0.0783069
0.0612499
0.00624421
-0.0226807
0.0206556
-0.0463832
0.0441632
-0.0816635
0.0764127
0.100241
-0.00544133
0.0197821
0.0405081
0.0475041
-0.0723905
-0.00452875
-0.0255547
-0.0725127
-0.0981804
0.0230009
-0.0509365
0.0458941
-0.0178306
0.0603491
-0.0325019
-0.00865169
-0.0372493
-0.0487491
0.0237088
0.0247637
0.0170508
0.0556348
-0.0221441
-0.00872285
-0.0177186
-0.0321688
-0.050297
0.0545554
-0.0874733
0.0107016
-0.0339181
0.00614617
-0.0550879
0.0811487
-0.0565448
0.0336783
0.0149299
0.0359027
0.0468724
0.0206761
-0.0262006
-0.0365387
-0.0340395
0.05331
-0.0292409
-0.0255093
0.139369
-0.0331367
-0.0279206
0.0831117
0.0328199
-0.0128514
0.0401288
0.0282975
-0.0295029
-0.013351
0.040909
0.0019946
-0.0245517
0.00655718
0.0229615
0.0288643
0.0561291
-0.0435647
-0.0695886
0.0374725
-0.031983
0.0719889
0.0404416
-0.0248201
-0.0269104
-0.014668
0.0143063
-0.0013676
0.0428177
0.00358404
-0.0552815
-0.0660914
0.0135309
-0.0936576
-0.00172655
0.0435282
0.0588406
0.012467
0.0109303
-0.0241388
-0.0590038
-0.106535
0.0541705
-0.023907
0.1179
-0.00615846
0.0408685
0.0226964
-0.0550497
0.00470195
-0.0536147
0.0195091
-0.0565212
0.00585828
-0.0483249
0.0519546
-0.0978666
-0.07991
-0.0486081
-0.0846363
0.0453153
0.0209955
-0.0829678
-0.00505756
0.0832893
-0.118377
-0.0135065
0.0499323
0.023589
0.0122
-0.0287873
0.0411854
0.106299
-0.0625362
-0.0344878
0.00450029
-0.00565161
0.00812431
-0.0367272
0.0643747
0.0297913
0.0533753
0.0103123
0.00687301
0.101757
0.00513907
-0.0278406
-0.0325944
0.0012091
0.111633
0.0198185
-0.0072887
0.0153101
0.0393821
-0.0141521
-0.122224
-0.0192243
0.0122354
-0.0507588
-0.00089653
0.0821436
-0.0210812
0.0439377
-0.0354328
-0.0443167
0.0171834
0.0233954
0.0083213
-0.145885
0.0733219
0.070569
0.0263534
-0.00534961
0.0161077
0.0414457
0.0493516
0.00529995
-0.0452899
0.0230566
0.0167063
0.00973813
-0.0479979
-0.00796333
-0.0297218
0.0272987
0.0520828
-0.00267814
-0.0450474
0.0462655
0.0060293
-0.0464301
0.086356
0.00983087
0.0547505
-0.0297633
0.0914788
-0.0430633
0.056966
-0.0249869
-0.0605874
0.0830366
0.0122722
-0.0492231
0.0204396
-0.0212517
-0.0130789
-0.00194088
0.0450846
0.0938321
-0.00424912
0.0596122
0.0472294
0.0516462
0.0817937
-0.0606251
-0.0224998
0.0491018
0.0215229
0.0109354
-0.0237619
0.0630108
-0.0878807
0.0133349
-0.0146653
-0.0218413
-0.00783376
-0.0580647
0.0545383
-0.044258
0.10505
-0.0862134
-0.0120104
-0.0186803
-0.0245605
-0.0610719
0.0355065
0.0423922
-0.0191604
0.0169668
-0.00441788
0.0832245
-0.00375498
-0.039688
0.0186375
-0.0103836
0.0787733
0.0721487
0.0368248
-0.0206341
0.00712296
0.0317001
-0.0166573
-0.0276515
-0.00848604
0.0762689
-0.117261
0.0148278
-0.0797702
0.065367
-0.000791589
0.0507826
0.0506751
0.127459
0.0114312
0.0735281
0.0774878
0.0394793
0.0512382
-0.0355234
0.0681205
-0.0636338
-0.0302239
0.0470641
-0.00347695
-0.0347133
-0.00629339
-0.00211279
-0.0862971
0.0853077
-0.071235
-0.0701809
0.0365447
0.0359839
-0.000527433
-0.0365434
0.0751576
0.02265
0.0247709
0.028261
-0.0187511
0.0422844
0.0191882
0.0626988
-0.0433545
0.0812882
0.00386248
-0.0324297
0.0234396
0.000994679
-0.0855556
-0.0254023
-0.0651301
-0.0712557
0.0466621
-0.0388519
-0.0376207
-0.0435157
-0.0441216
0.0570641
-0.0736483
0.0171419
0.0102618
0.0306006
-0.00738764
0.0689706
0.023005
0.0155574
-0.0611129
0.0318249
-0.0552424
0.0557911
0.0230531
-0.0407501
0.0320459
-0.0340404
-0.0276301
-0.0291709
-0.0431622
-0.0604302
0.0133154
0.0203371
0.0277695
0.0261642
0.0329638
0.0867386
0.0041595
-0.0396333
-0.0262853
-0.0365033
0.0845599
0.00410486
-0.00441334
0.0734433
-0.0802698
0.0679688
0.0581345
-0.00787726
0.0185048
-0.0418476
-0.00481689
0.0526633
-0.0528895
-1.36146e-05
0.0331434
0.0468782
-0.0396238
-0.0304858
0.0545608
-0.0733187
-0.0248796
0.0508376
-0.0463935
-0.0812583
0.0165637
0.0268383
-0.00696619
0.100277
-0.042088
-0.0828318
0.0415431
-0.0346611
-0.0171753
0.115692
-0.0573299
-0.00722206
0.0513729
-0.0227699
0.0483155
0.0924285
0.0371579
-0.00214157
0.0621691
0.0784486
-0.0451503
0.00643812
0.0636756
0.0249065
0.0774327
-0.121233
-0.0485356
-0.0531887
0.0271676
-0.144915
0.0131131
-0.0378259
-0.0634243
-0.0173391
0.0112728
0.046909
0.0247162
0.02229
0.00137109
0.0682831
-0.018569
-0.0518758
0.00640966
2.07573e-05
0.0273597
-0.067659
-0.113533
0.0301154
0.00362607
-0.0445372
0.0626941
0.0193654
0.0190908
-0.000762301
-0.0696687
-0.0181667
-0.0215421
0.0125944
-0.0162567
0.0517876
0.0096081
-0.0408264
0.0426139
-0.017984
-0.109058
-0.035805
-0.0333184
-0.0351266
0.0734477
-0.0913971
0.043252
-0.0281683
-0.0343551
-0.0248459
0.0702777
0.0453982
0.0033274
0.0302584
-0.0775362
0.0354116
-0.00412547
-0.011318
-0.0218196
0.031928
0.0326643
0.065266
0.0237506
-0.00561554
0.0287499
0.00841488
-0.0813827
0.0760173
-0.0103911
0.121738
-0.116795
0.0765425
-0.00489532
-0.0810892
0.0682779
-0.0749348
-0.0361376
-0.0567191
0.00890487
-0.0364488
-0.0102902
-0.0423465
0.00233045
0.028105
-0.0327709
-0.102007
0.00583556
-0.0386132
-0.0167508
0.117969
-0.0418309
0.0614288
0.0152251
-0.0272785
-0.0403495
-0.097788
0.031521
-0.0153615
0.007379
0.0523501
-0.0125718
-0.0528373
0.0144922
0.0781532
0.0396892
0.009331
-0.018394
-0.0266617
-0.0695242
-0.0992171
-0.00600797
0.00307378
0.0876555
-0.0722259
0.00575897
-0.0227177
0.04853
-0.0873868
0.0027514
-0.0699475
0.0492906
0.0431761
0.057304
-0.0226874
-0.0500848
0.0165852
0.0336311
-0.00503105
0.00185663
0.056426
0.0173449
-0.0297671
0.0886632
0.0306405
0.101124
-0.0506807
-0.0317769
-0.0487974
-0.0362537
-0.00449653
-0.0198322
-0.0481376
-0.0485879
-0.0520034
-0.0122396
-0.0311101
-0.0452546
-0.0152416
0.032165
-0.0341446
-0.00166107
0.0179552
0.0120208
-0.00589242
0.0307262
-0.00874694
-0.0453195
-0.0204425
-0.0154858
-0.0159458
-0.0561387
0.0641695
0.00139874
-0.0462472
-0.0953705
0.131381
0.038109
-0.075698
0.114114
-0.0439476
-0.0607874
-0.030461
-0.0222578
-0.000119236
0.0200293
0.0603835
-0.046135
-0.00483387
-0.0247323
0.0752784
-0.00098638
-0.0114625
0.0913014
0.0220405
-0.0138186
0.027634
0.0139475
0.000515944
-0.0432236
-0.0153536
0.0393888
0.0664716
-0.0370398
-0.0165495
0.0177535
0.0775571
0.0472467
-0.0485544
0.0678907
0.0371609
-0.0587211
-0.114748
-0.00831658
0.0876423
-0.0145798
0.0619517
-0.0296052
0.0165564
-0.0718412
0.0663089
-0.0335069
0.0224601
-0.0356253
0.06871
0.0725491
0.0773263
0.0408732
0.0649729
-0.0277366
0.0272033
-0.0445755
0.0632775
0.00524015
0.0221705
-0.0091843
-0.0121583
0.00989186
-0.0333046
-0.0422088
-0.0287284
-0.0160025
0.0182862
0.0164489
-0.0404909
-0.0421016
-0.0163294
0.0429041
-0.0232845
-0.113585
-0.00346691
-0.0297958
-0.0887241
-0.0534041
0.000296298
0.0966461
-0.00162902
0.0429427
-0.0143954
0.00469726
0.0819552
0.0505542
-0.00593956
-0.00031619
0.0134185
-0.0276763
-0.0219643
0.0280857
-0.00180501
0.0293833
-0.0133843
0.0810869
-0.0422963
0.0340604
-0.103151
0.0331329
0.0117753
-0.0871068
0.102282
0.0441289
-0.0585649
-0.00558179
0.0446051
-0.0485983
0.000750496
0.014909
0.0951712
0.106555
0.0333655
-0.0447962
-0.0023269
0.0239791
0.123279
0.0467619
0.0632017
0.0601567
0.0264651
0.0174043
-0.0305088
-0.0406817
-0.0956297
0.0130329
-0.0122165
0.0786531
-0.0229011
0.046252
-0.0518518
-0.0954587
-0.0543444
-0.0190461
0.0336802
0.0225
-0.0147477
-0.0822809
0.10544
-0.00234948
-0.0476473
0.0370315
0.00154106
0.0277801
-0.112137
-0.0140958
0.00328806
-0.0758655
0.0659289
0.0767487
0.0233853
-0.076167
-0.0383024
0.0663564
0.064151
0.0888776
-0.039356
0.0358886
-0.0640553
-0.0232233
0.013196
0.109945
-0.0267755
0.0392017
0.0329816
-0.00412834
-0.0208059
-0.0225817
0.0242044
-0.0179889
-0.0162378
-0.0811789
0.0933308
-0.0559532
-0.0461521
-0.0127103
0.0922149
0.0309606
0.00481208
0.000271431
0.061831
0.139801
0.0342323
-0.0473046
0.0363033
-0.0106235
0.0459842
-0.000679817
0.00895929
-0.0766293
0.0121064
-0.0995513
-0.0326826
-0.0499293
0.00233493
0.0681214
-0.0586887
0.0188539
-0.0803863
0.0696759
0.0564855
0.0367129
0.00882597
0.0244441
0.027174
0.0708096
-0.0530997
-0.0594368
-0.0284596
0.0891492
-0.0135241
-0.00681563
0.112485
-0.0182465
-0.0432996
0.0376489
0.0363071
-0.00804848
-0.0504011
0.050305
0.0314133
0.154525
-0.0799091
-0.0216194
0.0273198
0.0578976
-0.00583641
-0.055322
-0.00438158
-0.04182
0.0676962
0.0575872
0.0125637
0.00570209
-0.0166714
-0.0595461
0.0353428
-0.042888
-0.00618121
0.0108515
0.0639146
-0.018454
-0.0509492
-0.0216049
-0.0840901
-0.10779
-0.0463234
-0.00203851
-0.0401749
-0.0114637
0.0213216
0.073717
0.063418
0.0463966
-0.0941976
0.00167551
-0.0138025
0.0371221
-0.0889428
0.00766815
0.000657105
0.0176081
-0.0630422
0.0400713
-0.0325241
-0.0463638
-0.0152432
0.0420401
-0.0267613
0.00276899
-0.00766198
-0.142771
-0.00845847
-0.0544167
0.0175008
-0.0397455
-0.0135339
0.0367998
0.0256515
-0.0722961
-0.0629402
0.0575555
0.0873571
0.0410145
0.0730781
0.032654
-0.0291901
0.022251
0.0290212
-0.0221414
-0.0567113
-0.0594871
-0.0246606
-0.00916589
-0.0549112
0.0623619
-0.0686812
-0.0465047
0.0266237
0.0913772
-0.0204683
0.116678
-0.0271349
-0.0549887
0.0122444
-0.0130594
-0.0855743
0.036237
0.0581168
-0.0296276
0.00914295
0.0356978
-0.0284338
-0.0953506
-0.00863511
0.0483221
-0.00577258
-0.0110063
0.0987681
0.0127786
-0.00773649
0.071878
0.0310694
0.0641443
0.10518
0.0437045
0.0509307
0.0372452
0.0468444
0.0555595
0.0920509
0.0170842
-0.00893696
-0.0623147
-0.0342819
-0.0503652
0.0288602
-0.0491596
0.00955863
0.0628481
0.00566396
0.0341873
-0.0487289
0.104017
-0.0395338
-0.00948629
0.0335135
0.0488452
0.0468411
-0.0248937
0.0513779
0.0100391
-0.0144847
0.00616995
0.0699354
0.033055
-0.0283814
-0.0984839
-0.000600603
-0.0292702
-0.0193336
-0.0319772
-0.0731802
0.0464099
0.0578791
0.0886908
0.087724
0.0837724
0.036491
0.022855
-0.0154687
0.0568003
0.0802462
0.0802384
-0.00543047
-0.0334449
0.0557849
-0.0298479
-0.0261255
0.0573325
-0.063564
-0.107591
-0.0071803
-0.00606937
-0.0762981
0.0776999
0.00943198
0.0221749
0.0297941
-0.00244695
-0.0067543
0.104177
0.0452725
0.0512143
0.0826216
-0.0899476
0.00244201
0.0464082
-0.0498904
-0.0305081
-0.00813557
0.0311256
-0.0160272
0.02123
0.016548
0.00737809
0.057775
-0.0191269
-0.0388181
0.0429028
0.022791
0.0505595
-0.119719
-0.0981131
-0.0938477
0.0673676
0.0929859
0.138542
0.0356975
-0.115443
0.026199
0.0633887
0.0090544
-0.0548378
0.0198759
0.0633442
0.00777907
0.00957232
0.0552709
-0.0465364
0.0224307
0.02245
-0.00993287
-0.0335473
0.0326718
-0.0692226
-0.0309369
-0.0794546
0.00905379
-0.00379332
-0.00377867
0.0680898
-0.0424363
-0.00952075
-0.0626266
0.0841079
0.0484598
0.00374261
-0.0174412
0.0196828
0.017768
-0.0135065
0.0125887
0.0116755
-0.03477
-0.115005
-0.0165719
0.0480145
-0.032615
0.0216822
0.0119197
-0.0545151
0.0243391
-0.0382065
-0.0143145
-0.0384014
0.0958148
-0.0193478
-0.0246099
-0.0771061
0.0461961
0.0241774
-0.0246876
-0.0677277
0.018475
-0.0152311
-0.00461793
-0.105527
-0.0177454
-0.00820965
-0.0127821
0.109686
-0.0197003
-0.0516321
-0.109113
0.0251367
-0.0219531
-0.0528968
0.00255797
-0.0050104
0.04936
0.012114
-0.0198967
0.0102188
-0.0351487
0.0479669
-0.0323446
-0.0588889
-0.0683771
0.00073298
-0.096147
0.0504945
-0.0915511
0.0395201
0.035814
-0.00972309
-0.0649186
0.0629662
0.0107486
0.0350813
0.0198464
0.0928201
-0.0223212
0.0440298
0.0136995
0.0825411
-0.0520955
0.00034692
0.00537526
-0.0145686
0.0620524
0.0338537
-0.0066263
0.0873565
0.0547602
-0.0592063
0.0417612
0.0384965
0.0450505
-0.0394354
0.00775969
-0.0521668
-0.0704865
0.0115796
0.0100363
0.0212419
0.0940612
0.00435539
0.000635556
-0.0643907
-0.0484271
-0.103521
-0.0285306
0.0762032
0.052982
-0.0597518
0.0243011
0.106049
-0.00618217
-0.065779
0.0178738
-0.0762701
-0.049778
0.0183046
0.0464579
0.0273484
-0.0437083
0.0736934
-0.0702403
0.0105082
-0.0475237
-0.0709813
-0.0364444
0.018865
0.0481634
0.0380243
0.08525
-0.0482099
-0.0647658
0.0379198
0.00533956
0.0273251
0.0261225
0.0141971
-0.000347687
0.0518898
-0.0745847
-0.00743157
-0.00288433
-0.0169776
-0.0818844
-0.0541839
0.0402333
0.00295234
-0.0441687
0.0439868
-0.0265531
-0.0052978
-0.0279501
0.0234594
0.0615142
-0.0656368
0.0374645
0.0569886
-0.0087383
-0.0329138
0.0334684
-0.00657676
-0.0225668
-0.050054
-0.00535385
0.0231161
-0.0860082
-0.0214039
0.0130492
-0.021344
0.00824596
0.0716613
-0.0275625
-0.021101
-0.00958373
-0.0212619
0.0227518
0.0793221
0.0518758
0.0400782
0.0119295
0.130293
0.0306547
0.0544094
0.0254297
-0.0342922
0.0185391
-0.0595007
-0.0307632
-0.0714401
-0.0349106
0.077586
-0.0328962
-0.00850742
-0.0255501
0.0293322
-0.0466777
-0.0111085
-0.0273829
0.0279142
0.0312071
0.00315393
0.00573667
-0.042951
-0.0387143
0.0854488
-0.0221605
0.00996298
0.00591861
0.00927881
-0.0635702
-0.0601646
-0.0155173
-0.0272735
0.0603329
0.0457805
-0.000522007
0.0281692
0.0738828
0.035686
0.0483774
-0.00903126
0.0528426
-0.0431002
-0.0251832
0.0250856
0.0415631
-0.0343655
-0.0131755
-0.0748634
0.0152826
-0.0478254
-0.0686629
-0.0243895
-0.0668862
0.0743001
-0.0251917
0.0539643
0.0507346
0.0640214
0.0553836
0.0063709
-0.0254375
-0.0259242
0.0539141
0.103493
-0.0061406
0.026716
0.0150353
-0.0902085
-0.0436353
0.0322086
0.0312165
0.0730761
-0.062215
-0.0516297
0.0427341
-0.00265725
0.00359186
0.0397524
-0.0233941
-0.0300283
-0.0777
0.0444043
-0.0477652
-0.0121978
0.109498
0.0484755
-0.0673187
0.000222573
0.060665
0.0215381
0.0289546
-0.0250988
0.0526731
-0.0350309
0.0774206
-0.0207609
2.70376e-05
0.0559767
0.0240329
0.0575576
-0.024116
-0.00356939
-0.000808608
-0.0365174
-0.0244149
0.0469414
-0.0470029
0.00676037
-0.0792441
-0.0935636
0.0563575
0.00506821
-0.0915503
0.0311694
0.0415064
0.0111671
-0.0238349
0.0667935
-0.0585709
0.00267896
-0.124914
0.0108079
-0.0378711
0.00480006
0.00783471
-0.0467397
-0.104048
0.0229014
0.0549572
0.0184312
0.0776308
0.0498906
-0.0170824
0.083646
0.079538
-0.0218703
-0.0694011
0.0353456
-0.00105693
0.0918496
0.0254778
-0.0504431
0.0147024
-0.0258981
0.0171441
0.027742
0.116354
0.00909438
-0.0357889
0.0287676
0.0416759
0.00550559
0.00852827
-0.0131001
0.06525
0.0376193
0.0165006
-0.0454797
-0.00774066
0.00198484
-0.0595563
-0.105087
0.00975729
0.0939661
0.0483867
0.147133
-0.0106848
0.00702061
-0.0655416
-0.0375199
0.0343525
-0.0360458
-0.00798809
0.112214
0.119525
-0.0138395
0.0473391
0.0207438
0.0609101
-0.00190609
0.0258618
0.0379085
-0.0947894
0.0081551
0.0497659
0.0458365
0.0291427
-0.0412679
-0.0300326
-0.0568571
-0.0162821
0.00943057
-0.0639255
-0.0575873
0.049847
-0.0372123
0.00692513
0.0829307
0.0805921
-0.0834938
0.00424223
-0.0545694
0.0498032
0.0283976
0.00889461
-0.0186297
-0.0460197
-0.00475554
-0.0874622
-0.0413223
0.0559749
0.00137911
0.000662774
0.0518459
-0.0616307
-0.0377557
0.0922262
-0.0126919
-0.0261297
-0.0329377
-0.036827
-0.0112492
-0.0189741
-0.0398276
0.0303687
0.00174977
0.0929772
0.0638127
-0.0759088
-0.0862544
0.00539442
0.0250456
-0.0307571
-0.0281709
-0.0867818
0.100038
0.0687765
0.0585213
-0.000924803
0.0537645
-0.0676568
-0.109925
-0.0659503
-0.0284227
0.0373499
0.102488
0.0497067
-0.0604642
0.038597
-0.00232044
0.0627351
-0.0474976
0.0164787
0.0463653
0.0911963
-0.0228289
0.0571904
0.013205
-0.060286
-0.0503336
-0.0101856
0.0537604
-0.0279589
-0.0141415
0.00215541
0.159369
-0.0508636
0.0437869
0.0357579
-0.0868296
0.085634
0.0062996
0.0119135
-0.039071
-0.0182451
0.0115366
-0.132863
-0.00352151
0.0649468
-0.0920372
0.0695409
-0.0306638
0.0337743
0.0203757
0.054861
-0.037592
0.00846436
0.0409499
0.0325793
-0.048281
0.0125289
-0.0248447
0.0349337
0.0804544
0.0845588
-0.045626
0.0869769
-0.0186021
0.084596
-0.0263745
-0.0173203
-0.00773567
-0.00988152
0.00602297
0.0467038
-0.0525358
0.0532337
0.00793672
0.0101796
0.0306963
0.0174316
0.0334597
0.0825261
-0.0482496
-0.142409
0.11884
0.0994686
-0.043618
0.016341
-0.0330591
-0.0873101
0.0901353
0.0484099
0.016058
-0.0429076
-0.0816579
0.0433533
0.0610428
0.134839
0.0620306
-0.0511637
-0.00286416
-0.0536549
0.0266183
0.029758
0.041245
-0.0462714
-0.00593269
0.0647969
0.0271394
0.0628307
0.0460814
0.0898444
0.106334
-0.013271
-0.106422
0.143475
-0.0797645
-0.0473633
-0.0499056
-0.0227417
0.0614882
0.053649
-0.00514172
-0.101446
-0.0956773
-0.0407035
-0.0214889
-0.0171187
-0.0363322
0.033289
-0.00075832
-0.00378955
-0.0286271
0.0227485
-0.036837
0.0353581
0.0229022
-0.089576
0.0237393
-0.0167486
-0.0237881
-0.0141026
-0.0361543
0.117583
-0.00888761
9.1327e-05
-0.0162932
-0.0752172
0.0696141
0.0437879
0.0100923
0.0292861
0.121201
0.0352306
-0.0854921
0.0585133
-0.0258443
-0.0773113
-0.015403
-0.0435231
-0.0387296
0.0634961
0.0644738
0.0225571
0.13357
-0.0876674
0.0802329
0.0153421
0.00890348
0.052473
0.0265399
-0.0930385
-0.0350834
-0.00769947
-0.0235735
0.0400719
0.00642943
0.0214742
0.0279517
-0.00659298
0.0370413
0.0299922
0.00913091
0.0638832
-0.0130419
0.000915241
0.0784082
-0.0378945
-0.0712691
0.0942598
0.0130359
-0.105372
-0.0622672
0.0229648
-0.00480624
0.0923813
0.0754149
-0.000918652
0.103808
0.0924517
0.0497353
0.0318648
0.100253
-0.0768977
-0.0246121
0.0468031
-0.0553605
0.0428395
0.0198271
0.026937
0.0793719
-0.0964768
0.0264304
0.0409248
0.0525027
-0.0998006
-0.0153295
0.0668387
-0.0554632
-0.0259252
0.000501308
-0.0278746
-0.0867104
0.0654922
0.0692072
-0.0886864
-0.00897863
0.00673165
-0.0350071
-0.0340887
0.0346165
-0.0929526
-0.0876943
-0.0664459
0.0510358
0.0853219
0.0502792
0.0110842
0.0242789
0.0143782
0.0238618
0.0372776
-0.0117422
0.0208398
-0.0162989
-0.0713058
-0.0562944
-0.0305651
0.00172263
0.126548
-0.00502816
-0.0791492
-0.0780826
0.0182503
-0.018125
0.0200926
0.0701038
0.024579
-0.0435589
0.0222023
0.0864639
-0.040507
-0.0757824
0.0137067
0.0421125
0.00180685
0.0563351
-0.0675381
0.0260998
0.0725653
0.0938759
-0.102791
0.0156225
0.0573584
0.0214109
0.0660486
0.0323648
0.0749523
0.0126131
0.0901968
-0.0297059
-0.0252055
0.0188557
0.0214625
0.0411566
0.0678032
0.0646687
0.0458465
0.0698655
0.0854942
-0.0347519
-0.00587936
-0.0236088
-0.0043753
0.00233093
-0.0110405
-0.107739
-0.113004
0.0353633
0.0229248
-0.079349
-0.001935
-0.0236206
0.0752779
-0.0535558
-0.0602544
0.0153171
-0.0104223
-0.0668444
0.105139
0.0443224
-0.00632401
-0.0221803
0.0144778
-0.0255158
0.0878946
0.0180649
-0.0474378
-0.0463298
0.0100564
0.00223983
0.0429275
-0.025753
0.00221193
-0.00213092
0.0763364
0.0178225
-0.0707022
0.0378415
0.0269483
-0.0199927
-0.0077773
0.0293582
-0.0603718
0.00975788
-0.0512019
0.0417016
-0.0541158
-0.0296473
-0.0430542
0.00833334
0.0551575
0.0451461
0.052196
0.0248449
-0.0836762
0.00713489
-0.0069259
0.0652222
0.0143626
-0.027171
-0.0528385
0.0453565
0.0148259
-0.0511469
-0.0497555
0.0436312
0.0450125
0.104439
0.00840804
0.0353435
0.014038
-0.0298419
-0.0101347
0.00160575
-0.0332351
0.0607019
0.0949496
0.0877016
-0.0701467
-0.0349708
-0.0461807
-0.00706998
0.0433852
-0.0345814
0.117016
-0.00360127
0.0708906
0.060637
0.0145345
-0.0270934
0.0273227
0.036018
-0.00854362
0.038224
0.0683836
-0.0356813
-0.0356742
-0.0546675
0.0547535
-0.025863
-0.00987529
0.00652231
-0.0319174
-0.0746871
0.022164
-0.0193017
-0.0730553
0.0169552
0.000818031
0.00695856
0.0729659
0.0397355
0.00916911
0.0568222
-0.0142601
-0.0385844
-0.0203287
-0.0222808
0.0260597
0.145319
0.0567154
-0.0437904
0.0554733
-0.00968563
0.0738059
-0.0302391
0.00616463
-0.0361006
0.00680545
-0.0480399
0.000219793
-0.0540507
0.0293339
-0.0179444
0.0648303
-0.00906367
0.0012763
0.0575099
0.0681262
-0.0159407
0.113473
0.0704328
0.0739718
0.0557868
0.0368769
0.00904116
0.0528073
0.0872755
0.0815889
-0.0544574
0.118748
0.0460988
-0.0671697
-0.00354568
-0.0374356
-0.0293771
0.0173507
-0.0411016
0.0113695
0.0130505
0.000598762
-0.00301213
0.0500282
-0.0516603
0.0861927
-0.000132752
-0.018325
-0.0922166
0.0259762
-0.103012
-0.0618787
0.0253905
0.0426406
0.0120792
0.0229801
0.06467
-0.143937
0.00262961
0.0477388
0.0200269
-0.0761478
0.0775168
0.00947049
0.0060211
-0.0450495
-0.0227797
-0.0682498
-0.0595403
-0.0034661
0.00401345
0.0265165
-0.0852102
0.0156372
0.0107839
-0.0243069
0.120253
0.0955741
0.122808
-0.0670018
-0.0376032
0.0831603
-0.0821253
-0.0107891
-0.0125825
-0.023814
0.0302596
0.025153
-0.0577446
-0.00491917
-0.00496686
-0.0127513
0.00692466
-0.0101232
0.0336497
-0.0782215
-0.0487697
0.0245151
0.134607
0.0534917
0.0609046
-0.0190017
-0.00181564
-0.0698898
2.91821e-05
-0.0193179
-0.00967808
-0.048816
0.0456135
0.0734975
-0.0587227
0.0231762
0.0876994
0.0182645
0.00799951
-0.085116
0.019751
0.0140188
0.061207
-0.00457698
-0.0721504
-0.0110128
-0.00139638
-0.000585497
-0.0232852
-0.0412182
0.00883687
0.0426504
0.0183636
0.0312833
-0.0756403
-0.0865652
0.0821335
-0.042996
-0.0905451
-0.0305727
-0.00452861
0.0257415
-0.00651062
-0.0938032
-0.107549
0.10803
-0.0725646
0.0672108
-0.0389655
0.0153242
0.00965522
0.0400467
0.0419889
0.0111182
-0.0518888
-0.0460337
-0.0784416
0.0302121
-0.0952486
0.0133031
-0.00427435
0.0587278
-0.0327151
0.0809408
0.00448296
-0.095764
-0.0669045
-0.0333347
-0.0412914
-0.00111334
-0.018952
0.0354939
0.0308551
0.0802497
0.0461309
-0.0728986
-0.0357197
0.0501992
0.0147331
-0.0184453
0.119762
-0.104668
0.0456203
0.10871
0.0144708
0.0122207
0.0781
0.0772384
-0.0884815
-0.00674575
0.0341081
0.111786
-0.0524799
0.017824
0.0668338
-0.036362
0.0042811
-0.0117543
0.0314325
0.0633419
0.0197491
0.0474338
-0.0221715
0.0285714
0.0489393
-0.041491
-0.00256274
-0.0468597
-0.0430441
-0.0250617
-0.0451522
-0.126352
0.0726032
0.0201507
0.00182069
-0.02713
0.11914
0.0826139
0.0488906
-0.127465
-0.0079308
0.0761923
0.0213348
-0.0315675
0.0378023
0.0707125
-0.0324499
0.00782758
-0.0486039
0.0486944
-0.0488094
-0.0380035
-0.0269545
0.0483799
-0.0247867
-0.0212447
-0.0164621
-0.00948756
0.05771
0.0682289
-0.0277426
-0.0391084
-0.100779
-0.0236013
0.0146497
-0.0739015
0.00370966
0.0933269
0.0208136
0.00298773
-0.064105
0.000418305
-0.083511
0.00496606
0.042863
-0.03358
0.0112677
-0.052813
0.003716
-0.00649692
-0.00483267
-0.0236186
0.127563
-0.0679769
-0.0206698
-0.00270972
-0.0198947
0.0920435
-0.117558
-0.0220953
-0.0435235
0.0964875
-0.0515381
0.0187535
-0.0975984
0.103753
0.0337632
0.0321064
0.00243513
0.0316703
0.095122
0.104447
0.0440379
-0.050953
0.0390802
0.0857607
-0.00787473
0.00888651
-0.040066
0.0817588
0.0124175
-0.00334162
0.00293154
0.0478433
0.083398
0.00452103
0.026697
-0.0764879
-0.119127
-0.0689016
-0.0100614
-0.0393133
-0.0491906
0.00161735
-0.023883
0.0377785
0.0362359
0.0162898
0.0793226
0.00630057
0.0017652
0.0315706
-0.00798712
0.0270797
-0.0683237
0.0311272
0.0448135
0.00603549
0.0161362
-0.022115
-0.0658168
0.0921358
-0.0366854
-0.0167549
0.000693816
-0.00740946
-0.0105375
-0.00577361
0.00186279
0.028073
-0.0885367
0.0956035
-0.00108128
0.101979
-0.0981882
-0.0693903
-0.0762494
-0.0364921
-0.0890343
0.0203511
0.0693721
-0.0343356
0.0654353
-0.0173861
0.0276203
0.0444073
-0.0317584
0.0144918
0.0187724
0.150098
-0.0117502
0.0450889
0.0299878
-0.00465651
0.0197532
-0.0405625
0.0204491
-0.0648565
0.111122
0.0353542
-0.0112669
-0.00119453
0.14128
0.0555322
-0.127402
-0.00307988
-0.00164917
-0.0507278
0.0845991
-0.0640526
-0.00283192
0.0121365
0.00694164
0.0467926
0.0273082
-0.0199382
0.00130982
0.00792563
-0.0371666
-0.000121724
0.114927
0.0302404
0.0701474
-0.0722367
-0.0958208
0.0311497
-0.0792196
0.0288458
0.0733101
0.0287838
-0.0259135
0.0359076
0.0382203
0.0753262
-0.0667028
-0.0343448
-0.00566388
0.0392704
-0.0608466
-0.081801
0.0944171
-0.028301
-0.0380276
0.0749825
0.0410561
0.0167765
0.00988197
0.0745697
-0.0378091
0.109506
0.0771643
-0.0451617
0.0310789
-0.0632662
-0.0147696
-0.011482
-0.0336793
-0.0283614
0.010394
-0.0208396
-0.0764791
0.0552321
0.0386001
0.0896309
0.0293632
-0.018566
-0.114402
0.0408064
-0.0743793
-0.031381
-0.0532955
0.0838522
0.0951947
0.0497979
0.0999988
-0.066205
0.0530606
-0.00744178
-0.0353297
0.0218166
-0.0354323
0.0119344
0.00219944
0.00130391
-0.0436878
-0.00461081
0.0820562
-0.0280326
-0.00934845
0.0510675
0.0541103
0.0102452
0.0350524
-0.0581642
0.0332689
-0.022506
-0.0340271
-0.0318143
0.0653773
-0.0102407
0.00984747
0.0695957
0.010083
-0.00400911
0.0495075
0.023478
-0.0205584
-0.0380048
0.0326461
0.102163
0.0288299
0.078024
-0.0814749
-0.039062
-0.0342735
-0.027494
-0.0650384
0.0151517
-0.00284588
-0.000669095
0.00997936
-0.0989342
0.0352433
-0.114406
0.0036358
-0.0170518
0.0341904
0.019391
0.0880357
0.00135474
0.00400442
0.0985377
-0.0494483
0.0724002
-0.023307
0.00711121
-0.0702189
0.0198061
-0.0405968
0.0252714
0.0159101
-0.0649262
-0.000154099
0.0141506
-0.0255608
-0.01537
0.10033
-0.0437034
0.0517388
-0.0676631
-0.0908209
0.012959
-0.0205463
0.05851
0.0182969
-0.0114812
-0.0420157
-0.0224559
-0.0687246
0.0267202
-0.0264001
0.0498685
0.0313752
0.0370221
0.00306011
0.0278044
-0.0764263
0.0119616
0.0131584
-0.0322901
-0.134279
-0.0127679
-0.0103215
-0.0354901
-0.0340995
0.0327588
-0.0157015
-0.0397129
-0.0595714
-0.0961277
-0.0739465
-0.0349591
0.0135183
0.0160669
0.132931
0.0569105
-0.0498479
0.00188091
0.0277492
-0.0709321
0.0576549
-0.0273828
-0.0431751
0.026892
0.0269307
-0.0663688
0.0708419
0.0874398
0.0434283
0.000128979
-0.0186268
-0.0782791
-0.00291175
0.0466223
-0.0169727
-0.0484497
0.0369567
0.0360168
-0.0310531
0.0298382
0.0339386
-0.064124
-0.0669542
-0.0526345
-0.082487
0.0158238
0.131431
0.0408012
0.0353762
-0.029559
-0.0155544
0.0243413
0.0268296
-0.0809865
0.0764157
-0.0572163
0.0752665
-0.0149744
-0.076624
-0.0038792
0.0183792
0.0349578
-0.0281657
-0.0906757
0.0309139
0.0737674
-0.0257931
-0.0312582
-0.0639466
-0.0304503
0.0177893
-0.0718451
0.0216888
0.117201
0.039859
0.00160196
-0.00532937
-0.0136836
0.0313359
0.0415976
-0.0899027
0.081984
-0.108239
-0.0470335
0.0201663
-0.02989
-0.0259298
-0.0168397
0.0567072
0.0179535
0.119802
0.00941854
0.0280837
0.0496766
0.022949
-0.00155286
-0.0150197
-0.0435853
-0.0116191
-0.00693739
0.0660134
0.0153176
0.0238021
0.0833162
-0.0239196
0.0335642
0.0281641
0.00489792
0.00209812
-0.0247646
0.0227611
-0.0678899
0.10286
0.0431007
0.0690413
-0.060455
-0.0505881
-0.0442389
-0.0306977
0.0446033
0.031707
0.030767
-0.00826553
0.0433878
-0.0288127
-0.0128831
0.10105
0.0248313
-0.0195038
-0.146258
-0.0705452
-0.136093
-0.0356879
0.0958436
-0.020085
-0.0288283
-0.0477574
-0.0686248
0.145517
-0.0350659
0.062122
-0.0691472
-0.0990456
0.023835
0.00127289
0.021751
-0.066191
0.0457491
-0.00453914
-0.000814477
-0.00731799
0.0379508
0.0462255
-0.0281662
0.0899147
-0.00673832
-0.0742006
0.0760283
0.0139865
0.0311871
0.0279551
0.00389611
-0.0399287
-0.030439
-0.0261553
0.0173234
-0.0596786
-0.00161808
-0.0243672
0.101027
0.0703304
-0.0404586
-0.0302231
-0.0354796
-0.00419012
0.0129569
0.0303135
0.10564
0.0256701
0.0234752
-0.0505424
0.15131
0.0817311
-0.00286511
0.0307274
-0.0454906
0.0112645
-0.00278259
-0.0213121
-0.0451501
0.0183725
-0.00959852
-0.00169687
-0.00712676
-0.0418288
0.00920438
0.0225689
0.0668206
0.0331013
0.0469321
-0.00574004
-0.0536986
-0.0463256
-0.0112851
-0.0359184
0.0305589
-0.0707921
0.0219954
-0.0779055
0.00188223
0.00689826
-0.00846609
0.0297272
-0.0507412
0.0716936
0.00696645
0.0390188
0.0536766
0.0277722
0.0913741
0.042403
0.0204495
-0.0730456
-0.109901
0.0229381
-0.0232011
0.00914953
-0.0686719
0.0606586
-0.0193116
-0.00567653
-0.0969336
-0.106552
-0.0382592
-0.040095
-0.0498012
0.00546734
0.0464876
-0.0277566
-0.0452585
-0.0576595
0.0475681
-0.00702455
0.0296983
-0.0488468
-0.0255918
-0.0133182
0.0519482
-0.090495
0.0746866
-0.114903
-0.0744895
-0.0363907
-0.0666147
0.00156748
-0.0239364
-0.0717522
0.0302243
0.0890675
0.0346722
0.04082
0.01015
-0.0301703
0.00878359
0.00553432
0.00141058
0.0331346
-0.0321448
0.00599583
-0.12089
0.00229259
-0.0283715
0.0372874
0.033153
0.0667727
-0.0335671
0.017945
-0.00836762
0.0247755
0.120993
-0.0217918
0.067827
0.0440118
0.0529565
-0.0687043
-0.0172114
0.0232741
0.0106661
0.0285313
-0.0996996
-0.00881333
0.0296492
0.0136993
-0.00269551
0.0245613
0.031113
0.0287004
-0.0336378
0.0285328
-0.0338814
0.0405842
0.0137384
-0.0338027
-0.0630307
-0.0580353
-0.0126708
0.0881251
0.0500583
-0.0260599
-0.0201361
-0.0377695
-0.0503311
-0.0178128
-0.00827157
-0.0576913
0.0703101
-0.0109915
0.0459582
0.0149815
-0.0645563
-0.0607288
-0.103544
-0.0690395
0.0122427
-0.0246932
-0.0300076
-0.0524399
-0.00474097
0.00381523
0.0360693
-0.0814704
0.044283
-0.0472325
0.00806751
0.0476862
-0.0160564
0.0411429
0.0644649
-0.00822945
0.0286836
0.0709532
-0.0136152
-0.0869743
0.0915417
-0.073774
-0.135514
-0.0114056
0.0592068
0.00245564
-0.0704579
0.0802739
-0.0270715
-8.22639e-05
-0.00632992
-0.00572853
0.0243818
0.0371382
0.00403374
-0.0466844
0.0447291
-0.0112576
0.0330378
0.00660437
0.0193301
0.00147838
0.0361317
-0.0771511
0.000214394
-0.0340108
0.000818813
0.112592
-0.0132241
-0.0889364
0.0149285
0.0203639
0.0259521
0.0182028
-0.029993
-0.0892097
0.0507335
0.0275534
0.0483781
0.0564826
-0.0198002
0.0575506
-0.118836
0.019089
0.088613
-0.0649496
-0.0138188
-0.0510162
0.0294917
0.0286912
0.00830601
-0.0527252
-0.0242584
0.059774
0.0550211
0.0141798
-0.0718669
-0.00982267
0.00588544
0.0540181
-0.00629943
-0.00579978
0.020951
0.012268
0.0640759
0.00173805
-0.0222174
-0.0328602
0.00518222
-0.0538149
-0.112481
-0.0350751
-0.0132828
0.0363921
0.0893537
0.12122
-0.0140389
-0.00716947
0.0164043
-0.00999122
0.0951036
0.0509986
-0.00518928
-0.0274759
0.0414826
-0.0897714
-0.0206774
-0.026798
-0.122197
0.0017657
-0.0640242
0.0552281
0.060373
0.0193914
0.0141059
-0.0416616
0.0275601
-0.073662
0.0681659
-0.0129938
-0.0637811
0.000260125
0.139085
0.0660186
0.0322145
0.0684563
-0.0458742
-0.112336
0.0269023
0.0416737
0.0152754
-0.0707736
-0.0170974
-0.00725459
0.0302016
-0.0034816
-0.0586789
-0.0600242
0.0294155
0.0517243
0.03562
0.0144413
0.0561544
-0.0186576
-0.0101242
-0.0739795
-0.0240187
0.031276
0.0683205
0.0638635
0.00406533
-0.0228511
-0.0189641
0.0575743
-0.0194812
0.00881629
0.025854
0.016681
-0.0278684
-0.00793046
0.00628358
-0.0133043
-0.0218382
0.0744311
-0.075276
-0.0212483
-0.0228656
-0.106863
0.000273091
0.0502262
-0.000335261
-0.0170295
0.0137458
0.0364141
0.0284262
0.0453593
0.0105276
-0.0766232
-0.0350786
-0.0731336
0.00984693
0.133415
0.0149556
0.0466469
0.0624322
-0.062362
0.092012
-0.00201166
-0.026003
0.0861745
0.0193689
0.00727754
0.0144683
0.0816534
-0.0580786
-0.011745
-0.0257901
-0.0446085
0.0218136
0.0363582
-0.0303755
0.0588581
-0.0364435
-0.0219606
-0.142578
0.0448355
0.0427645
0.0433991
0.0574297
0.0575067
-0.0150703
0.0496462
-0.0669415
0.023963
-0.0596182
0.0798703
-0.00285878
-0.00414567
0.0329528
0.0279227
0.0467478
0.0149555
-0.0809131
-0.0166776
0.0611203
0.0499317
-0.0367855
0.0969173
0.00905873
-0.000657834
-0.0812285
0.0077506
-0.0297885
0.000841924
-0.0496684
0.0574628
0.00368181
0.00583261
0.02999
-0.00111586
0.00751784
-0.0160785
0.0273542
-0.0182439
0.11427
-0.0207517
0.0485222
-0.021489
-0.0375532
-0.00443046
-0.000787601
-0.0289776
0.0229449
-0.0171435
0.028426
-0.01602
-0.0172424
0.0509593
-0.00142287
0.0562249
0.0717955
0.0366827
0.00346034
0.0264234
-0.098164
0.0243607
-0.00970699
0.0196599
0.0567954
-0.00467223
0.0231719
-0.009531
-0.0330839
-0.0358242
0.0165791
0.0577122
-0.00494327
0.006096
-0.013284
-0.041444
-0.00918282
-0.0401428
-0.00299722
-0.0493438
0.0678458
0.016835
0.00291203
0.0158441
-0.0974319
0.0213425
0.0327364
0.0368479
-0.0464399
0.0434366
-0.0259004
-0.0300941
-0.0255105
0.00757912
-0.0330103
0.0676077
0.0148473
0.0313242
0.0160187
0.0396121
0.0585408
0.00482789
-0.0108453
-0.0852131
-0.0674147
0.0392012
-0.0105705
0.0323064
-0.119685
0.00675177
0.0616788
0.0180561
0.0731327
-0.0108202
-0.00235878
-0.065336
-0.0159626
0.00681953
0.0102008
0.0223033
-0.0855684
0.0254847
-0.00169397
0.0905199
0.0228893
-0.0236997
-0.00779737
-0.012915
0.0436661
-0.0456078
0.0842642
-0.131481
-0.0305751
0.0188349
-0.0552175
0.0106132
-0.122404
0.00741608
0.0845172
-0.084139
0.0210794
0.00109546
-0.0083947
-0.115912
-0.0640191
-0.118417
0.048132
0.00441017
-0.0136435
-0.00478936
-0.013906
-0.0111732
0.0356568
0.0684396
-0.0765019
0.0548455
-0.0382631
-0.0387088
0.00516434
0.1634
0.0662298
0.060761
-0.0874156
0.0292568
-0.022815
-0.0363188
-0.00110824
-0.00262669
0.0733082
-0.0380575
0.00923888
-0.0399791
0.033882
-0.0231746
0.0221392
-0.00368507
0.0158597
0.0792606
0.0675409
-0.0141281
0.0239704
-0.0149014
-0.0499298
0.00878451
0.0484118
0.0859358
-0.0628802
0.0700387
0.0137155
-0.0501928
0.0833516
0.0309379
0.108898
-0.101808
0.00532851
-0.00467345
0.0193296
-0.0293334
0.0111831
-0.0618405
-0.0119551
-0.0025008
0.020846
0.0670596
0.00619155
0.051182
-0.0273204
0.0742593
-0.0146164
-0.0151522
-0.0626421
-0.00845133
-0.0327524
-0.0753272
0.00640295
0.114559
-0.0607756
-0.0410186
-0.0628176
-0.0290031
0.0545252
-0.0643499
-0.0617618
-0.0274636
0.00318557
0.000837849
0.0293599
0.0125304
0.0424885
-0.0234327
0.00527451
-0.0422161
-0.0596088
-0.0331317
-0.072393
-0.0537542
-0.0446626
0.0903928
0.0504053
0.0430541
-0.0825791
0.0599294
0.0504357
0.0460526
0.00356922
0.0557806
-0.0552988
0.049671
-0.109483
-0.00714966
-0.0441558
0.00510152
0.0583248
-0.00335314
-0.0128307
0.0859887
-0.0910108
-0.00870492
0.0544318
-0.0112407
-0.0245592
0.00242817
-0.068253
0.00239088
0.00208796
0.0576446
-0.0632062
-0.0235361
-0.0322605
-0.0215371
0.0746846
-0.00885322
-0.0557228
0.0121637
-0.0650982
0.02926
-0.0715425
-0.0132542
-0.20417
0.043765
0.0807414
-0.00795092
-0.0132433
0.0542416
0.0210704
-0.0421814
-0.0279603
0.0234869
-0.00150332
0.00343126
-0.0513952
-0.0397576
-0.0337757
-0.00912206
0.0592165
-0.0835954
0.0840558
-0.0321378
-0.0319924
0.0208441
-0.0474224
0.0463815
-0.0242428
-0.0200666
-0.0245173
-0.0166667
0.0191968
-0.0270741
-0.00985929
0.0192212
0.0535595
-0.0372142
-0.0818276
0.0680294
0.0658317
-0.0665077
-0.012857
-0.048769
-0.0934889
0.00185645
0.095532
-0.0505485
-0.0264045
0.0575212
0.0470179
0.0788783
-0.0377316
-0.011671
0.072916
-0.0263264
-0.0296972
0.0149446
-0.147902
0.0463534
-0.00504595
0.058594
0.0381352
0.0518907
-0.0153671
0.0710907
-0.0251645
0.0125355
-0.0501159
-0.0477861
-0.0356851
0.0477673
-0.0322557
0.00074816
-0.0902543
0.0196699
0.0172285
0.0525695
0.0340377
-0.0265949
0.0565739
-0.0238913
-0.0167349
-0.0843557
-0.0109272
-0.00617576
-0.024687
-0.0315286
-0.0778078
0.0359
0.010181
0.0228441
-0.062961
-0.0745042
0.065572
0.0624652
-0.0170181
-0.0419304
-0.0265607
-0.0148882
-0.0332375
-0.0421982
0.00629701
0.083483
-0.0255078
0.0650498
-0.0268568
-0.047653
0.00951104
-0.00254932
0.118724
0.101534
-0.00889737
0.0270785
0.0445499
-0.0221635
-0.0100705
-0.0950853
-0.0260949
0.0205193
0.00345143
0.0338033
0.059908
0.0329016
0.0742444
-0.018904
-0.0806807
-0.0618459
-0.0235133
-0.0330171
-0.0194203
-6.62926e-05
0.0129836
-0.0194228
-0.0769533
0.00611137
-0.0661435
-0.135075
0.025484
0.0441211
0.0471734
-0.0447705
-0.0339618
-0.0092717
0.00922937
0.00774949
0.0560615
-0.128456
0.0807471
-0.0222183
-0.0405634
-0.0452372
-0.0120613
-0.0488046
-0.00121799
0.0442125
0.0219237
-0.0366035
-0.00888284
-0.0408375
-0.125748
-0.0660215
-0.0511627
-0.0174126
-0.0278804
-0.00789652
-0.122078
0.0871269
-0.0199403
0.0423259
-0.070205
0.0200802
0.0110485
0.0244604
0.0516796
-0.0581649
0.0599717
0.121978
0.0669158
-0.0306246
-0.0487147
-0.0425043
-0.114062
-0.00172046
-0.0112271
0.0455119
0.0376573
0.0344624
-0.0523316
0.0182602
-0.0075857
-0.0311833
-0.0776746
-0.0492247
0.0424136
0.0901181
-0.0453835
-0.00267562
-0.0159264
0.00145622
0.0193038
0.0110008
-0.0669719
-0.0676253
0.0318853
0.0557699
0.0478737
-0.0270221
-0.0553528
-0.0192009
0.0476699
0.0227294
0.0233736
-0.0168826
0.0566727
0.0679027
0.101192
-0.0729116
-0.0465645
0.00609296
-0.0770252
-0.0763069
0.0672411
-0.0220483
0.0167756
0.0915801
-0.00545985
-0.0998962
0.0227579
-0.0590039
-0.0104865
0.0622002
-0.052507
0.0587372
-0.0152133
-0.00903573
-0.130824
-0.0239698
-0.0276188
0.0165313
0.0496482
-0.00379612
0.0225835
-0.00748016
0.0660156
0.0684973
-0.0577406
0.0517172
-0.000428556
0.0271093
0.0782064
-0.0331701
0.0514741
0.0197662
-0.0365616
0.0807764
0.0109852
-0.0647501
0.0164295
-0.0824735
-0.0400442
-0.0412657
0.0366019
-0.0405785
0.0349722
0.0484937
0.0104459
-0.0123349
0.035378
-0.0124146
0.0408959
-0.00599304
0.0292037
-0.018101
0.119995
0.070735
0.0345944
0.047489
0.0197047
-0.0318987
-0.00828404
0.0591957
-0.0911854
0.0143034
-0.00643495
0.0911162
-0.0251892
0.0329939
0.04905
-0.0263998
0.0905523
-0.0485345
0.0261959
-0.0394925
-0.0180444
0.00542634
-0.0187134
0.00760827
0.00614641
-0.0402466
0.0336453
-0.0458004
0.0169335
0.0225932
-0.0170783
0.0636697
0.010134
0.00428143
-0.0193095
0.00611251
0.0110543
-0.0447553
-0.0737055
0.0635939
0.0568723
0.0574883
0.0177353
-0.0498193
0.0301369
-0.0409451
-0.0692484
-0.0106028
-0.0911674
0.0175621
-0.000258205
-0.0160519
-0.0549248
-0.0354181
-0.0806675
-0.0385505
0.00480666
-0.0393866
0.0333775
0.157264
0.0151831
0.0476458
-0.0457126
0.0151448
-0.0120318
0.007946
-0.0216054
0.05899
-0.0458276
-0.0118676
-0.0547931
0.0323177
-0.0120613
0.0160566
-0.0746384
0.013156
-0.0263419
-0.0293441
-0.0294728
0.0100402
0.0746475
-0.0500004
0.032801
0.05909
0.0296127
0.0796179
0.0497202
0.011855
-0.061086
-0.02245
-0.0428612
0.0781911
0.0911531
0.0537576
-0.0125564
0.0134943
4.26888e-05
-0.0523347
0.0532301
0.0489663
0.00429965
-0.0177808
0.00755216
-0.0336227
-0.0611784
-0.0105704
0.065639
0.00126501
0.0317154
0.0630295
0.013033
-0.0104783
0.1087
-0.0503792
0.0233075
0.0548001
-0.00436682
0.0294094
0.093157
-0.0542112
0.0614882
-0.0477206
0.0892979
-0.018909
0.0801266
0.0469925
0.0209118
0.0265637
0.00539625
0.0315369
-0.0407431
0.0423133
0.0135754
0.0235113
0.124956
-0.0356677
0.115178
0.0527391
0.0899786
-0.0524814
0.0304749
0.0497775
-0.0416083
-0.0106747
-0.0130436
0.0278024
0.00552171
0.030356
-0.066609
-0.023624
0.0273497
-0.0277313
0.013728
0.0224237
-0.00300726
0.0475851
0.0364278
0.0420067
0.0450022
-0.0351331
0.0650664
-0.002082
0.118357
-0.0255343
0.000377952
0.0252853
-0.0773729
0.0349232
-0.0749898
-0.0304293
0.00750808
0.064445
-0.00691295
-0.0231487
0.0348865
-0.00350584
0.0648674
0.016379
0.0868528
-0.0180079
0.0743602
-0.0230589
-0.042997
-0.023694
-0.0463453
0.00659132
-0.0397709
-0.0171254
-0.0191334
0.0759725
0.0258811
0.0290881
-0.0374975
-0.0963283
-0.034511
0.0902436
0.062546
0.0192433
0.050703
0.0112759
-0.0449367
0.0242084
-0.00473402
-0.0439059
-0.0350396
0.00656481
-0.0379653
0.10322
0.0562012
0.0666074
-0.0494756
0.122602
-0.0597625
0.030417
-0.0240812
1.69797e-05
-0.0287329
-0.0409325
0.0737795
-0.0284001
0.0491647
-0.0139787
0.059465
-0.0414979
-0.00597475
0.010205
-0.0572298
-0.0265149
-0.0545955
0.0153808
-0.0105514
0.02161
-0.00757186
-0.0168442
-0.0311007
0.00827865
0.0389102
0.0514304
-0.00251382
0.0228531
-0.0430271
-0.0112678
-0.0162968
0.00837115
0.0481148
-0.0735259
0.0702854
-0.00704444
-0.0554727
0.0417294
-0.0841516
0.0188247
0.00605459
-0.13243
0.00265256
-0.0504086
-0.0947449
0.0580661
-0.0484607
-0.0628933
-0.0815169
-0.0218532
0.0569907
0.0384138
-0.0146119
0.00826543
0.00760915
-0.00769555
-0.0454304
0.0448019
0.0163635
-0.0472938
-0.0456442
0.0209852
0.0116094
0.0647649
-0.0232837
0.0380199
-0.00581282
0.09041
0.0486006
-0.029298
-0.0257712
0.034928
-0.054458
-0.0188541
-0.0126608
0.0190667
0.0346966
-0.0904471
-0.0868085
0.0266944
0.0159818
0.00445432
0.0406296
0.10416
0.0620243
0.0606751
0.0722155
-0.0112215
0.0408369
0.10377
-0.0517763
0.0843766
0.0119763
-0.0464907
0.0191281
-0.0636036
-0.0662264
0.0062108
0.021322
0.0090472
0.0274184
0.0262231
0.0529389
-0.0528319
-0.0387119
0.0294201
-0.00937087
-0.0069898
-0.00413235
-0.019476
-0.0282276
0.0288373
0.0192154
-0.0228851
-0.0228706
-0.056048
0.0614661
-0.0375926
0.0152206
-0.0830164
0.010023
-0.0257391
0.0470266
-0.0330111
-0.0671771
0.00699443
0.0269076
-0.0457699
0.00374766
-0.0233319
0.0544731
0.019141
-0.00308918
0.00861427
0.0955721
-0.0769545
-0.0193848
0.0170183
-0.0293666
0.0221844
-0.0257567
-0.0644279
-0.0207295
-0.0865509
0.0213422
-0.0953639
0.120588
0.0623477
0.04452
-0.0354688
0.101103
0.00232343
0.0110868
-0.0170602
-0.0864593
0.0343405
0.00176982
-0.0361986
0.0617269
-0.0647226
0.0208736
0.0317623
-0.00446033
-0.0835503
0.0265252
-0.109934
0.0223148
-0.051533
0.00766674
0.0840744
0.0393382
-0.073608
0.0371299
0.0644083
-0.00083553
0.0480552
-0.0106493
0.00187906
0.0563363
0.0636921
-0.0321984
-0.017642
-0.0199127
-0.0640984
-0.0231546
-0.0561983
-0.0392241
0.0640091
-0.0284096
-0.0727645
-0.000711791
0.0688381
-0.019172
-0.0274002
0.00263464
0.0497959
0.0356129
-0.0100285
0.0298317
-0.0409457
0.0120015
0.0783048
-2.75509e-05
-0.0683682
-0.0514343
0.0135543
0.0499798
-0.0260098
0.055972
-0.00990752
-0.050161
0.0315052
-0.0691417
0.0620151
0.0340759
-0.0540293
-0.0784178
0.0336548
0.0109929
-0.0323417
-0.0554152
-0.0464043
0.0102387
0.0217867
0.00190533
0.0128076
-0.0879184
-0.0719904
-0.00318889
-0.0143356
0.00800608
0.0990165
-0.0417889
0.0852034
-0.00160537
0.0139955
0.0951238
-0.0406382
-0.00797214
-0.0439882
0.0185195
0.0162378
0.0419961
-0.0338448
0.0373444
-0.0723606
-0.0398235
0.0564657
-0.019004
-0.0913469
-0.0624255
-0.0586992
0.00563023
0.0495384
0.0654851
0.0335893
-0.115947
-0.0230609
0.0312316
-0.0420037
-0.0115594
-0.0304395
-0.0579607
-0.0207912
-0.0725058
-0.0211914
-0.0263128
-0.0917478
-0.086189
0.0329293
-0.0860499
-0.0153359
-0.00563343
-0.00768551
-0.0341029
0.0127471
0.0254289
0.0180969
0.035565
0.0157427
-0.0257429
0.0379247
0.0308259
0.00309611
-0.00720581
-0.0272485
0.0388598
-0.00806018
-0.00888468
0.021921
-0.0162015
0.0210809
-0.120459
0.0348847
0.000824598
-0.0634576
0.0628676
0.0377893
0.127333
-0.00648474
-0.0734936
0.0357852
-0.0564092
0.0347594
0.0704828
-0.00169358
-0.0113566
-0.0675885
-0.0733963
0.0505054
0.0752892
-0.0542275
0.082591
0.0433303
0.0933026
-0.0659467
0.0338584
0.0518118
-0.033603
0.0798465
0.0366953
0.0653324
-0.0484056
0.0430581
0.117474
-0.0159038
-0.0201227
0.0306387
0.0216088
-0.044089
-0.0824243
-0.0536635
0.00940001
-0.0337483
-0.0387288
-0.053865
-0.0306121
0.0451897
0.00651929
0.0032788
0.0106229
-0.0992431
0.0888273
-0.0235438
-0.0178629
-0.0314258
-0.0743214
0.0120028
-0.0526975
-0.0667766
-0.0462561
0.0556826
-0.00453457
0.00131203
0.0560814
0.0471217
-0.0209282
0.0353646
0.0164354
0.0048095
0.0179641
0.0224039
0.058788
0.0275086
-0.0205517
0.0775394
-0.072544
-0.0114003
0.0280579
-0.114197
-0.0304976
-0.0408428
0.00410357
0.0685061
0.0352903
-0.0273599
0.00269783
0.0102685
0.0152987
-0.138968
-0.0280784
0.0271616
-0.0149397
0.071467
0.0264639
0.0261775
0.0305807
0.0633645
-0.0851196
-0.0563739
-0.0175118
0.111377
-0.048421
-0.0195664
-0.0317836
0.0322766
-0.00666242
-0.0346036
0.0411611
-0.0227952
-0.0283173
0.0540306
-0.00640605
0.112467
0.0716115
-0.046154
-0.017506
-0.010348
0.0782706
-0.0157504
-0.0524491
0.0445705
-0.039141
0.00955096
-0.0263057
-0.015841
-0.0639627
0.057014
-0.0790252
-0.0924264
-0.0239106
-0.00706934
-0.0636992
-0.039228
0.0250713
0.0316848
0.0535566
0.0167525
0.0462191
-0.0392897
-0.015352
0.00818832
-0.0288305
0.0695822
-0.0275797
-0.0277651
-0.0205047
-0.0445841
0.00371517
-0.101942
-0.0418759
0.0831178
0.0766391
-0.0546584
-0.103359
0.073551
-0.01893
-0.0585882
-0.0353571
-0.0462431
0.0149396
0.0241569
-0.0894293
0.0561229
-0.0389016
0.0375243
-0.0104433
0.0486696
0.0105402
0.00533306
0.0225767
-0.0323929
0.050971
-0.0223362
0.0295539
-0.0228095
0.000927424
0.0621443
0.0713084
0.132724
-0.0655008
-0.030518
0.00140136
0.035709
-0.0257189
0.0151843
-0.039155
0.0337758
0.0780439
-0.00216836
0.015621
-0.0701732
-0.0178349
0.0244019
-0.0434065
0.0892117
-0.0550836
-0.026709
-0.00593356
0.0941861
0.0216727
-0.0840457
0.0968047
-0.050999
0.0313716
0.0914083
-0.00716297
0.0320483
0.0112418
-0.129144
0.00964202
0.051041
-0.0317082
0.0630887
-0.036015
-0.086105
-0.0930173
-8.12908e-05
-0.0606556
-0.0429669
0.0414097
0.0164396
0.0875345
0.106308
0.0751668
0.0573522
0.0705708
0.0130875
0.0482375
0.0127103
0.042013
-0.0681772
-0.0317207
0.0357776
-0.0299774
0.0469469
0.0697855
-0.0719236
-0.0495126
-0.0453192
0.0656307
-0.017393
-0.00176832
-0.0545899
-0.0744256
-0.00422029
0.0356882
0.0135186
0.0841651
0.0782903
0.03479
-0.00999886
-0.0158296
0.0815286
-0.0206142
0.0330846
0.0289433
-0.0169012
-0.0873088
-0.0930939
-0.0100465
-0.0768964
-0.0535155
0.00903383
0.0548971
0.0276829
0.0214393
0.0239716
0.0401177
0.0136508
-0.0501018
0.0259189
0.0480127
-0.0254253
0.0539585
-0.0254826
0.0382624
0.0160054
0.0419733
0.134831
0.0104197
0.00348346
-0.0119928
0.00607957
-0.0353301
0.0713869
-0.0846364
-0.0434328
0.0320834
-0.0206242
-0.0786467
0.00166341
0.0350029
-0.000826096
0.0338995
0.00190517
-0.00822707
-0.00755256
-0.00440743
-0.0157418
-0.00342485
0.0539805
0.00460699
-0.0211793
0.0209032
0.120394
0.0275515
-0.0402961
-0.0125227
-0.0358227
0.0420721
-0.0655414
0.0727554
-0.0295629
-0.00360931
-0.00297913
-0.039265
-0.078253
-0.0495988
0.0913439
0.00513797
-0.0113581
-0.0455592
0.00972998
-0.027886
0.0558853
0.0131738
0.0452564
0.0362671
0.0698463
0.0394288
0.010602
-0.0422683
-0.0160957
-0.0757376
0.0367649
-0.00811174
0.00633229
-0.0668379
0.00737631
0.0647527
0.0260386
-0.0206134
-0.0056816
-0.026001
-0.0183157
0.0581492
0.0611492
-0.0138487
0.0325133
-0.0992246
0.0044658
-0.0836555
-0.0342155
0.0127376
-0.0146929
-0.00540475
-0.0120435
0.0156804
0.00267715
-0.0266244
0.0233273
-0.0233852
-0.0843266
0.0446723
0.0288512
-0.00477541
-0.166775
-0.0297031
0.0600747
-0.0251344
0.0497274
-0.0173414
-0.0432468
-0.0424132
0.0270411
0.00459966
0.0240339
0.0960758
0.0584461
-0.0228402
0.0201033
-0.0239122
-0.0369396
0.0193813
-0.00519289
-0.0536761
-0.020992
-0.0148266
-0.0970622
0.0363605
0.0170782
-0.0435965
0.0127951
-0.0113205
-0.0168865
-0.0182165
0.0251867
-0.0422296
-0.0720868
-0.0296242
0.0748282
0.0341899
0.0668594
-0.0544489
-0.00444923
0.0583872
0.109768
-0.048278
0.0265081
0.022228
-0.068604
0.109138
-0.0228287
-0.0334045
0.0431243
-0.0723458
-0.0353158
0.0218367
-0.00182943
0.0488926
0.0580416
-0.0161229
-0.0571809
0.0824782
-0.0773972
-0.0168246
0.0467943
-0.0267026
0.0219656
0.00541702
-0.0931728
0.0257466
0.023832
-0.0137447
-0.0726188
0.013177
-0.0492492
-0.0440035
-0.0343216
0.0497768
-0.0381419
0.0272182
-0.102545
-0.0429235
-0.0462041
-0.0308209
-0.011923
0.0125665
-0.0412951
0.080072
0.000812002
-0.0327294
0.0766191
0.0826914
0.0194322
-0.00569335
0.00186695
0.00183833
-0.0592594
0.0189408
0.00136513
0.00928026
0.0215405
-0.0454219
0.0231242
-0.0556129
-0.010519
0.00124432
-0.0321874
0.0411577
-0.0131163
-0.00400542
-0.0391927
-0.018507
-0.108842
0.0421196
0.037003
-0.0447927
0.0120461
-0.0776867
-0.0706297
-0.0848187
0.00634658
-0.0276652
0.0527591
-0.0395977
0.0274359
-0.00346657
-0.0359429
-0.000260034
-0.0319981
-0.0406007
-0.0170271
0.00733916
0.0538208
-0.0567823
-0.0412735
-0.0599058
-0.0384657
-0.000145096
-0.0109266
-0.0179075
0.0377238
0.0309846
-0.0427379
0.023301
-0.0890908
0.0426486
-0.027819
-0.0287864
0.0455919
0.00830954
0.0307353
-0.0260599
0.00131501
-0.00997384
-0.120265
-0.0388611
-0.0479404
-0.0254587
-0.1158
0.00142837
0.000869726
0.00519912
0.0160696
0.0705745
0.0178059
-0.0673176
0.0723666
0.00741514
-0.0200236
0.0763543
0.0557127
-0.066975
0.0605358
-0.0051697
0.0788938
0.00745557
-0.0604763
0.00671887
0.0504616
-0.0791895
-0.0497488
-0.0128278
0.0572941
-0.0240696
-0.0494521
-0.0124444
-0.0806217
-0.0775925
-0.0648508
-0.0156866
-0.00531055
0.00821938
0.0197232
-0.0170493
0.0149451
0.0166604
-0.0783651
-0.0511115
0.0287563
0.0249147
0.0806936
-0.0310118
0.0388566
0.117446
0.014149
-2.40807e-07
-0.115496
0.114901
0.0141965
-0.0742525
0.0526826
-0.0277398
0.0175977
0.0683057
0.127364
-0.0246769
0.11287
-0.02131
0.0688309
0.027591
0.0194865
-0.00470514
0.0255888
0.0291756
0.0188853
-0.0536379
0.00754175
-0.101035
-0.0356236
-0.0434017
0.0285417
-0.040099
-0.0287323
0.112442
-0.040864
0.0262821
0.0264698
-0.0297801
-0.118462
0.0459848
0.00991562
-0.0575769
-0.0539783
0.0051155
-0.0173827
-0.0354015
0.0635546
0.0106093
0.0378262
0.068234
0.0592575
-0.00491803
0.00751122
0.0284768
-0.0733483
0.00823051
-0.0364514
0.0491245
0.0159338
0.0178768
0.0212247
0.0504884
0.107981
-0.0716913
-0.0210146
-0.0564623
-0.0440557
-0.0392627
-0.0768145
-0.0593177
-0.0973166
0.0314314
-0.0070918
0.0096917
0.0149349
-0.00553367
0.0674513
0.0192576
0.0265617
0.0315246
0.0334121
-0.0135765
-0.0091881
-0.0123588
0.0047193
0.0805137
-0.0238595
-0.0353828
0.00127029
-0.0269904
-0.00451654
-0.0261678
0.0509945
-0.0190315
-0.110125
0.017455
-0.0168802
0.0880444
0.0391339
-0.0323688
0.104059
0.000997658
0.019288
0.073349
-0.0109694
-0.0585997
-0.0182198
-0.0425693
0.0433541
-0.00865866
-0.00201996
-0.0128671
-0.0733068
-0.0506848
0.0502052
-0.0623253
-0.0885615
0.0866967
-0.0278199
-0.0113503
-0.115077
0.0878098
-0.0333084
0.0656702
0.00168936
-0.0102425
-0.000492716
0.0538012
0.0958851
-0.0202494
-0.0201133
-0.00197667
0.000325085
0.035184
0.0787479
0.057882
-0.0605045
-0.0213845
-0.00329056
-0.0630133
0.0423767
-0.0283265
-0.0402501
-0.011926
0.0161594
-0.0984125
-0.0057969
0.0352087
0.0175238
-0.0191435
-0.00537198
-0.0384283
-0.0161122
0.00531323
0.0136625
-0.0738371
0.00610958
-0.133704
-0.0459518
0.0703712
-0.0140123
-0.0111193
0.140741
-0.028606
0.00451633
-0.0842378
-0.0679566
0.0774774
-0.00600535
-0.0102706
0.0341408
-0.00460852
0.0261686
0.00880264
-0.0644413
0.0245367
0.0246602
0.0205177
-0.00258085
-0.0280247
-0.0413035
-0.0693453
-0.114373
-0.0391382
0.0948256
0.0443658
-0.118351
0.016341
0.0866684
-0.0130364
-0.0347555
-0.034843
-0.0367287
-0.0671205
-0.0312906
0.0406754
-0.0936896
0.0615645
0.0466411
0.0339457
0.0266143
0.0760856
0.0056871
-0.05133
0.0402131
-0.00113975
0.0448068
-0.0160974
0.0516448
0.0222225
0.0259468
-0.00702315
0.0222609
0.00724738
0.00259673
0.00526378
0.076501
0.00197617
-0.00188947
-0.0635709
-0.0143006
-0.032154
-0.0437834
-0.00175565
-0.0437928
0.0711314
0.033201
-0.0292959
-0.0763199
0.0720787
-0.00561533
0.0190902
-0.0746739
0.0150782
-0.0396119
0.0440349
-0.141275
-0.0257764
0.00557634
-0.0115628
0.0212376
-0.0445169
-0.0387313
0.0487365
-0.0189244
0.0192275
0.0331269
0.0153038
0.0213219
0.0422869
0.0905601
0.0146042
-0.0309843
-0.0118261
0.0118588
-0.0301984
0.0128159
0.00687908
0.033326
-0.0757903
-0.0270909
-0.0905322
0.0565037
0.0532179
0.00991051
0.0306732
-0.0172946
0.0504557
0.00255114
-0.0610667
0.017749
0.000179981
0.0601036
0.00121357
0.0870847
-0.0204891
-0.0346041
-0.0648955
-0.00538903
-0.0209214
-0.0476676
-0.0297213
-0.0932993
0.051528
0.043964
-0.0490416
-0.110141
-0.0649671
0.0663962
-0.0966144
-0.00645686
0.0842211
-0.0292643
0.0422937
-0.0424291
-0.0458167
-0.0122848
0.0062997
-0.0735399
0.0188647
-0.0677829
-0.0646909
-0.0594966
-0.0278688
0.047887
-0.018376
0.0607641
0.0408313
-0.00427138
-0.0229804
0.00950643
-0.0310885
0.0113701
0.0254305
0.0488124
0.0976791
-0.0464595
-0.0343561
-0.0236644
0.070933
0.0713864
-0.0641225
0.0802616
-0.0386572
-0.057567
-0.000392819
-0.0387656
-0.121927
0.0219195
0.0288459
0.0513858
0.0554118
-0.0641827
-0.0323751
-0.0204448
0.0394857
0.0328806
0.0322511
0.0168313
0.0564316
-0.0101416
0.0327184
0.025433
-0.0331364
-0.00368483
0.00831458
0.0665668
-0.109609
-0.0646979
0.00317361
0.0112213
0.0524442
0.0409408
-0.0357908
-0.0275786
0.00398326
0.0538364
0.0196899
-0.0110372
0.0349847
-0.037265
0.0802558
0.0164622
0.0234503
-0.00703453
0.111063
-0.054403
0.0188807
-0.0504377
-0.00186766
0.0220603
0.0507335
-0.0531497
0.0157358
0.0113865
-0.0866446
-0.03994
-0.00239235
0.0526892
-0.0197021
-0.0339232
0.0444681
0.11758
-0.0738682
0.0424672
-0.0770836
0.0585343
-0.00259481
-0.0975865
0.0591033
-0.0396646
-0.0361855
0.161443
-0.0652685
0.0153122
-0.0195336
0.0420821
-0.0287883
0.0781182
0.0430355
-0.125309
0.071241
0.0336068
-0.059515
0.00925143
-0.0572528
0.0458707
-0.0784444
-0.0178165
0.0012636
0.0350251
0.0440782
0.00184828
0.0241775
0.0531956
-0.0071957
-0.0368328
-0.0693546
-0.0570817
-0.0197832
-0.00655647
0.0750553
-0.0343625
0.078535
-0.00502681
-0.0308582
-0.0113108
0.0312666
-0.0421798
0.0306386
-0.000425137
-0.0916139
-0.0519212
-0.0197608
0.0931948
-0.0755433
0.011301
-0.053883
0.00261333
-0.0652434
-0.00151683
0.00188672
-0.038885
0.0731663
-0.110404
-0.000542594
0.0253093
-0.0320908
0.0464526
-0.0327451
-0.0136296
0.0345629
0.00222112
0.039077
0.0580142
-0.0476407
-0.0734235
0.00830544
0.0626463
0.00790131
-0.0264546
-0.0405204
-0.00681422
0.0790801
-0.0177325
0.0292157
0.0372621
0.0195877
0.0145724
-0.0553408
0.0241221
0.0119236
-0.00875228
-0.00767755
-0.00699968
-0.0172525
-0.0512279
0.0793994
-0.0271283
0.0432473
0.0355649
-0.00138375
0.0049228
0.0384321
0.00358688
0.0399007
0.01661
0.00522483
0.0137412
0.00239158
0.0155057
0.0585992
-0.0673781
0.0104563
0.0104607
-0.0402744
-0.0339638
0.00653388
-0.022901
-0.0377123
0.0754388
0.0341685
-0.0858431
0.129376
0.0764796
0.0139725
0.0296077
0.0319895
-0.0354233
-0.00861714
-0.0256857
-0.0150648
0.0147457
-0.1116
-0.0137258
-0.084207
-0.0513578
-0.0334474
-0.0270494
0.0377522
-0.0484415
0.0125855
-0.0410473
0.00223233
-0.0054923
-0.00588853
-0.0231608
0.0105649
0.0624351
0.0721071
-0.0297963
-0.0268192
0.0249317
-0.000272144
-0.0369366
0.028855
0.00949411
-0.102162
0.0346194
-0.0321372
-0.00297806
0.0809874
0.0278666
-0.0283338
0.0360488
0.0664584
0.0537415
-0.070603
-0.0537685
-0.0746417
0.0149393
0.0519636
-0.00973459
0.026381
-0.00017932
0.00677007
0.0101171
0.038563
-0.0706678
-0.0634984
0.0252638
-0.0327532
0.0097286
0.0318718
0.0990106
0.0481812
0.00403639
0.0255955
-0.0310222
-0.00551181
-0.0055403
0.0109064
0.00945195
0.0367006
0.00618517
-0.053891
0.107879
0.0205665
-0.0110023
0.0200012
-0.0410494
-0.0962019
0.052131
-0.0381711
-0.0419841
-0.10829
-0.101851
0.0666567
0.0397735
-0.0267678
-0.0563914
-0.0105523
0.0761258
0.0699261
0.0281468
-0.107197
0.0541311
0.106167
-0.114139
-0.0259168
-0.0245663
0.110012
-0.00128427
-0.00752538
0.00752006
-0.0714454
-0.0367142
-0.0419072
0.0616175
0.0557567
-0.127603
-0.0570094
-0.0505688
-0.029031
0.0132002
0.0270298
-0.0408943
-0.0237681
-0.00774257
0.0650318
-0.0599474
-0.0623861
0.0301984
0.0772764
-0.0239575
0.077172
-0.0922052
-0.0275357
0.0563288
0.0718318
-0.0536087
0.0368125
-0.119057
-0.0118739
0.0554315
0.00904935
0.0624651
0.00850704
-0.0194529
0.0120695
-0.00792619
0.0356365
0.0455446
0.0204507
0.0625419
-0.0432338
0.0221372
-0.00299524
0.0211978
-0.0180413
0.101635
-0.0599092
0.0988669
0.0368923
0.0701214
-0.00449904
-0.0339737
0.0102925
0.034275
0.0167337
0.0864397
0.0468833
0.00279719
-0.00507
0.0450624
-0.0120081
-0.0860663
0.00203303
-0.0326173
-0.0812944
0.0184298
-0.0217505
0.00844638
0.00521245
0.0571922
-0.0357788
-0.0120629
0.0555948
0.013913
0.0779538
0.0154826
-0.0615255
-0.0393223
0.0365684
0.0903676
0.0330019
-0.0380504
0.0782882
-0.039222
0.037915
-0.0403752
-0.0263577
0.0102646
0.0295654
0.0451269
0.0132015
-0.110443
0.00425466
0.0147958
0.0369236
-0.00332373
-0.00266391
0.0176936
-0.0445406
-0.0382498
0.0381624
0.000826588
-0.0296537
-0.0505819
0.0424299
-0.0553764
-0.0285355
0.0962866
0.0855412
0.0790475
0.0940924
0.0862241
0.0348842
-0.0878563
0.0170503
0.0256393
-0.0161517
-0.0260983
0.0353167
-0.10287
-0.0290159
-0.0461468
-0.02313
0.038559
-0.0445288
-0.036919
0.0551015
0.0110446
0.0100467
-0.0399973
-0.0481433
-0.0562924
0.0492897
0.0542565
-0.0253385
-0.0112908
0.032556
-0.0422115
0.0792138
-0.0376525
0.0734691
-0.0085321
0.0214504
0.00252474
-0.0289993
-0.0507871
-0.0257004
-0.00486898
0.0370982
0.0372123
0.045166
0.0315178
0.14153
0.00332886
0.0773411
-0.00844137
0.0158257
-0.0818155
0.118462
0.0132466
-0.0376134
0.0146709
0.0757193
0.0761895
-0.0965939
-0.104974
-0.0496672
-0.027099
-0.0406056
-0.0282362
0.00635395
0.0278795
0.0150865
0.0488897
0.0221999
-0.0348684
0.0397303
0.0768887
-0.011686
0.0270835
0.0160741
-0.0377262
-0.0785554
0.0649366
0.0185051
0.0595222
0.00494411
-0.0995904
-0.0265649
0.0506726
-0.0255216
-0.0413223
0.0545969
0.0212309
0.0367335
0.0757007
0.142237
-0.0250466
-0.059261
-0.0718397
-0.068125
0.0605325
-0.0355748
0.0401938
0.0287184
0.017321
-0.0544456
0.0336219
-0.000423971
-0.106679
-0.00822281
0.0444543
0.0520418
0.0333611
-0.0408244
0.0883354
-0.00873919
-0.036411
-0.0339151
-0.0508089
-0.0246337
-0.0565094
0.086031
-0.0744477
-0.0159623
-0.125534
-0.0202938
0.0551015
0.00386805
-0.036455
0.0888379
0.0420106
-0.0443961
0.0169526
-0.0733508
0.0488521
0.00443818
0.0526789
0.0254968
-0.0192067
-0.0976433
0.00399754
-0.0588347
0.0410482
-0.101396
-0.0233884
0.060131
0.0628563
-0.00312205
0.00172358
0.0125159
-0.0143676
-0.159612
-0.0191908
0.0595202
-0.00996745
0.0257426
-0.00219782
0.0894231
-0.0149469
0.0377382
0.0290482
0.106642
-0.0205952
0.0132054
0.0733566
0.000166687
0.0480722
-0.010822
0.0430899
-0.0403053
0.0572573
0.00702703
-0.0197676
-0.0384154
0.00615019
-0.0419956
-0.0659885
0.0375147
0.0784081
-0.0327511
-0.009303
-0.0235223
-0.039715
-0.0100806
-0.00707516
0.00716613
-0.0781115
0.0188571
-0.0572665
0.0548558
0.0314478
0.017673
-0.0196761
0.0416086
-0.0600905
0.00454132
-0.127103
-0.012811
-0.0410356
-0.000611176
0.0130962
0.00422493
0.0280605
-0.088578
-0.0363156
-0.0122798
-0.0111449
-0.0937248
0.0201394
0.0563002
0.087162
0.00340204
0.0554097
-0.0149393
0.0417477
-0.0551796
0.00515739
-0.00777192
0.124087
-0.0327871
-0.0366828
-0.0263999
0.0347604
-0.0156607
0.00446768
0.0760211
-0.0614864
0.0311955
0.0595384
0.0671828
-0.00533543
0.0421328
-0.013997
0.0897877
0.0578677
0.0118402
-0.0223611
0.0324982
-0.0789633
0.0567352
-0.0120763
0.0252871
0.108074
-0.0373931
0.0628418
0.036931
0.0222625
0.0688699
-0.00755844
0.0281276
-0.0466911
-0.0170949
0.0331128
0.0187319
-0.0343399
0.0326255
-0.0751661
0.0177465
-0.0328328
0.0192835
0.0370731
-0.00832954
0.110867
-0.0444202
-0.0438331
-0.0395791
0.0389348
-0.0452964
0.0187238
0.0705417
0.0613177
-0.120165
0.0426709
-0.0278483
0.016588
-0.0421536
0.0656016
-0.00372016
-0.0980585
-0.0197384
-0.028265
-0.13701
-0.0268115
-0.0106657
0.0551351
0.0644809
-0.111617
-0.00109309
0.0548105
0.108491
-0.000472073
-0.07827
-0.00919746
-0.0323444
-0.00495971
-0.0146908
0.0766414
0.0472458
0.0701822
0.0209504
-0.00215792
0.0342386
0.0396755
-0.0286725
0.0692184
-0.0545328
-0.0217817
-0.10202
0.00823056
-0.0179967
0.0463748
0.0779267
-0.00584975
-0.00775915
0.0676213
-0.023679
0.0226179
-0.0709645
0.0538428
-0.00849668
-0.0487849
-0.00508876
0.126706
0.0305457
0.0118131
-0.0299951
0.0240215
0.0366411
-0.0414901
-0.0443208
0.0138535
-0.003108
-0.0569733
0.0883955
0.046599
-0.0509292
-0.00863117
-0.02107
-0.00332571
0.000984452
0.00228112
-0.028234
-0.0721645
-0.0337107
-0.0346881
0.0713643
-0.0119506
0.0102005
0.0465747
0.0199973
0.0411692
-0.0371578
-0.0287689
0.00129886
-0.0626523
0.147338
0.0289196
0.0533472
0.0738677
0.0437534
0.0607315
0.0055446
0.0535317
0.107463
0.0226191
0.0854733
0.0347016
-0.0717534
-0.018003
0.0600883
-0.0140841
-0.0170638
-0.0942919
-0.0674085
0.064961
0.0473253
-0.103754
-0.0222213
0.0236494
-0.0398585
0.0166913
0.0651641
-0.133672
-0.0459427
0.0298839
-0.0630391
-0.0337273
-0.00382683
-0.0253441
0.00240808
-0.0620006
-0.0872959
-0.0276144
-0.0361799
0.0487487
-0.0218314
0.0859376
0.0276001
-0.019992
-0.0454199
0.0793235
-0.131079
0.0724595
0.00481311
0.052109
0.0313094
-0.0742262
-0.0709307
0.030383
-0.00143168
0.0240764
0.0310046
-0.00485512
-0.075958
0.00207633
0.1032
0.02739
0.0313605
-0.0828724
-0.076562
-0.0240987
0.0303929
-0.0702851
0.0855351
0.0102581
-0.0601974
0.0659415
0.0536582
-0.0489513
-0.0332558
0.0349905
0.0604048
0.0169805
0.0914399
-0.0418707
0.0202174
0.0933739
-0.10271
0.00596221
0.0549896
-0.0160022
-0.0531752
0.0181973
-0.0424746
-0.0677791
-0.0237433
-0.052948
0.0259608
0.00246251
0.05276
0.0266681
-0.0499604
-0.0210524
-0.0119178
0.03959
0.0671929
0.0253925
-0.0229094
-0.00989696
0.0835604
0.0404457
0.0453927
0.00152729
0.048736
-0.10111
0.00184233
-0.0386957
0.040864
-0.0185162
0.0114706
-0.054474
-0.003973
0.0378737
-0.000521183
0.0872323
0.0515627
0.109515
-0.0291846
0.083249
-0.00118115
-0.0146782
-0.0608508
0.0474868
-0.000394853
-0.0656137
0.0224769
-0.00721833
-0.0704845
0.0512901
-0.000205044
0.00137233
0.0232096
-0.0818284
-0.047368
0.0610297
0.00399078
0.0121728
0.0376811
-0.0617947
-0.0563464
