0.0571827
0.0399596
0.00166379
0.0295187
0.0393915
-0.00335989
0.0252756
-0.0437353
0.0754527
0.0395451
-0.029243
-0.0773364
-0.087525
-0.0068886
-0.112008
-0.0238161
0.0400472
0.0340158
0.0303269
0.0338831
0.0589997
0.0181468
-0.0117357
0.0310273
-0.0357717
0.0699007
-0.0472809
-0.0451746
0.0110422
0.0724943
0.0311784
-0.00203142
0.00693306
-0.0645892
0.0385726
-0.0389409
0.00546809
0.0885345
-0.0571023
0.11005
-0.0825345
-0.125916
-0.0799824
0.0116351
0.0257759
-0.079049
-0.000514783
0.0310594
0.032454
0.0614431
-0.0039034
-0.0415173
-0.042697
0.0412378
-0.00200783
0.00514418
0.0940913
0.00648259
-0.0301169
-0.060983
-0.0251191
-0.00790669
0.000214677
0.0383074
0.0340765
-0.106859
0.000305554
0.0731393
-0.0336544
-0.0821761
0.0730218
-0.0272966
-0.0218931
-0.0426623
0.0830493
0.0267133
0.0174545
0.043841
0.0114686
0.02006
0.035479
-0.0133274
-0.049255
0.0233743
0.0753102
-0.0392593
-0.0245898
0.000206578
-0.0518756
-0.0642242
0.0390876
-0.0581947
0.0247896
-0.058277
-0.0512801
-0.004155
0.00248862
-0.00384524
0.015628
0.0602475
0.029677
-0.0330359
-0.0316165
0.0253488
-0.0676637
0.0927508
-0.0466489
-0.0686414
0.0378454
-0.00812106
-0.0409252
-0.0156044
0.0198469
-0.0115723
0.0380089
-0.0342205
-0.0851894
0.0534596
-0.12277
-0.0260356
0.0531141
-0.00825876
-0.0113967
0.0338019
0.0075642
0.0525634
-0.0183008
-0.0135994
0.0547278
0.0638507
0.019613
-0.0437621
-0.0458127
-0.0323256
0.0714684
0.0936583
-0.0312758
0.0280044
0.0820881
-0.0133702
-0.0191708
0.0124475
0.00410854
0.0171259
-0.0352716
-0.025559
-0.0123454
0.00648696
0.0187673
0.0176676
0.00620717
-0.00263217
0.0472755
-0.0330811
-0.0134092
-0.0413604
0.0164131
-0.057524
-0.0988701
-0.0685024
0.0116634
-0.0365533
0.0590874
-0.0254842
-0.0675923
0.0744625
0.0322681
-0.0345333
-0.122005
0.017008
0.0147352
0.00748636
0.0106771
0.0729358
-0.0779032
0.0709542
-0.0248122
-0.00846311
-0.00756841
-0.0495008
0.0168039
-0.0374374
-0.00532268
0.0194178
0.0266916
-0.00108169
-0.0084099
-0.0119046
-0.0317726
-0.0235078
0.0799796
0.0741238
-0.0701311
-0.0289803
0.0676005
-0.070724
-0.0182213
-0.0245149
-0.00309809
-0.00167626
-0.0372705
-0.05619
0.0165644
0.0951276
0.00582171
0.0598315
-0.0185084
0.0103135
-0.0235537
-0.0350672
0.0794301
0.0199524
-0.039122
-0.0474034
0.0417807
0.0331694
0.00938144
-0.00865165
-0.0311147
-0.0223344
0.051715
0.0680051
0.00205418
0.158832
0.014181
-0.00581254
-0.035384
-0.0193238
0.08726
-0.00701609
0.00113396
0.082138
-0.0883128
0.00338289
-0.0273414
0.0902879
-0.0284227
-0.0239834
0.0236582
0.0227525
0.0156166
-0.0114397
-0.0498911
-0.0320964
-0.0431513
0.0185521
0.0313379
0.0651399
0.0550449
0.017985
-0.00385638
-0.036496
0.0937579
0.00291361
-0.0326709
-0.0139227
0.0199143
-0.02952
-0.0504785
0.149378
0.0182472
-0.000778237
0.17412
-0.0480473
0.00458251
-0.0492302
-0.00193636
0.0306727
-0.00836396
-0.0284732
0.0130734
0.0275387
-0.0452897
0.0638185
-0.0171288
0.118323
0.0683911
-0.0413757
0.0544956
0.0303037
-0.0685702
-0.0151922
-0.0446356
0.0463975
0.0433444
-0.0427792
0.00769294
-0.0577428
0.0245496
-0.0312217
-0.0704058
-0.0160655
0.0396389
-0.0779598
0.0726475
-0.0253787
0.0319176
-0.0141098
-0.0213758
-0.0613591
-0.00312033
-0.023147
-0.0081354
-0.0977128
-0.0686229
-0.0813637
0.011421
0.00565911
-0.00309127
0.0283916
0.0883931
-0.0244533
0.0252931
-0.0259837
-0.0848816
-0.0651975
0.0403653
0.0115968
0.0412951
-0.0229741
0.0322696
0.111195
0.00197502
-0.00202158
0.0481204
-0.00429426
0.0123508
-0.0358547
-0.0535742
-0.0648547
-0.0300257
-0.0737363
-0.0378739
0.0387515
-0.0605693
0.000284218
-0.0425622
-0.0819899
0.0266006
-0.0544952
0.112245
0.0719384
-0.0185473
-0.0567824
-0.0285176
0.0991585
-0.0243729
0.00028771
0.0393065
0.0203311
-0.0219972
0.0478844
-0.0373163
0.0390711
-0.00936179
-0.04539
-0.0306564
-0.0127672
0.00168549
0.00869275
0.00412961
-0.0411367
0.0456054
-0.0185194
0.10338
-0.0371656
0.0473396
0.0348923
-0.00990691
-0.0314705
-0.155407
0.0106445
-0.0541011
0.0567228
-0.0123258
-0.0219772
-0.0229995
-0.0909414
0.05866
-0.0233019
-0.0137934
-0.0745986
0.0664649
0.0452918
-0.0762516
-0.0112834
-0.0419981
0.0623509
-0.00583694
0.0821741
0.0532327
0.0259192
0.000338013
0.0175377
-0.0391599
-0.0276865
-0.0120788
-0.0340938
0.00570368
0.0561193
0.0361265
-0.0792517
-0.0284537
0.0377934
-0.00700248
0.0323803
-0.0482954
0.0456407
0.0711705
0.0406626
0.0441642
-0.037353
0.0372657
-0.0293224
0.00912559
0.0592551
-0.128948
0.0247564
0.0284244
-0.0101646
-0.0170152
-0.00930688
-0.0102202
0.00880492
0.0509391
0.0727698
0.0101798
-0.00499124
0.0476447
0.055159
-0.0668283
-0.0143135
-0.0131911
0.005551
0.0465716
-0.0340944
-0.0783546
0.025321
0.0282548
0.0433368
-0.0138249
-0.00389711
-0.0390684
0.0198444
-0.0317509
0.0433494
-0.0912411
0.0567622
0.0902267
-0.0203106
-0.0556551
-0.000908564
-0.0177452
-0.066145
0.0188657
-0.0214861
-0.00218131
0.0107774
-0.0813515
0.106082
-0.0376292
-0.00124537
-0.0782592
-0.0479372
0.035364
-0.00269913
0.0635004
0.00786784
-0.00881246
0.00811115
-0.0823102
-0.0483743
-0.0760904
-0.0201009
0.0581928
-0.0495397
0.0073212
0.021679
0.0395608
-0.00819016
0.0513456
-0.0278638
-0.0195209
0.0173296
-0.00299052
0.111061
-0.0269053
0.0435057
-0.0900196
-0.0539191
-0.0667517
0.0293123
-0.0185013
-0.0425621
0.0591706
-0.0212585
-0.0902085
0.00500586
-0.0634989
-0.062244
0.115438
0.0430529
0.0397297
0.0212225
0.0379006
0.0714265
0.0416539
-0.035085
-0.0775679
-0.00502078
0.000933013
-0.0174675
0.0189574
-0.014492
-0.0274177
-0.114782
-0.0349582
-0.0727156
0.0477158
0.0648863
-0.0868444
0.143618
0.0149379
0.0189502
-0.0676379
-0.0438443
-0.0325386
-0.115415
-0.0247752
-0.0861954
-0.00368245
0.0121743
0.0198321
0.00453485
0.0614765
-0.0743174
-0.0352006
0.0564216
0.0374544
-0.0352078
0.078468
-0.0888969
0.0525921
-0.022599
0.0211637
0.00203701
0.0413922
0.0572059
0.13757
-0.0175177
-0.0137556
-0.00721542
0.0922637
0.0638196
0.00866381
0.0206758
-0.0127452
-0.0287625
-0.0422438
-0.0316908
0.00773168
0.0379605
0.0297928
-0.0664737
-0.0872383
0.0182207
-0.0315761
0.070584
-0.0261009
0.0494541
-0.00359873
-0.0474981
-0.0613264
0.0466921
-0.113801
-0.0269344
-0.0241187
0.03076
-0.00344107
-0.052247
-0.0931994
0.00570153
0.0588679
0.0758825
-0.0755637
-0.0128655
0.0681358
-0.00905365
-0.0412291
-0.0451105
0.0662444
-0.0422343
0.0529978
0.067772
-0.0104
0.0196742
0.0939599
-0.0600176
-0.0143011
0.0214716
0.00443116
0.0180056
0.0603004
-0.0275084
-0.0266578
-0.0808384
-0.0596188
0.0193601
0.057953
0.0341328
-0.00045773
0.0332734
0.0416335
0.0400062
-0.0487016
0.068179
0.00189679
0.0930907
0.0889363
-0.0431174
0.0549517
-0.0386989
0.0748835
-0.0248675
-0.0788988
0.0434753
-0.0465639
0.0156437
-0.00100045
-0.110386
-0.0205889
0.0174737
-0.00698741
0.00671174
-0.047994
0.039317
-0.0757734
-0.0384952
0.0402965
-0.0402952
0.0568632
0.0241841
-0.0587688
0.00735075
0.012257
-0.00995354
0.0142245
-0.0305357
-0.0329602
0.063771
-0.0322267
0.00611541
-0.0150118
-0.0367516
0.0438835
0.0537094
0.0122689
-0.0752404
-0.0668044
0.0512165
-0.0500696
-0.00110774
-0.0656443
0.023235
-0.00686159
-0.0116046
0.0876009
0.0251786
-0.0607811
0.0388295
0.00807528
-0.0755061
-0.0475687
0.0818972
-0.0486359
-0.104796
0.0255611
0.0196207
-0.077796
0.0176032
0.0741534
-0.0386275
-0.0119766
-0.0238259
0.0165314
-0.0242657
-0.00672684
-0.0258005
0.0736824
-0.0173615
-0.0564418
0.0208059
0.0234394
-0.0929297
0.0703063
-0.049708
0.00106335
0.0146384
-0.046902
-0.0473505
-0.0451069
-0.0467911
-0.081237
-0.143763
-0.0416479
-0.012497
-0.00102726
0.0403143
0.0392437
0.022645
0.00932304
0.0744575
0.0387482
0.0310678
0.0506322
0.0476314
0.0450004
0.0140312
-0.0226018
0.0476814
0.0521628
0.012138
-0.00238676
-0.0360314
-0.0310609
0.0651091
-0.0580335
0.051047
0.0188701
-0.011916
0.0360485
-0.0220627
0.0162057
-0.034085
-0.0294799
0.0736101
-0.0122641
-0.0419896
-0.00985663
0.100496
-0.0131618
0.0355181
-0.00226154
-0.000934157
-0.00815102
0.0151202
-0.0249304
-0.0692369
-0.0115745
-0.00909346
0.0341104
-0.0598135
0.0258868
0.00282203
0.0715727
0.0218968
0.0631198
0.0581176
-6.30675e-05
-0.0390055
-0.00496859
-0.0142642
-0.00456513
-0.0741244
-0.00214791
-0.03222
0.0728487
0.0154265
0.00898086
0.00184157
0.0126091
0.0775614
-0.0195083
-0.0293237
0.0243508
0.00960408
0.0458664
-0.0582352
0.029378
-0.14105
0.0420863
-0.0185863
0.0130437
-0.000296843
-0.0477656
-0.00709719
-0.0185813
0.00770984
-0.0269681
-0.0346153
-0.0186699
0.0634432
0.0648582
0.0608122
-0.0335933
0.056201
-0.0455475
0.046339
0.0919664
0.00899227
0.0435312
0.0153608
-0.0638507
0.154706
-0.0876713
-0.0275883
0.0257532
0.00407636
0.105769
0.0438786
-0.024885
0.028279
0.107321
0.0518752
0.0964668
-0.0011663
0.00820533
0.0714903
-0.0131328
0.0161753
-0.0226798
-0.0135062
-0.0178661
-0.00336806
0.0255579
0.0545045
-0.00958047
0.018805
0.0529924
-0.116332
0.0303261
-0.117112
-0.044768
0.0392279
-0.0443888
-0.0915438
0.0869877
-0.00228539
0.0456227
-0.0478152
0.0718742
0.0114632
-0.0747183
-0.0003895
0.036616
0.0350168
-0.0100367
-0.0368097
-0.0118896
-0.00931011
0.0173584
0.0136568
0.0404495
0.0444302
0.0873767
-0.0533955
0.0874796
-0.0271389
0.0350274
0.100304
-0.0937484
-0.0100014
0.0431013
-0.00178247
-0.0787032
0.0555296
-0.0505648
0.0330081
-0.0441434
-0.0212327
-0.0499084
-0.0897381
0.0568037
0.0238219
0.0309957
0.0696819
-0.00361962
0.102963
0.0765795
-0.0710533
0.0199227
-0.0594239
0.0394416
-0.0534528
-0.0469275
0.090864
-0.0159469
-0.0167647
0.0129062
0.0552859
-0.090497
-0.0137636
0.0335639
0.0508879
0.00187212
-0.0336049
-0.00569976
-0.00200475
-0.0202635
-0.0785867
-0.0243622
-0.0375965
0.00943861
0.0164602
-0.0784357
0.0235585
0.0257783
-0.034227
-0.0305403
0.0274776
0.0596985
-0.0223955
-0.0449931
-0.0660987
-0.00780834
-0.00119865
-0.0636857
0.053321
-0.0529588
0.0102859
0.0409828
-0.0706502
0.063636
-0.0632579
-0.0588424
-0.0564934
0.0670381
0.0866765
-0.0385268
-0.0166977
-0.0668739
-0.132528
-0.0306786
0.0657772
-0.0123604
-0.101039
-0.0710186
-0.0159609
0.0492515
0.025273
-0.0385038
0.0515365
0.029701
0.00351561
-0.0605261
0.0481752
0.0138286
-0.0258248
-0.0188781
-0.0253629
-0.000180868
-0.0230363
-0.00838715
0.0131708
0.00181355
-0.0131161
-0.0999109
-0.0717372
-0.0378424
0.0153617
-0.0334759
-0.015439
0.043693
0.0234438
0.04862
-0.0429535
-0.0149224
0.0109852
0.081906
0.0105326
-0.00384455
0.00899477
-0.0867847
-0.0756869
-0.0164987
-0.0533527
0.0924654
0.00359509
-0.00493469
-0.0156013
-0.0377059
-0.109415
0.0307387
0.0352435
-0.0133365
-0.0430307
0.0425259
-0.0401313
-0.0558776
0.0165525
0.0235687
-0.0321886
0.0848741
0.0941959
0.0226562
-0.0566574
-0.046839
-0.0942447
-0.0337941
-0.0772378
0.162663
0.0816378
-0.0338273
0.0586226
-0.0594841
-0.0422799
0.0556563
-0.0190408
0.105838
0.031453
0.0836515
-0.034205
-0.0424628
-0.0414629
-0.0572123
0.0135613
0.0776297
0.0775864
-0.00820921
-0.0980278
-0.0447416
-0.0312391
-0.0806163
-0.0431684
0.0579758
-0.0887118
-0.0743559
-0.00398678
0.0184431
-0.0708772
0.0457198
0.0369914
0.00761168
-0.00260127
0.0568836
-0.035951
-0.0744658
-0.0757358
-0.0104156
-0.0150741
0.0443369
-0.0217116
0.0343143
0.0953287
0.0200738
0.0287607
0.053609
0.0450568
-0.0429562
0.0420168
0.0516735
0.0316742
0.0587244
-0.051217
-0.0666982
-0.00369004
-0.014233
-0.0712461
-0.0138543
0.0719042
-0.0278719
-0.0220308
-0.0563262
0.0295591
0.1178
-0.0590259
0.0223594
-0.0296651
0.00690978
-0.0244116
-0.055221
0.103397
0.00545756
0.0650729
0.0118911
0.00914085
0.00499203
0.0408685
-0.053507
0.00436242
-0.068791
0.0142755
-0.0440705
-0.0573979
-0.00186667
0.0216613
0.0262063
0.0151197
-0.0625023
-0.0341125
0.0788471
-0.0304885
-0.0264152
0.047231
-0.0163893
0.0634211
0.0475613
-0.0803802
0.00272862
0.184879
0.0641896
0.0171209
0.000670225
0.0113907
0.0929808
-0.00220192
-0.0499379
0.0268978
-0.0285307
-0.0711638
-0.109834
0.023546
0.0470979
0.0138022
-0.0133237
-0.0028051
0.0577756
0.000426917
-0.0380726
0.0590127
-0.011432
0.0360857
0.118753
0.0179932
0.070402
-0.0582644
0.0182803
0.0434072
-0.0304806
0.0684035
-0.0026221
-0.0460334
0.00167989
0.0201151
0.0275512
-0.13397
0.0382042
-0.0468044
0.104423
-0.0547881
0.121041
-0.0226774
-0.0888818
-0.0402694
0.0219019
0.0301969
0.0751399
-0.00928737
0.0754651
0.0244654
0.00656069
-0.0559684
-0.110361
0.0722304
0.00734126
-0.000314453
-0.0324776
0.0840735
0.0084055
0.0057117
-0.0163565
0.0528989
0.0388036
0.0235882
-0.00343396
0.0287341
-0.00199048
-0.0515044
0.0129022
-0.0445136
0.0287924
-0.0600635
-0.0470284
-0.0675193
0.00991364
0.0606677
0.0449276
0.0811931
0.0230428
0.00228937
0.0218656
0.0373301
-0.059769
0.0510758
0.0412235
0.0104478
0.0379004
0.0830645
-0.0628929
0.0230369
0.0038789
0.00587431
0.0467185
-0.0196876
0.0150582
-0.0723908
0.0426216
-0.00525913
0.0791973
-0.0421951
0.0333479
-0.0862489
-0.109957
-0.0620279
0.0088399
-0.0261327
0.0261364
-0.00397198
0.0906119
0.0363098
0.0178561
-0.0585057
0.0277452
0.0680751
0.0239061
0.0542768
0.0141465
0.02596
0.0842216
0.0321428
0.0207183
-0.0545804
-0.145946
0.0106403
-0.0292839
-0.0604809
0.0329263
0.019504
0.0128094
-0.0857341
-0.0601792
-0.0141795
0.0349592
-0.0514792
0.0966518
0.0284618
0.00875799
0.0754401
0.0401303
0.00633993
-0.0785392
-0.0480746
-0.0744568
0.0599059
-0.0307054
0.0430958
0.00173777
-0.0482342
-0.0271279
-0.0838329
0.0366362
-0.0215011
-0.0520573
0.0309088
0.0174628
0.0867891
-0.00652214
-0.0646295
0.0574317
0.0504159
0.0301705
-0.00239817
0.0276455
0.0316593
-0.0185955
-0.0509289
-0.0168829
0.00995252
0.0722102
0.0470607
-0.00245922
0.0246641
-0.000653166
0.00745919
0.0363276
-0.0235472
0.0248459
0.01192
-0.00219344
0.0312497
0.0656864
0.0572941
0.021841
0.0403104
-0.0203467
-0.0151922
0.0361134
-0.0417343
-0.0300067
0.0283968
0.0268203
0.0185547
0.00655942
0.0488699
0.00654453
0.0163868
-0.0397414
0.001524
0.0480563
0.0379227
-0.0497555
-0.00948108
0.0215162
-0.0290341
0.0226137
0.0411949
-0.0715055
-0.0195472
-0.0434294
-0.0727786
0.0283318
0.00828948
-0.0096594
-0.046071
-0.000636073
-0.00417922
0.0193242
-0.103837
0.0524549
0.000442024
-0.100384
-0.0356516
-0.106837
-0.00546408
0.0137992
-0.0793665
0.0239299
-0.021132
0.0454742
0.0695739
0.0550524
0.0303334
0.00979571
0.0248856
-0.0203533
-0.00122996
-0.010694
0.095926
0.0824863
0.0254778
0.134735
-0.000771445
0.0342993
0.000107584
-0.000482966
0.0525711
0.0703441
0.0918217
-0.00981346
-0.050813
0.00986507
0.0483972
-0.0314489
0.023055
-0.034986
-0.102631
0.0298234
-0.0157516
-0.00628514
0.0466962
0.0119736
0.118659
0.0165244
0.114675
-0.00600602
0.0140412
0.0635978
0.00273852
-0.0468877
0.0804218
-0.0543737
0.0217799
-0.0199631
0.0656208
-0.00340111
0.111252
0.042543
-0.0059031
0.0691907
0.0214996
0.00266931
0.00195802
-0.0471139
0.0951987
-0.00145445
-0.0186763
-0.049485
0.0325103
-0.0294345
-0.00106024
0.111234
-0.0214071
-0.056129
-0.0745853
0.029365
0.0443221
-0.0844207
-0.0235533
0.0591001
-0.080004
0.0316359
-0.0017729
0.0181975
-0.0501312
-0.052952
-0.0484182
0.0324305
-0.0542745
-0.0441028
0.0142007
-0.0264093
-0.057273
0.0444499
-0.136696
-0.0386067
0.00304847
0.0512414
0.0115104
-0.102373
-0.0231687
0.00228804
-0.0720215
-0.0224247
0.0817556
0.0506102
0.0164172
-0.017691
0.0568311
-0.0291081
0.0282653
-0.0312847
0.0291821
0.0459559
-0.0499332
0.0739237
-0.0199778
-0.0242077
-0.0281906
0.0386211
-0.047274
0.00727605
0.0175169
0.0157046
-0.0119035
-0.0876527
0.0892229
0.0465404
-0.0645562
-0.106175
-0.0728359
-0.0521452
-0.0184493
-0.0899645
-0.0422271
0.0202722
-0.0118025
-0.117698
-0.106163
0.0749722
-0.0223323
0.0565334
-0.0610836
-0.060715
-0.0477472
-0.0847015
-0.0029952
-0.00985644
0.0610753
0.00190412
0.00978128
0.000738745
0.0591239
-0.0815829
-0.0488043
-0.060328
0.116789
-0.0502581
0.0410914
-0.0656501
-0.0181932
0.109255
0.132558
0.0588685
-0.0449674
0.021816
0.0228668
0.0463067
0.0217517
-0.0523616
0.0622051
-0.00281109
-0.00830081
-0.0177997
0.0608197
-0.0541016
0.0368099
-0.0252092
0.084855
-0.0636666
-0.00424584
0.0661
0.112934
0.0137451
-0.0263725
-0.0156448
-0.0432202
-0.0356396
-0.0722571
-0.143689
0.0326537
0.0980213
0.00912112
-0.072511
0.00441477
0.00696254
-0.0330932
0.0852093
0.0778201
0.0847331
-0.0498826
0.0300275
0.0150687
0.0263223
0.00214764
-0.071576
-0.026591
0.0321124
0.0703047
0.0423539
-0.0331853
-0.0192363
-0.0114328
0.0151561
0.0459632
0.0766451
-0.0120651
0.0454665
0.0194293
-0.0277971
-0.0361066
-0.0831956
0.0086573
0.0266376
-0.0198475
-0.0723624
-0.0163317
0.0610258
0.0322532
0.0649952
-0.0148998
0.0728972
-0.0321414
0.0721419
-0.04769
0.024011
0.0323199
-0.0551573
0.0415065
-0.0330373
0.071274
-0.0107625
0.0612059
0.0193773
0.0117509
-0.0285549
-0.0580165
-0.0322808
0.025716
0.0611743
0.0463275
0.0162838
0.0386001
-0.00522918
-0.0844347
-0.0805675
0.0583525
0.020942
0.0196573
0.0281297
-0.0828193
-0.00791696
-0.0207006
0.0692275
0.00149241
0.00642591
0.00353268
0.0121361
-0.00169256
0.0111932
0.0153938
0.00183242
-0.00867836
-0.0203
0.0208924
0.0621861
0.0652621
-0.0394329
0.0869444
-0.0562774
-0.0145515
-0.0436405
-0.0709366
0.0516634
0.0538166
-0.0426913
0.0138828
-0.0303928
0.00864486
-0.0638039
0.0270619
0.0522845
-0.0116956
0.0583939
0.061285
0.0443257
0.0884794
-0.0117875
-0.00185964
-0.070502
-0.0439398
-0.0236531
0.0330203
-0.112767
-0.0418734
-0.0528009
-0.0408596
0.0596362
0.00873888
-0.0197833
-0.00385907
0.0718889
0.0347221
0.0546112
-0.0526925
-0.00155193
-0.0667531
0.103449
0.024474
0.0591498
-0.0388598
0.073837
-0.0361238
0.0215895
0.0271583
-0.0220441
0.0140849
-0.0446124
-0.0192231
0.00174171
-0.0705733
-0.00764573
0.027361
0.0563362
0.0705287
0.111581
-0.045367
0.00345372
0.11406
-0.00182821
-0.0993561
0.018333
0.0156251
-0.00726081
-0.0364484
0.0553593
-0.0256423
-0.0345643
0.0235829
0.0334429
0.0175793
-0.00510523
0.0294971
-0.0341552
0.0332007
0.0188428
0.0311078
0.0104625
-0.054838
0.0454215
-0.0229719
0.0336963
0.0348685
0.0204913
-0.143917
0.00551985
-0.0526908
-0.121071
0.048559
0.00621552
-0.0152442
-0.0110017
0.0398629
-0.0315777
0.0184265
0.0600395
-0.000500934
0.0245342
-0.0159841
-0.0485687
-0.0565529
-0.0850196
-0.00150532
-0.0102211
0.0141367
-0.0430506
0.0147878
0.069152
0.0211426
-0.0137658
0.0155662
-0.0241918
-0.0379181
0.0708365
-0.0198811
-0.0748698
-0.117236
0.00329681
0.0315698
0.0147838
0.0283139
-0.00276734
0.0197367
0.0283394
0.129297
0.0223462
0.0460847
-0.0546331
-0.000823895
0.0258931
0.00752691
0.0414738
-0.0180912
0.0419538
-0.0434507
-0.0625958
0.019039
-0.0405179
0.0800417
-0.0175
0.077265
-0.0454875
-0.000108668
0.00642537
-0.0591012
-0.135138
-0.00746027
-0.0155447
-0.0623227
0.0163052
-0.0404796
-0.01106
-0.0035634
0.00195062
-0.0525484
-0.097352
0.0363116
-0.0405832
-0.0276553
0.0559118
-0.0789462
-0.0716502
0.0546352
-0.0744676
0.0490263
-0.0400273
-0.00909397
0.083994
-0.0530198
0.0215397
-0.0211963
-0.0766583
0.0245081
-0.00602587
-0.0499192
0.0264533
-0.0204928
0.0711619
-0.0703485
-0.000996705
-0.0301319
0.0754766
-0.0338946
0.0719398
-0.0111239
0.00272738
0.0136759
-0.0112411
-0.0821093
0.00289417
-0.0356081
0.0544373
0.0568521
-0.097823
-0.00436951
0.0712987
-0.105983
-0.00682186
0.0118921
-0.00439971
0.0231013
-0.006692
0.0900229
-0.00582939
0.0378177
0.0269835
-0.031093
0.0332407
0.0508343
0.0262259
0.0401783
-0.00208131
0.0637666
-0.0318048
-0.0671056
0.114726
-0.0407463
-0.0631446
0.0273544
-0.0400127
-0.0042873
-0.000322829
0.0808021
-0.00845849
-0.0110266
-0.0538209
-0.0784699
-0.038184
0.000299123
-0.0789555
0.093583
-0.0357143
0.0386298
-0.0309148
-0.0205289
0.0173036
0.0707692
-0.0475517
-0.0782071
0.0910441
-0.00350786
0.0518942
0.0503364
-0.0312251
-0.0343028
-0.0134185
0.0422713
-0.0895442
0.11394
0.022837
0.0206381
-0.0133363
-0.021698
0.0984306
-0.0111273
-0.0920149
-0.0860825
0.00497547
0.0217354
0.0248892
0.0131636
-0.0358422
0.0766545
-0.00240564
0.0159289
-0.0461868
0.0290642
-0.13921
0.0279468
-0.0485644
-0.0330969
-0.093667
-0.0115273
-0.00240462
-0.012025
2.93794e-05
-0.0286603
0.0789084
0.00710804
-0.0459384
-0.0990552
-0.000411097
-0.0114172
-0.0515248
0.0252005
-0.0101296
0.0466969
0.0174268
-0.0206177
-0.00838539
-0.0610855
0.0437248
0.000138008
-0.0856338
-0.00917312
0.032562
-0.123617
0.00230985
0.0600473
0.100378
0.113938
-0.0439324
0.0146159
0.051968
0.0202117
0.023588
0.043083
-0.0758733
-0.0252141
0.015922
-0.0120325
0.0193229
-0.00261896
-0.0115913
0.0154927
0.071841
-0.00923921
0.0509107
0.0172287
0.00351753
-0.0738692
-0.00321231
0.0022228
-0.081692
0.0414124
-0.0489532
-0.0285974
0.0218286
-0.0368994
0.105185
-0.0892928
0.0152089
-0.099555
0.108384
0.0459966
0.0208237
0.00577037
-0.0283847
0.00214229
-0.00577571
-0.0224618
-0.0765934
0.031673
0.0427491
-0.0813223
-0.0198032
0.00654593
0.0653024
-0.0743241
0.13413
0.0311337
0.0119224
-0.0440903
-0.0403932
-0.0897083
0.074393
-0.0197119
-0.0591926
0.0123461
-0.00275117
0.00906148
0.0921291
-0.133761
-0.0703791
0.094546
-0.0541957
0.00735073
-0.0305817
-0.0246066
0.0140426
-0.0353315
-0.0315654
0.017961
-0.0279032
-0.158875
0.0121927
-0.0340961
0.0207056
-0.0773178
0.0497812
-0.0608194
-0.031476
-0.038737
-0.000233634
0.00837044
-0.0393052
0.00782602
0.0518122
-0.00149332
0.0535743
0.0103076
-0.000630289
-0.0522889
-0.0245088
-0.00851114
-0.0218149
-0.0646868
0.0152709
0.0290519
0.0689258
0.00631294
-0.0111304
0.0145368
0.0430299
0.0374946
-0.0213056
0.0721207
-0.016325
0.0297334
-0.065312
0.00438237
-0.00365652
-0.000647059
0.0466913
-0.0379917
-0.083548
0.0336312
-0.0571862
0.0140675
0.0242122
-0.0210584
0.0675866
-0.0150795
0.0122171
0.0327149
0.0290268
-0.0277562
-0.000380288
-0.0469931
0.0733492
-0.140499
-0.000102054
-0.00245396
0.0547473
0.0499912
-0.0357062
0.0591947
0.0495103
0.00924921
-0.0775879
0.0391309
-0.00578149
-0.0237624
0.00793084
-0.0207461
-0.00540957
-0.021109
-0.057073
0.0477548
-0.0140304
0.0160237
0.0842747
-0.0701165
0.00669255
0.0310144
0.0408709
0.0199912
-0.0247776
0.051451
0.0668136
-0.0473929
0.0371772
0.0255322
0.0449705
0.00983037
-0.0108469
0.0367606
-0.0267034
0.0177476
0.014303
0.0146053
0.017395
0.0300437
-0.0624078
-0.0824026
-0.000399552
0.0136696
0.00216578
0.101874
0.0339064
-0.0908923
-0.0341716
-0.0669668
-0.046144
0.00937038
-0.00137374
0.00445717
0.121808
-0.0106581
-0.0663537
0.00123167
0.0269271
0.0322474
0.038708
-0.0713505
-0.000492881
0.00374013
0.0348297
0.0273306
0.000687311
-0.0324736
-0.150414
0.0262916
-0.00830019
0.0733419
0.00320637
-0.0402419
-0.107344
-0.00798651
-0.0357753
-0.072744
0.0163824
-0.0571775
-0.0107393
-0.00341455
0.0799297
-0.00477596
0.00286832
0.0573433
-0.0338213
-0.013948
0.00882758
0.0378394
-0.0330233
-0.0153204
0.00333366
0.100953
0.0166121
-0.0219266
0.0435875
0.0599852
0.0422226
-0.0580209
-0.122644
-0.034445
0.0507801
0.0286834
-0.0395321
0.120884
0.00128171
0.0378048
-0.0195378
-0.00518349
-0.0163739
-0.0137342
-0.0519948
-0.0586959
-0.0381216
0.00284217
0.0581704
-0.019697
-0.025138
-0.0379618
-0.0798984
0.0452062
0.0814884
0.0169236
0.0282776
-0.125227
0.0897794
-0.102424
-0.0667834
-0.106286
0.0483203
-0.0269633
-0.0917074
-0.0083144
0.036157
-0.118015
-0.0290298
0.0192334
-0.00749816
0.0417196
-0.0333928
0.0162551
-0.0451388
0.0688132
-0.00410726
0.00874434
-0.0488819
-0.037883
-0.094968
-0.055027
-0.0368883
0.0060892
-0.0329708
0.135536
-0.0540749
0.0195927
-0.0261501
0.0352392
0.032967
-0.000114308
-0.0545506
0.00977994
-0.145167
0.035901
0.137908
-0.0487247
-0.0487231
0.023077
0.00607558
-0.037091
0.0614841
-0.0147176
0.0676093
0.0414608
-0.134682
-0.0297446
0.0359908
0.0336849
-0.0355108
-0.0823018
-0.030963
0.0111449
0.0774415
0.0240881
0.04242
0.0393708
-0.113362
-0.0187787
-0.0597147
-0.0618314
-0.0401139
0.0319374
-0.0522313
-0.072815
-0.151753
-0.00826774
0.0857472
-0.023182
0.02533
-0.0672833
-0.0707282
0.0328548
-0.0623345
-0.0131614
0.095251
0.0152472
-0.00452727
-0.0451856
0.00260299
0.0206555
0.0540582
-0.0734081
-0.0219438
0.00462159
0.0339437
-0.0727709
0.0267641
0.0501247
0.0370367
0.023645
0.140096
-0.0184212
-0.085838
0.0252415
-0.0761625
-0.0867263
-0.0520936
-0.0428633
0.0304918
-0.030474
-0.0920319
0.0335783
-0.0434309
-0.0137606
0.00661574
-0.103153
0.0120077
0.0370672
-0.0347099
0.100716
0.00195998
-0.0384617
0.00340563
-0.0403988
0.0130286
0.0340663
-0.0787735
0.00780267
0.0149738
-0.0973
0.0155818
-0.0217593
-0.0403176
0.0539605
-0.11675
0.108316
-0.0117218
-0.0535838
0.0484347
0.00479885
-0.016635
0.0435385
0.092116
0.0076264
0.0113642
-0.0324249
-0.067724
-0.0723345
-0.123939
0.0306279
0.0720762
0.0317972
-0.0555863
0.0915521
0.0463586
-0.083219
-0.0322874
0.0131591
-0.0158353
-0.0182555
-0.0309271
0.122021
0.0214576
0.0285643
-0.0380147
-0.00789922
0.0750009
0.00848871
-0.0296471
0.0024826
0.0430077
-0.0191579
-0.0716144
0.0213518
0.0825973
0.0934212
0.00643242
-0.01143
-0.0391502
0.104895
0.110025
-0.00929696
0.0732687
0.0104357
0.0163545
-0.167451
0.00876828
0.0155054
0.073062
-0.014239
0.00262573
-0.0536433
-0.0679385
-0.00145797
0.0433012
-0.000795773
-0.0182086
0.0519442
-0.0493763
-0.00549242
0.0325877
0.0062529
-0.0475415
0.063185
-0.0374061
-0.0609253
0.0594654
0.0121564
-0.0311307
0.00636592
-0.0375221
-0.105221
-0.0352282
-0.00799078
-0.018089
-0.0515105
-0.0235672
-0.00359193
0.012872
-0.0176177
0.0329066
0.0330923
-0.00789076
-0.00198538
-0.0692281
0.0404359
-0.0264312
-0.0593428
-0.0278407
0.00194234
-0.00701525
0.0276867
-0.0351495
-0.0289155
-0.0370678
-0.00876556
-0.0236023
0.0331143
0.00567213
0.0138524
0.0351318
-0.0341235
0.0449174
-0.033717
0.032455
-0.014964
-0.0101833
-0.0134662
-0.0745702
0.0259152
-0.0212838
-0.019717
-0.0202293
0.0141822
0.0151364
-0.0197465
0.00469922
0.000295844
-0.0924637
0.0165045
-0.0279515
-0.00209258
0.0803619
-0.0393546
-0.0383384
-0.00911459
0.0369143
-0.0646316
0.0567095
-0.073495
0.0975009
0.0282614
-0.0951144
-0.00461637
-0.00484044
-0.0523771
-0.0383746
0.00915612
-0.0488136
-0.0273902
-0.0140188
0.13284
-0.0611597
0.0536054
0.0458942
-0.0652474
-0.0339763
0.0366661
-0.104195
0.0903679
-0.0357721
0.00588083
-0.0279602
-0.0438758
0.0365711
0.0413371
-0.00415184
0.119895
-0.0806063
-0.0187008
-0.0199386
0.0251645
0.00306527
0.0736337
-0.0284124
-0.0227405
-0.0477301
-0.0739084
0.0238388
0.00254197
-0.051059
0.0845599
0.00543114
-0.015644
0.0153366
-0.00890086
0.0451666
0.0614824
-0.0142025
-0.0149739
-0.000863414
-0.0367764
0.0758592
-0.0196641
-0.00463669
-0.022727
0.0690975
-0.069717
-0.0477525
0.00832974
0.0875182
-0.0206304
-0.0265432
0.028306
0.0473973
0.0167697
-0.00753778
0.0158709
-0.0531167
0.048304
-0.0291055
-0.051921
-0.0188215
-0.0664745
0.0834577
0.0214422
-0.0853094
-0.0575258
0.0120724
-0.045639
0.00848762
0.0149361
-0.0595318
-0.000152048
-0.0722818
-0.0389195
0.0145394
0.0506373
-0.000559723
0.0287312
0.0469482
-0.107514
-0.0653029
-0.0611746
-0.0285806
0.013605
0.0253448
-0.0788763
0.0646935
-0.108707
0.022085
-0.131701
0.0176894
-0.0115084
-0.0350833
-0.00173371
-0.0818834
-0.0551321
-0.0792706
-0.0667548
-0.115895
0.0453363
-0.0301059
0.0545385
-0.0325589
-0.0496465
-0.0705882
0.00235437
0.0141771
0.0204721
-0.06459
-0.0207243
0.0184254
0.0181888
0.0134179
-0.0522273
0.036941
0.0349623
-0.0244721
-0.120661
-0.122769
-0.00125102
0.0141041
-0.039475
0.012316
-0.00766044
0.0221254
-0.122008
0.0370733
0.0484368
0.0868151
0.0546071
0.0644164
0.0187043
0.0378776
-0.0865338
0.0484537
-0.0332495
0.0145163
-0.0362446
0.0718153
0.0758464
-0.00977321
-0.0615856
0.0751978
-0.0467164
0.0140911
0.0617874
-0.0117787
-0.0385964
0.0428841
-0.000738134
-0.0314035
0.0355593
-0.0261291
0.0106508
-0.0384006
0.00749817
-0.0152579
0.00399206
-0.0555193
-0.0356767
0.0298301
-0.0658777
0.0382312
-0.0893783
0.12723
0.0483505
-0.0114967
-0.0161337
-0.0229947
0.0138735
0.162819
0.0623952
0.00930047
0.0937283
0.0369137
-0.00776594
0.0336044
-0.00274219
0.0142049
0.0966403
-0.0116026
-0.014099
0.00743559
-0.0134931
0.029052
-0.00139578
-0.0229514
0.0161795
-0.0402643
0.000610696
-0.043495
-0.0335207
-0.0377541
-0.0558907
0.0443336
0.0842809
0.00684344
0.0343642
-0.10303
-0.0377382
-0.0747965
0.0441964
0.0164026
-0.0703215
-0.0861157
-0.0447987
0.0366634
-0.0190924
0.0539736
-0.00160397
0.0297624
0.0393719
0.00925581
-0.0299636
-0.0323724
0.0188186
-0.0204506
0.00799852
-0.0636411
-0.0664403
0.00992224
0.0731498
0.127553
-0.0345959
-0.004073
0.0635143
0.0223394
-0.042784
0.0699072
0.0290042
0.000304313
0.00438558
-0.0106092
-0.0610321
0.015545
-0.0431602
-0.122537
0.0315125
-0.0614284
-0.0435074
0.0879933
0.0437183
-0.100555
-0.018217
-0.00400956
0.0516585
-0.140986
-0.0379244
0.0303007
-0.00372234
-0.0275909
-0.067549
0.0220438
0.00390902
0.0597995
-0.0391631
0.0145665
0.0384887
0.022921
-0.0561954
-0.0217298
-0.0571353
-0.0717389
0.0284527
-0.0262971
0.0277742
-0.00564715
0.000587075
-0.0746876
-0.00581126
-0.0190682
-0.00150461
0.011023
0.00288857
0.00505031
-0.0254356
-0.0198923
0.0430609
-0.0187387
-0.0070823
0.0437657
0.105923
-0.00598896
0.00614906
0.000125116
-0.0701454
-0.0655594
-0.0420632
0.0541298
-0.0165655
-0.00717505
0.00518624
0.00491524
-0.0796474
0.0153417
-0.0270218
0.0582552
0.0490206
-0.0631321
0.0380417
0.0858868
-0.0502952
0.0344874
0.0234046
0.00765554
-0.03472
0.0202855
0.0523828
0.0736396
-0.0521945
-2.87164e-05
-0.0850397
0.0341487
-0.0376334
0.056806
-0.0193781
0.082649
0.0170333
-0.00387444
0.0146475
0.0406716
0.0998697
-0.0132038
0.00936127
-0.0397728
-0.060783
-0.0348811
0.0343818
-0.0560381
-0.0795154
-0.054199
0.00754483
-0.00158745
-0.0159655
-0.0581514
0.03419
-0.00441379
-0.0120826
0.0138433
-0.106834
-0.0615884
0.112053
0.0957013
-0.0229227
0.0635501
0.0918212
0.0488343
0.0319522
-0.0294506
-0.030933
-0.0184416
-0.0426644
-0.0184417
-0.0331004
-0.000507438
0.0028681
0.0572494
-0.0653354
0.0244612
-0.14988
0.0330681
-0.00781266
-0.0764417
0.0304696
0.0207822
0.0330724
0.0623041
0.071725
0.0322092
-0.0332603
0.0210501
0.0348757
0.0168574
0.059917
-0.0299721
-0.033105
-0.0387915
0.0154924
0.0173742
-0.00295527
-0.0138569
-0.00437763
0.0148216
0.0571711
0.0403445
-0.0026803
0.0211516
0.060299
-0.0175082
0.00966553
-0.0136884
0.00459623
-0.0656375
0.10052
0.0493195
-0.0277989
0.0458348
-0.0507131
0.0174009
-0.0592295
-0.037815
0.0291164
0.0465201
-0.0281319
0.0116869
0.0216749
0.00404731
-0.0674798
-0.0198151
-0.055507
0.0762711
-0.0373666
-0.0544451
0.10422
-0.0740813
-0.0297839
-0.0976382
0.0242653
0.0381657
0.0579567
0.017264
-0.0900957
-0.0736295
0.00247383
-0.00871306
0.0153243
-0.0536259
-0.0357091
0.0135248
0.0566477
0.0267948
-0.0587852
-0.00983351
0.0307031
-0.0233936
0.0160747
0.0213107
0.0952287
0.0420273
-0.0831514
0.051341
-0.0180124
-0.0824322
0.101424
-0.0500849
-0.00944078
-0.0199163
-0.0173749
0.0676447
0.0355739
0.0215397
-0.0382673
0.103736
-0.0370196
-0.00442151
-0.0488946
0.0403204
0.0768573
0.0490405
-0.0232472
0.00683061
-0.0712739
0.0821511
0.0129046
0.072698
0.0958981
0.0259013
0.0079199
0.0269954
-0.0231676
-0.0444692
0.0688376
0.0587623
0.100522
0.0288217
0.0590761
-0.0366651
-0.00737188
-0.00280864
0.0146769
0.0342596
-0.0137342
-0.00495878
-0.0107746
-0.0699011
0.026693
-0.0884975
-0.00479348
0.0592352
-0.0272623
0.0353127
-0.0314625
0.0173738
-0.0545208
0.0180887
-0.068017
0.00393542
0.00330528
0.0238876
0.0146468
-0.01356
0.0439089
-0.0223929
-0.00397761
0.0309667
-0.0154689
-0.0962191
-0.0037429
0.0239475
-0.0461772
-0.0144777
0.0743555
-0.00454075
0.0195972
0.0511036
0.0339341
-0.0083167
0.0401141
0.0173373
0.0642652
-0.0140867
0.06343
0.00724804
-0.0122
0.0761952
0.0661872
-0.0522394
0.0593429
0.00213046
-0.0786211
0.0617385
0.00254615
-0.00696353
0.00552103
-0.0440917
-0.0823134
-0.0272864
-0.0170565
-0.00499225
0.0377076
0.0174893
-0.0182458
0.0206023
-0.0533514
0.0541893
-0.0307488
0.00269609
0.0825179
0.0131167
-0.0763919
-0.0632968
0.00436456
-0.0773278
0.0176601
-0.0204158
0.00770589
-0.10236
-0.102266
-0.0108595
-0.0204823
-0.0588027
-0.00432953
0.0265022
0.0027624
0.00877122
-0.0772971
0.0342508
0.00140748
-0.0532007
0.0223692
-0.0225769
0.0161982
0.0038041
-0.0341121
-0.0564376
0.0122683
-0.0163146
0.00151002
-0.0443198
-0.0392612
-0.00150638
0.024386
-0.0245868
-0.0185785
-0.148146
0.0449625
-0.215065
0.0241092
-0.0458589
0.0622019
0.0288308
-1.80286e-05
0.00221861
0.0589864
0.050085
0.0593326
0.0212838
-0.0561968
0.0418618
-0.11729
-0.0425547
-0.0326785
-0.0919387
-0.0328642
0.0336738
-0.0453413
0.0020924
-0.0320402
0.037137
0.0374641
0.0254001
-0.0552757
-0.0806759
0.00808148
-0.0195944
0.0334685
0.0169733
0.0276118
-0.0840248
0.0524775
0.0514627
-0.0417318
0.0746537
0.0382975
0.0246361
-0.00190218
0.0126828
0.0501088
-0.0279886
0.0235678
-0.000144454
0.0481176
0.101271
-0.0231056
-0.0247264
0.0671697
0.0631236
-0.0014084
0.0697526
0.046073
-0.0365806
-0.0102192
0.0494524
0.0199084
-0.00601804
-0.0430039
-0.00811649
0.0489891
-0.0141191
0.0630605
0.0312843
0.00545287
-0.0181759
0.0365954
-0.0327084
0.00663615
-0.0302914
-0.018617
0.00329592
-0.00736863
-0.00173714
-0.0164392
-0.0973832
-0.047713
0.0385416
-0.0333096
-0.02616
0.0116054
0.0668885
-0.0341121
-0.0410031
-0.00975073
-0.0264245
-0.00145127
-0.0174613
0.138526
0.12434
0.0283462
0.0653583
0.0176965
-0.00392645
0.0319883
0.0216013
0.0493392
-0.0904241
-0.0526449
-0.110271
0.0151284
-0.115832
-0.0199267
0.0298368
0.0375013
0.0190887
-0.0587575
0.00747088
0.0385568
0.104431
0.0418038
-0.00962499
0.00877154
-0.0396647
-0.0203778
0.00127216
0.0259781
0.0110838
-0.0505429
0.0393455
-0.0429761
-0.020084
0.00448265
-0.0792731
-0.0331006
-0.0414195
-0.0573878
-0.0232984
-0.0564199
0.00566115
0.0557188
0.130209
0.00765683
-0.0240592
-0.0716378
0.020557
-0.0307501
0.0685696
-0.106599
0.00408349
0.0218666
-0.00979975
0.0295421
0.00531564
-0.0887485
-0.0165627
-0.0630161
0.0377275
0.0698083
-0.00261659
0.0495707
-0.0322318
0.0298298
-0.0148556
-0.0212299
0.0057439
0.0215556
-0.00130798
0.102364
0.003753
0.0443189
0.0550688
0.0145341
0.0973032
-0.0135708
-0.0199126
-0.021029
0.0015205
-0.00510054
-0.10016
0.0449171
-0.0276137
0.0192123
-0.0950917
-0.0553685
0.0426655
0.0123935
-0.0126904
0.155816
0.0331774
0.0213
-0.043466
0.0301139
-0.082875
-0.000139209
0.115863
0.00045185
0.0422905
-0.0131882
-0.0123842
0.117335
-0.0108966
0.0701585
0.0718088
-0.0907277
0.0107052
0.0308191
0.0692265
-0.0535733
0.00766284
0.000401301
0.0866453
-0.058797
-0.0212308
0.0103544
0.0367594
0.100775
0.00104614
-0.002689
-0.00341886
-0.0559474
0.0461582
-0.0505953
0.00712092
-0.0244494
-0.110544
0.020917
0.0454148
-0.0329795
-0.0650186
0.0487412
-0.0276161
0.0563582
0.0171083
-0.00650946
0.0467047
-0.0451229
0.00655266
0.0144092
-0.00195321
0.0570513
0.0851416
-0.0708718
0.0266069
0.00515407
-0.0590983
0.0900008
0.0146278
0.0612104
0.0616371
-0.0283276
0.0670984
0.0233308
0.0501228
0.00555711
-0.0175463
0.0845312
-0.0533602
-0.0252014
-0.0616278
0.0233088
-0.051355
-0.0225782
0.0241543
0.0152446
0.111719
-0.00822578
0.102411
-0.0258775
-0.0624601
0.0426091
0.0312282
0.0333129
-0.0210509
-0.079688
-0.0646213
-0.0630085
0.019251
0.0199234
-0.0372313
0.00298499
0.0050974
-0.0226308
0.0699442
-0.043432
0.0125103
0.0413099
0.0253952
-0.00741731
0.0412089
0.00602776
-0.0204515
-0.0146844
0.0557082
-0.00924674
0.0123754
-0.0129373
-0.0624127
0.00485211
-0.0487818
0.012188
0.034264
0.0303827
0.0255922
-0.035222
0.0362998
0.0155614
-0.0367999
0.00359024
0.0297646
-0.00715353
-0.110693
-0.0726621
-0.00649487
-0.0740224
-0.0138544
-0.0240098
0.0200297
-0.0626614
-0.0393302
-0.032659
0.0472782
0.00769872
-0.0453175
-0.0448111
0.0585901
-0.0748961
-0.0265804
-0.089252
-0.00506528
0.019641
-0.00849955
-0.0242531
0.0768524
0.0905215
0.0579383
0.0575252
0.00354977
0.0235043
-0.0170869
-0.0282652
0.0642723
0.0174604
0.0356944
-0.0263349
0.0797416
0.00631281
0.052023
0.0112572
0.101194
-0.0254089
-0.0767765
0.052184
-0.0397793
-0.101752
0.0214515
0.0111555
0.000915429
-0.0885298
-0.0158974
0.0678884
0.0484253
0.0769088
0.0171674
0.0393052
-0.0775548
-0.0102891
0.00851084
-0.0707081
-0.0506661
-0.0190166
0.0747362
0.0347185
-0.0432846
-0.0238174
0.0260982
0.027862
-0.0141699
0.0851617
0.0249368
-0.0113369
-0.0521936
-0.0109768
0.00104485
0.0126112
0.0444748
0.070958
0.000456334
-0.0623073
0.0508166
0.108692
-0.00587055
0.0638713
-0.029756
-0.00183582
-0.0512294
-0.0122203
0.102881
-0.133405
0.0981484
0.0205487
0.0943484
0.039029
0.0227377
0.0388865
-0.020859
-0.0977417
-0.00446676
-0.00809644
-0.0192132
0.00758249
0.00940781
0.0546719
-0.0280772
0.0523463
0.030927
-0.029906
-0.133555
-0.0303084
0.00963714
0.0521495
-0.020665
0.0320471
0.00534586
-0.03998
-0.0471736
-0.056825
0.0515506
-0.0318915
0.0342131
0.0228559
0.0597803
-0.0112091
-0.0301491
0.0153713
-0.0516738
-0.119691
-0.00790041
0.0709915
0.0155106
-0.0519718
0.0405855
0.131447
-0.0867576
0.033336
0.00123496
0.12429
0.0111979
-0.0827818
0.0247678
0.0076485
-0.0335036
0.0301271
-0.0510304
-0.00824031
-0.0371865
0.0174482
0.0158529
-0.032927
-0.0318187
0.0571525
-0.0612777
-0.00401035
0.0105073
-0.0288456
-0.0439093
0.0426307
-0.0114252
-0.00427186
0.00339812
0.0235864
-0.0688866
-0.00398245
0.00406986
-0.0762576
0.0108241
-0.0348657
-0.0687499
0.0062694
-0.0399109
0.0385092
-0.0151942
0.0336188
-0.016962
-0.101703
-0.0309148
0.0355541
-0.0273215
0.00125193
0.0396362
-0.0364592
-0.00285601
-0.0212274
-0.0341248
-0.100511
-0.0138944
0.0184313
0.103701
-0.0327822
0.007125
-0.0133789
0.040036
-0.0556864
-0.0236204
0.0324957
-0.0614131
-0.0547215
0.00530138
-0.0257359
0.0345466
-0.0566696
0.03621
-0.0614932
0.0228375
0.020437
-0.00898611
-0.0385366
0.0291105
-0.000966707
-0.0203073
-0.0319138
-0.0572395
0.0875705
0.0178081
-0.0385829
0.0278453
0.0697411
-0.0210716
-0.0489667
-0.0336616
-0.025146
0.0721483
0.154097
0.101213
-0.0402124
-0.045421
0.112614
0.089782
0.00315351
-0.00171495
-0.0123166
-0.0287052
-0.0137728
-0.0678353
0.0214384
-0.0254868
0.0381351
0.00268986
-0.000508811
0.0130282
-0.0402333
0.0404893
-0.0205893
0.0297084
0.0250796
0.0165673
-0.0246615
-0.00899835
0.0255734
-0.00921988
0.0967351
0.067801
0.144269
0.0450527
-0.0245846
0.0111473
0.0239937
0.017037
0.052189
0.0513416
0.0874297
0.0662723
0.0579626
-0.0228735
0.107179
0.00635176
-0.0123228
0.0958435
0.031895
0.0145824
0.0576517
0.0141276
-0.00416305
-0.0436968
-0.00561206
0.0392259
0.0421314
0.0251765
0.102169
0.0443615
-0.0102635
0.00380189
-0.108742
-0.0383214
-0.0341826
-0.0585575
-0.0133269
0.0277377
0.00351275
-0.0100294
0.0404444
-0.0366159
-0.0224992
0.0473293
0.012545
-0.0758351
-0.0209592
0.0997209
0.0121218
0.00521472
0.0530862
-0.0284582
0.0816897
-0.0105616
-0.0121903
-0.00210975
-0.0252298
-0.0901408
-0.0243304
0.045911
0.00500907
0.0293342
-0.084825
0.0132943
-0.0111189
0.0559822
0.0617824
-0.08094
-0.0983163
0.0305276
0.000817667
-0.03608
0.0341671
0.0459442
0.0162241
-0.0309761
0.0291672
0.0384117
0.0415907
0.159213
-0.0652174
-0.0174126
0.0153457
-0.0536779
0.0229456
-0.0260219
-0.0503924
0.0958917
-0.0220136
0.023557
-0.0642036
-0.0326458
-0.0281611
-0.0575071
-0.0458331
0.0608917
-0.0158213
-0.0521796
-0.0287636
-0.0141999
0.0545264
0.0208593
0.059019
0.0553968
0.0694057
-0.0374855
0.0451461
-0.0858112
-0.0307441
-0.0122141
-0.0601
0.0662755
0.0322949
-0.0396874
-0.01145
0.0439172
-0.0451484
0.0803283
0.00554722
0.0170789
-0.0397056
0.0153912
-0.0365509
-0.0801029
0.0865568
-0.0154328
0.0580068
0.0283926
0.20647
-0.0490005
0.00971562
-0.0177043
0.00132205
-0.0462588
-0.00476445
0.0349885
-0.00570688
0.00366441
0.0450935
-0.0858671
0.0846533
-0.0231612
0.0661093
0.0306094
-0.0789251
0.00959447
0.00509706
-0.0743678
-0.00724229
0.0389961
0.0252869
0.076949
0.0250321
0.0362156
0.0649816
-0.0547409
-0.0130924
0.0798837
0.057223
-0.0151383
-0.0724096
0.0639794
-0.0356186
0.00709025
0.0103992
0.0201008
0.0833511
0.0353049
-0.144733
-0.0170519
-0.0699326
0.0201719
0.0173151
-0.0928344
0.0306834
0.00355986
-0.0407555
-0.0327184
-0.0232476
0.0555613
0.0221427
-0.0437074
-0.0334885
-0.0183209
-0.0330035
0.00915395
-0.0177864
0.0777504
-0.0235716
-0.0685032
-0.037698
0.0258459
-0.0132683
-0.0950832
0.0360459
-0.0679915
0.172153
-0.0343759
-0.061041
0.00112107
-0.0902837
0.0590803
-0.0704009
-0.0318874
-0.0104902
-0.0157795
-0.000811681
-0.0957242
0.00270109
-0.00828993
-0.0442012
-0.105572
0.0337143
0.0627659
-0.0394157
0.00589298
-0.0203585
0.0279987
0.0891899
0.0364648
0.055176
0.0731155
-0.0473945
0.0584695
-0.039188
0.0324653
-0.0119736
0.00953384
-0.00507145
-0.100834
0.0327245
0.0299003
0.0169519
0.00419569
0.0992022
-0.0245362
0.0156106
-0.0599543
0.031766
-0.027557
0.0628237
0.0504398
0.0330144
-0.0439804
-0.030148
0.085293
-0.0480923
0.00631197
-0.0330073
0.00266763
0.0324628
0.0473718
-0.00262864
-0.0377534
0.0514138
0.00702706
-0.0800769
0.0201327
0.0027168
0.00939076
0.0281488
0.010225
-0.0652248
0.0301479
-0.0247732
0.016427
-0.00848936
-0.0146585
0.019238
-0.0213207
0.0777472
0.0159336
0.0293402
-0.016041
0.0250931
0.015393
0.0166364
0.0679225
0.00854468
-0.0821902
-0.0103351
-0.0360026
0.0320995
-0.0312814
-0.0172791
0.0110345
0.021066
0.0393235
-0.0633977
0.0203172
-0.0696508
0.0230853
0.0128944
-0.0617996
-0.00717295
0.00378532
-0.0263488
0.0152954
-0.0292282
0.0427717
-0.0727847
0.0784868
-0.0382855
0.0292864
-0.0299545
-0.0171186
0.0154678
-0.0607749
-0.103001
0.0287689
-0.000485175
-0.056031
0.0687859
0.00912387
-0.0527395
0.0671054
0.0174328
0.00600583
-0.0410372
0.000939329
0.0185723
-0.087224
-0.0207455
-0.0510815
0.063549
-0.00824936
0.0424152
0.0205255
-0.00153687
-0.0853632
-0.0608951
0.00689465
0.0436699
-0.0517695
0.0459023
-0.0404487
-0.00060383
-0.022223
0.015946
0.0227137
0.00362357
-0.0549205
-0.0376907
-0.04984
-0.0294304
-0.0727108
-0.104537
-0.025316
-0.0457411
0.0108834
0.0570678
-0.000419489
0.0114481
0.0104267
-0.0174349
0.0592452
0.0548053
0.0307873
0.037039
-0.0354475
0.0370149
-0.0215475
-0.0769201
0.0279126
0.00308364
-0.0231829
0.00319174
-0.0282225
-0.0612795
-0.0286725
0.0210346
-0.0214734
0.0799213
-0.0269
-0.0235952
-0.000608468
0.0367562
0.00872919
0.0461732
-0.0377827
-0.0686294
-0.00636012
0.0113774
0.0283174
0.0811098
-0.0333753
-0.041168
-0.0682993
0.0858135
0.0262527
0.0286607
0.0332957
0.0329252
0.00651367
-0.0679174
-0.0419162
-0.0859964
0.0275709
-0.088432
-0.158805
0.0172572
0.00592913
0.0885704
-0.0596552
0.103621
0.0152725
-0.0223598
-0.00932827
0.0455468
0.0371275
0.0478645
-0.0346734
0.0370453
-0.0375336
-0.0657894
0.10539
0.0816821
-0.0283742
0.0982492
0.00763811
0.00997416
0.147378
0.0489682
-0.00489034
0.0115296
-0.096515
-0.0276686
-0.0360958
-0.0469457
0.070587
-0.118241
-0.0069515
-0.023878
-0.0371726
-0.0458427
-0.0267904
0.0190997
0.043562
0.0356672
-0.0203925
-0.0997832
-0.0507014
-0.0408432
0.0372336
-0.0148677
0.0375952
-0.0157211
-0.0233385
0.0709107
0.0252722
-0.0276243
0.0456142
0.0564557
-0.00673954
-0.120679
0.00851264
0.00612651
0.0101296
-0.0598426
-0.117161
0.00231384
-0.0108676
-0.042461
0.0324752
0.0416348
0.0367572
-0.0304037
0.0179387
0.0661387
-0.0696974
-0.0174291
-0.0364134
0.0566069
0.0467428
-0.0379597
-0.0744791
-0.0197476
0.0340451
-0.00268883
0.0476549
-0.0659168
-0.000676437
0.0293347
0.0227085
0.0181729
0.00356885
0.0379035
0.0367421
0.0223787
0.0163807
0.0186121
0.0206558
-0.0251634
0.0473033
-0.0220758
0.100192
0.00587964
-0.0103194
-0.0126486
0.0111024
-0.034872
0.0862557
-0.029173
0.0285436
0.011675
-0.017375
0.0117115
0.0106469
0.0493251
-0.0929572
0.0301126
-0.0713249
0.0712616
0.0182329
0.0430009
-0.0659758
0.0552814
0.062546
-0.038704
-0.0264782
-0.0685552
-0.00495853
0.0231132
0.0922811
0.0824177
-0.0459842
-0.0582111
-0.0922889
-0.0367924
-0.0237609
0.00258457
0.0433691
0.0197194
-0.0063798
0.0131953
0.0745777
-0.0881807
-0.0860525
0.00294279
0.0129238
0.00066639
-0.0493904
-0.050164
0.0864486
0.078982
-0.0620625
0.0355818
-0.0552097
-0.0826433
0.0991355
0.0305245
-0.0372384
0.0399629
-0.0525334
-0.0897943
-0.105953
-0.073091
-0.0382634
0.00481421
0.00620259
0.0185992
-0.00744062
-0.013637
-0.0748208
0.0151468
0.0542584
0.00579793
0.0520098
-0.0513406
-0.0266472
-0.0847103
-0.0316422
0.134605
0.0340769
0.095266
-0.00787819
0.0394257
-0.007396
0.0368953
0.00752485
-0.0394287
-0.0250961
0.0185575
0.0386218
0.0489607
0.015272
0.026205
-0.0727475
-0.102393
-0.00400737
0.0346514
0.0174556
-0.0763157
0.00752242
-0.0411744
0.167451
-0.0368151
0.0296854
-0.0776927
0.0147964
-0.0579481
0.0536419
0.0306793
0.0209299
-0.0217217
0.113429
-0.0483975
0.00131384
0.0413071
0.0203357
-0.0378076
0.0324358
-0.0290353
0.0987205
-0.0042194
-0.0266189
-0.0249275
-0.0613445
0.0794584
-0.0140494
-0.0695836
0.00567851
-0.121037
0.0216992
0.0396899
-0.00466258
0.01812
-0.0582491
-0.0741274
0.00117832
-0.0148266
-0.0255103
0.0288619
0.0908475
-0.0929479
-0.0398758
-0.00592155
0.0808752
0.00193813
-0.03432
0.00422902
-0.0837285
-0.115547
-0.0177702
-0.047384
0.0484982
-0.00521639
-0.0374393
0.0208249
-0.067278
0.0539501
-0.0824352
-0.00509233
-0.0667222
-0.0905383
0.0604616
-0.0197431
0.060461
0.0120079
0.0777016
0.0317161
0.11847
-0.07986
-0.0612887
0.0449664
0.0171465
0.00849488
-0.0992437
-0.0771993
-0.0661498
-0.0451613
0.0865809
-0.043119
-0.0166358
0.0392507
0.0379093
-0.00215889
0.0941452
-0.0466562
0.00603083
-0.055503
-0.0562438
-0.0291599
0.106134
0.0619181
-0.020936
-0.0625602
0.0451664
0.00316817
-0.0246846
-0.0846726
0.019589
0.0485972
-0.0733558
-0.00584275
0.0718609
0.0645097
0.0459885
-0.0538436
-0.00762444
0.0420928
0.110413
-0.00953592
-0.0767722
0.0563318
-0.0519167
0.0287595
0.0180222
0.0413861
0.0268322
0.0132991
0.0853488
-0.0215587
-0.0014156
0.00167
0.00691579
0.0324661
-0.00132181
-0.0199512
-0.0100207
0.0652083
0.0739844
0.0101769
-0.0243496
-0.0185021
0.0353944
0.105904
0.0401713
0.048498
0.0474587
0.0338217
-0.0369568
-0.0543311
-0.00455568
0.00725523
-0.00675959
-0.00833103
0.0315401
0.0292751
-0.017409
0.018624
-0.03993
0.0182749
0.0149813
-0.0294795
-0.0434481
-0.0126592
-0.093367
0.00921402
0.0305475
0.00186867
0.0623885
-0.0804871
-0.036524
0.023442
0.00357788
0.0747096
-0.0345521
0.0218249
-0.0694518
0.0386885
0.0904273
-0.0580906
0.0381411
-0.0397691
-0.115766
-0.0577641
0.00644785
0.0117062
0.00150646
0.0721825
-0.198813
0.0279416
0.0959235
-0.00664045
-0.0625903
-0.0605967
-0.0322281
0.00568935
-0.0604923
-0.0595255
-0.0134024
-0.00640478
0.0174771
-0.0341171
-0.0463786
-0.0271599
0.0776843
0.047791
-0.0210088
0.0137812
-0.0203988
-0.0239644
0.00629614
-0.0548723
0.0769803
5.26928e-05
0.0359155
-0.0553364
0.0320982
-0.0581066
0.0554758
-0.0128077
-0.0232764
-0.0420453
0.0309202
-0.0337781
-0.0288042
-0.00264946
-0.0629489
0.0136219
0.0334866
0.10556
-0.120909
0.00682836
-0.00532683
0.0920929
0.0397181
-0.0589119
0.0337961
0.0788243
0.0116222
0.0395377
-0.0184183
0.0237928
0.0712977
-0.0159044
-0.0753866
0.0280295
-0.0727766
-0.0134648
0.099629
0.0146527
0.106455
-0.0833642
-0.0043308
-0.0437218
-0.116688
-0.0505088
-0.00488972
-0.0390669
0.0784087
0.0393122
0.0295367
0.000347064
0.0521336
-0.0475993
0.102926
0.0371764
-0.0989854
-0.0186148
-0.0340082
-0.00691005
-0.0209493
0.0930808
-0.0418438
0.0105352
-0.0212199
0.00690918
-0.00794908
-0.035464
0.0669513
-0.0376111
0.114287
0.0288636
-0.0644211
0.0627654
-0.00655551
-0.0282587
0.0346578
-0.00352817
0.0357885
-0.108886
0.104281
-0.000544143
0.0780416
-0.0223161
-0.0810808
0.0688941
0.0695747
-0.0528998
-0.0287359
0.0256531
-0.0111234
-0.0277637
-0.0382446
-0.0225403
0.0795685
-0.013767
-0.0148266
0.026564
0.0260313
0.00144092
0.0542552
0.0113055
0.0086889
-0.0263211
0.0223337
0.0043433
0.00153988
0.0432193
0.00223603
-0.0073941
-0.0685316
0.154527
-0.0809786
0.0827085
0.0397846
0.0123999
-0.0913689
0.1113
-0.0440501
-0.0654322
0.0387303
0.0372361
-0.078251
-0.0276699
-0.0283887
0.0639737
-0.102942
-0.0838369
-0.0012715
-0.0395447
0.0729071
-0.0266731
0.0390821
-0.00953589
0.0709182
0.0380508
0.0239835
0.0923691
0.0136062
-0.0361867
0.0143519
0.0147071
-0.0467018
-0.0646165
-0.0365979
0.0613316
0.0306333
0.0446189
0.0682047
-0.0638296
0.0707704
0.0634571
-0.0873577
-0.0321848
0.0159055
-0.0980143
-0.114137
-0.0359159
-0.101574
0.0424051
-0.0180558
-0.0123919
-0.0353368
0.0291734
0.0249975
0.0448893
-0.00575457
0.0218848
0.0796291
0.0314081
0.0309071
0.0238862
0.0300201
-0.0472683
0.0314398
0.0338631
-0.0527137
0.0172895
0.0194094
-0.102607
-0.0053837
0.0350196
-0.00775406
0.00213948
-0.0239486
0.0612293
0.0343159
0.0111931
-0.0373045
0.0372684
0.0244373
-0.0522963
-0.019083
-0.0271228
0.0317387
-0.0835842
-0.07912
0.0435164
-0.0115989
0.00438346
-0.0531225
-0.0287715
-0.00740553
-0.00294015
-0.035053
0.078652
-0.0247241
-0.0414699
-0.113266
0.00462834
0.0663987
-0.0691493
0.0188919
-0.0385128
0.0933038
0.00423987
0.0187158
-0.00112391
0.00155429
0.0345958
0.00771808
0.0647872
-0.0384957
0.0108113
-0.0978177
-0.160004
-0.0421591
0.0346029
-0.0332318
-0.0242097
-0.0276127
-0.0446552
-0.0325392
-0.00234224
0.0229113
-0.0481484
-0.0121492
0.0262653
-0.0450438
-0.0343135
-0.018327
-0.0196522
0.0251186
0.0496478
-0.0375731
-0.00732517
0.157738
0.0165648
-0.0436304
-0.026157
-0.0527349
-0.0715582
0.00990799
0.0284017
0.0643332
-0.00199498
-0.0221973
0.043881
0.0398512
-0.0399476
-0.0270063
-0.0116141
-0.0457306
-0.0252165
-0.125343
-0.0552144
-0.00066775
0.0716407
0.00947817
-0.046901
-0.0330341
0.0312034
0.0159631
0.0816197
0.00108176
0.0391215
-0.0377606
0.0307795
0.0371541
-0.0202141
0.0750575
0.010495
0.0426837
-0.120391
0.025659
-0.0159512
-0.0437856
-0.0193096
0.0511988
0.0711628
0.0754206
0.0206909
-0.0163731
0.0259616
0.0148272
-0.0734023
0.0883771
0.0274116
-0.0805377
0.0698386
0.0108793
0.00192669
-0.0469102
0.0208955
0.0474392
0.018641
0.0281624
-0.0406546
-0.0502189
-0.058725
-0.0482693
-0.0029865
-0.0273909
-0.0396756
0.0169869
-0.0383129
0.0216789
0.00203395
-0.0447134
0.0105808
0.0681645
0.00707828
-0.136973
-0.0040521
0.0149674
-0.0476462
-0.0638536
0.0350363
0.0146808
-0.031414
0.0378814
0.0653635
0.0498171
0.0352563
-0.0386386
0.127594
0.0433956
-0.0413236
0.00520644
-0.0163112
-0.0407101
0.0158639
0.00260381
-0.00584353
0.000693776
-0.000136359
-0.0352565
-0.0456739
-0.0126349
-0.0679141
-0.0150988
-0.0554615
-0.0687865
0.0555851
0.0132437
0.0749714
-0.00362983
0.00555701
-0.0152734
-0.0552523
0.0171395
0.0489316
0.031768
-0.0444864
0.0939278
0.0206644
-0.0133109
-0.00721625
0.0298069
0.0275881
0.0768123
0.102043
0.0869219
-0.0219361
-0.0169086
-0.0364211
-0.0221744
0.0150269
-0.0980435
-0.0361321
0.0372798
0.0366678
0.0455655
-0.00543453
0.0567748
-0.0247542
-0.108798
-0.000922232
0.0348987
-0.0188348
0.0627962
-0.0380684
0.0762933
-0.0488233
0.0228677
0.030169
0.00785616
-0.0293662
-0.0243857
-0.038451
0.0561509
-0.040618
0.0474824
0.000946125
-0.0457319
-0.0365908
-0.00941852
0.0666239
0.0253303
0.0657817
0.0426219
-0.010027
-0.0250825
-0.00879627
-0.116463
-0.0186149
-0.0259006
-0.00237972
0.0085076
0.0275598
0.0134574
0.0517155
0.00106031
-0.123541
-0.0284778
6.0254e-05
-0.042037
-0.0169975
0.0381369
-0.0542401
0.0483944
0.0145826
0.0133436
-0.0528269
0.0428874
0.0793875
-0.0147521
0.00239638
0.0350884
0.0262987
-0.0595429
0.0638605
0.0406954
-0.0543966
-0.0116958
-0.0291008
-0.0161436
-0.0374615
0.0275766
0.128362
-0.0230599
-0.0948878
0.0178389
-0.030631
-0.0336293
0.039089
0.0765272
-0.0173943
-0.067267
0.024405
-0.048091
0.0474546
-0.00212068
0.0175951
-0.0610619
-0.00792596
0.0265573
0.0541342
0.0677927
-0.0672824
0.0316944
0.0639803
0.00358271
0.0687817
0.0332899
-0.0637075
-0.0236238
0.0283333
0.017172
-0.00504902
0.0151054
-0.147335
-0.0117922
0.0591249
0.0136325
0.0132133
0.0359506
-0.0860534
-0.0981934
-0.0060577
-0.0478311
-0.0653117
0.102459
0.050024
-0.0895388
0.0447094
-0.0262015
0.0484631
0.0206335
0.121275
-0.0500553
-0.0357096
-0.0588182
-0.0206468
-0.0118691
-0.0670482
-0.0012008
0.134247
-0.0238294
0.00513237
-0.0243825
-0.0328673
0.0296097
0.00925005
0.000676269
-0.0767322
-0.0795045
-0.00146733
0.00189644
0.0494699
-0.0443883
0.0647967
-0.0650171
0.00320384
0.105611
-0.0467678
0.0423265
0.0167628
-0.00596296
0.105469
-0.0390751
-0.031077
-0.0256775
0.00856936
-0.00470743
-0.0162317
0.0591201
0.0431504
-0.0136441
-0.0809447
0.0645733
-0.0117251
0.012185
0.0595687
-0.0601864
0.0150175
-0.0230379
-0.0169138
0.0267
0.0617718
0.0358971
0.0691024
-0.072253
-0.00280732
0.0217646
0.0343052
-0.0759677
0.0410624
0.0536538
-0.00539025
0.0144206
-0.0529556
0.0790658
0.0834134
-0.00202081
-0.0809114
-0.0184807
0.0412804
-0.0100916
0.0240753
0.040107
-0.105207
-0.00447017
-0.0181781
-0.0250946
-0.0647686
0.0748822
-0.110622
-0.0553921
0.0532104
-0.105064
0.0268438
-0.0115729
0.0238145
-0.121808
-0.0314995
0.00948271
0.0427308
0.0179758
-0.0228666
-0.00735944
-0.0101294
0.0834897
-0.0118528
-0.012873
-0.0622587
0.0736818
-0.0160674
0.0588881
-0.0609856
0.0416347
-0.0123139
0.0217807
-0.00506087
-0.0136167
-0.00588341
-0.0291527
0.020757
0.0420735
0.0886149
-0.0357904
0.0518394
-0.02717
0.0234529
-0.0316292
-0.0936624
0.0405891
-0.0033515
-0.0740513
0.0047075
0.00711916
-0.0543024
-0.0249968
-0.0602255
-0.025175
0.0031487
0.0937422
-0.0496715
-0.00589784
-0.0612613
-0.061037
0.0105148
0.00900279
0.107268
-0.0564255
0.0718949
0.000852419
-0.0185132
0.0616905
-0.0640598
7.21711e-05
0.0270625
0.0095494
-0.0392024
0.0160548
0.000907307
0.0039349
-0.0944584
0.0226105
0.00904869
-0.0164221
-0.0136961
-0.066586
-0.0638901
-0.0444376
-0.0886299
0.0703846
0.0600649
0.0634865
0.0108404
-0.020151
0.0362329
-0.11892
-0.0680864
-0.0190852
-0.0674892
0.00962978
0.00112152
-0.0351609
-0.0576066
-0.100232
-0.0246369
-0.0257807
0.0484459
0.0531154
-0.0793326
-0.0801831
0.00561183
-0.0205594
0.0194463
0.0198034
-0.0114291
-0.0441196
0.0286412
0.0313517
-0.0261076
-0.0657849
0.0359809
0.00645088
0.00892433
0.0992763
-0.0125029
-0.00977619
-0.0263965
-0.00351124
-0.0424448
0.0488646
0.105885
-0.0462266
0.0173396
0.00259751
-0.0117442
0.0628835
0.041052
-0.109143
0.0213214
0.0585614
0.0562161
0.0757887
0.00503756
0.00847123
0.0475161
-0.0162258
-0.00212092
-0.00581814
-0.0199637
-0.0928762
0.0208439
0.0454488
-0.0826349
-0.00993222
0.0232833
-0.0456399
-0.097267
0.0384148
0.0303926
-0.0510212
0.000253549
0.125263
-0.0029682
-0.0824194
-0.0197037
-0.0948546
-0.0312007
-0.0397256
0.0168342
0.0211127
0.0477173
-0.0671676
0.0239512
-0.032918
-0.036123
-0.0310869
-0.0161662
-0.0264049
0.0964146
0.0798139
-0.0521775
-0.0357996
0.104986
-0.00940517
0.0434278
-0.0254504
0.000949945
0.0757047
-0.0519192
-0.021942
0.0122613
-0.0157485
-0.0506435
-0.0645209
-0.0602436
-0.0337469
-0.000138268
0.0216257
-0.0696217
-0.00809094
-0.0382006
0.0590289
-0.071884
-0.00337979
0.0930117
0.119521
0.0184028
-0.0435864
0.056193
0.102901
0.0192731
0.0239327
0.0390537
-0.011563
0.0777651
0.0876324
-0.0521568
-0.0238768
-0.0275534
-0.0524918
-0.0186901
-0.0252248
0.0503914
0.0214743
-0.0198952
-0.0393531
-0.0311324
0.0333413
-0.0734637
-0.0421292
-0.00778765
0.0644697
0.0264605
-0.0432475
0.0238424
-0.0122882
-0.0546545
-0.0638025
-0.0579164
-0.0546835
0.0265513
0.0718133
0.00460134
-0.0091249
-0.0672109
0.0232361
0.0190956
-0.0854207
0.0239809
-0.0298335
0.0330789
0.0143242
-0.0117877
0.0424495
0.0329469
-0.0477302
-0.0542069
-0.0588327
-0.0601931
0.0434676
0.0131504
0.00477345
0.0957196
-0.0297334
0.0303914
-0.0218887
0.0661252
-0.0405188
-0.0708139
0.0519558
0.0633266
-0.0559997
0.0428081
0.0996541
0.0208429
-0.00964464
-0.0350216
-0.0252488
-0.0205253
-0.0238614
0.00646572
-0.0198884
0.0157822
-0.0194149
0.0768386
-0.0492732
0.122981
-0.0585723
-0.00428393
-0.00424981
-0.0602248
-0.0324887
0.0796301
0.00930196
0.0435487
-0.0243613
-0.0488144
0.00344542
-0.0286074
-0.0255517
-0.0311694
0.0706497
0.0251907
-0.0437165
0.0339135
0.0459216
0.0118802
0.024905
-0.0696526
-0.00967357
0.0492258
0.0621706
-0.0352122
0.0742579
0.0721146
0.0438066
-0.0492547
0.0417464
0.0163385
0.0559535
0.069085
0.121173
-0.042508
-0.0284007
-0.0809094
-0.0338324
-0.0211913
-0.00843878
0.122634
0.0653987
-0.0718968
-0.000766272
-0.0507442
-0.0157371
0.0121093
0.00425784
0.0428084
-0.0855948
0.0541589
-0.0100785
-0.0179038
-0.0135676
0.0046745
0.052573
0.019788
-0.0569079
0.0472731
-0.107274
0.0196868
-0.0387742
0.116089
0.00021712
0.022375
0.00313635
0.0123137
0.00627161
-0.0891806
0.094668
-0.0188573
-0.00125042
0.000893746
0.0785409
0.0287561
0.0292572
-0.127748
0.0243908
0.0183453
0.0563804
0.0164534
0.0358586
-0.0160817
0.120625
0.0264736
-0.00359189
0.0289715
-0.0453821
0.0518146
-0.039389
-0.0760338
-0.0163448
-0.000545441
-0.0440858
-0.00965547
-0.0601687
0.0202298
-0.0418503
-0.0532341
0.0503775
-0.0315042
-0.0669508
0.00794941
0.00517386
0.0548215
-0.0260534
-0.0257864
-0.0983047
-0.107781
-0.00789492
-0.0925207
0.102262
-0.0090193
-0.0579653
0.0693672
0.0311321
-0.0599273
0.0281869
-0.00546605
0.0217785
0.0145115
-0.0285344
0.0427584
-0.0962737
0.0700623
-0.0907531
-0.0129897
0.0313962
0.134999
-0.0636593
-0.00688998
-0.0302318
-0.0591751
0.0766208
0.102806
0.0798076
0.0918365
-0.0466143
-0.0148301
-0.0193574
-0.0483612
0.0320479
0.00871517
-0.00417363
0.0250869
0.0858952
-0.00632192
0.0332873
-0.0395898
0.0342833
-0.0461008
0.00886846
-0.0554189
-0.0689504
-0.117697
-0.0334452
-0.122965
-0.00526653
-0.0350781
0.0596963
-0.0352676
-0.0897162
-0.0791629
-0.0235676
0.0940284
0.0214247
-0.0267984
0.0523661
0.0887337
0.0135527
-0.016663
-0.028047
-0.0205664
-0.0434026
0.0068279
-0.0336954
-0.047251
-0.0416569
0.0994274
-0.0257881
-0.0962004
-0.101201
-0.0381092
-0.0513808
0.0374279
0.00621281
-0.0642998
-0.0043828
0.011899
-0.00063898
-0.008645
-0.0463554
-0.0598839
-0.00951567
0.0389096
0.0105179
-0.0298919
0.0655867
0.0693057
0.0663008
0.116997
-0.0862817
0.0566561
-0.0270042
-0.0588196
0.0366682
-0.0975251
-0.0181934
-0.0855167
0.0278745
0.0360298
-0.0187398
0.0372981
0.0801582
-0.0170401
0.128374
0.0135052
0.00821792
0.0791241
-0.0466714
-0.012548
0.0312969
0.0372313
-0.0437183
-0.00453365
-0.0869449
0.00531436
-0.0336171
0.0389626
-0.033671
-0.027406
-0.0208703
0.0228887
0.0491574
0.0077108
-0.02517
0.019991
0.0551129
-0.0217357
0.0612438
-0.0648772
-0.00824737
-0.00488495
0.0273221
-0.0858828
0.0249055
0.0296991
0.0974539
-0.0369978
0.097151
-0.0240661
-0.0181234
-0.0107136
0.0398989
0.0028215
-0.0900225
-0.0265686
0.028428
-0.0181263
0.012118
-0.110173
0.0235687
0.0213567
0.0534371
-0.0162299
-0.00795081
-0.00604821
-0.0264542
0.00904857
0.0381831
0.084763
-0.0289052
0.0398871
-0.0553839
-0.0417688
-0.000478485
-0.0947945
0.000747207
0.00536789
-0.0271383
-0.050631
-0.0738807
-0.0322378
0.0142613
0.037956
0.0510811
-0.0208646
-0.0498229
0.0355378
-0.0193639
-0.0538132
-0.0946579
0.055134
0.0792811
0.0588163
0.0406953
0.0627361
-0.0197191
-0.0211807
-0.018929
0.0337329
-0.078607
0.01587
-0.0233377
0.00830542
-0.0193479
0.0653287
-0.0166764
0.0191772
-0.0448376
-0.0222176
-0.0516756
0.0765822
0.0808663
0.0147647
-0.00392759
-0.00123285
0.0347753
-0.0350665
-0.0522104
-0.0625439
0.00970019
0.0158861
-0.00464136
0.152332
0.0525373
0.0393974
-0.0372602
0.0336043
-0.0477714
0.0898894
-0.0430374
-0.0317943
-0.0316023
0.0690612
-0.0328041
-0.0237246
0.0492031
-0.0159964
-0.0255597
0.014569
0.0497981
-0.0528278
0.0249159
0.051309
-0.0823141
0.0895839
0.00657458
-0.0609928
-0.0733597
0.0273761
-0.00636924
-0.00900167
-0.00738068
-0.108069
-0.0117067
-0.0333586
-0.040102
0.00704169
0.0665507
-0.039705
-0.0625033
-0.0456674
0.0586244
0.0740964
-0.00380483
-0.0124643
0.0107094
-0.0385996
-0.0238103
0.00418891
-0.0639655
0.083307
0.0405399
-0.0686417
-0.0149685
0.0338094
-0.0291053
-0.00438309
-0.0267039
0.0327065
-0.0685738
-0.05202
-0.0199184
-0.0679533
0.135393
-0.0971278
0.0032027
-0.0490686
0.0760292
0.00954825
0.0511272
0.0128898
-0.0319474
-0.0248979
0.0738458
-0.0316098
0.0501479
0.0787083
0.0452677
-0.0463494
-0.0543395
-0.0351928
-0.0171349
-0.0197786
-0.0184172
-0.024561
-0.0409832
-0.0107856
0.115321
-0.026725
0.135804
-0.133738
0.0738795
-0.0525973
-0.0154995
-0.0228257
-0.121987
-0.0237737
-0.0112387
0.0861617
-0.0405571
0.0413279
0.0796969
0.0532818
0.10318
0.0516791
-0.0058883
0.035656
0.013686
0.0411529
-0.00283634
0.0855612
0.0319557
-0.0327594
0.0179235
0.0303771
-0.0221715
-0.0875925
-0.0627537
-0.0454862
0.0445476
-0.0484098
-0.0236306
0.0235208
0.0519294
-0.11792
-0.015215
0.0401168
0.0746705
0.0326691
-0.0248594
-0.0389546
-0.0335555
0.0144531
-0.0169525
-0.0381379
-0.015075
0.00341847
-0.0450202
0.0370077
-0.0575479
0.0270583
0.0370285
0.00750512
0.0160389
0.0900451
-0.0456748
0.071852
0.0315087
-0.0484997
0.00222597
-0.0124011
0.119289
-0.0237992
0.0552087
0.0257668
-0.0691918
0.028705
-0.00122711
-0.0817621
-0.0219412
-0.0161693
-0.00136842
-0.0364021
-0.0106821
-0.117418
0.0344773
-0.0390796
0.00780208
-0.0864455
0.0975916
-0.061639
0.00601543
0.0494569
0.0031238
-0.0528104
0.0921348
0.00383944
0.0136546
-0.0457625
0.018203
0.0955539
0.0553088
-0.062499
-0.0573852
-0.0140927
-0.0429327
0.0150706
-0.0295668
-0.00437439
0.00508231
-0.0309855
-0.0282349
-0.0589766
0.023377
0.0147634
-0.0678913
0.00309242
0.0191837
-0.082749
-0.0109279
-0.0344665
-0.0281548
-0.0316089
0.0144474
0.0462334
-0.0382333
-0.0635912
-0.128964
-0.0328557
-0.040575
0.0788687
0.0760321
-0.0185659
0.0777709
0.0196157
-0.0330948
-0.0219395
0.0376653
0.0122429
-0.00504516
0.0065294
-0.000304466
0.0604343
-0.0784176
0.091678
-0.00227607
0.104826
0.106334
0.0440977
-0.000928446
-0.0980749
-0.0215252
0.0151963
0.0204837
0.00739549
-0.100061
0.0515008
0.0242222
-0.0274566
0.0837259
0.00903373
-0.0306162
-0.0700967
-0.0405416
0.0277971
-0.0285403
-0.00938911
-0.071997
-0.00137831
0.0641128
-0.00508521
0.0411451
0.0899504
0.0301533
0.0416857
0.0506142
-0.0189349
-0.0248073
-0.0399288
0.0243675
0.0520136
0.0191987
0.0328988
-0.0883924
-0.0372374
0.0387581
-0.01489
0.052085
0.0747206
0.0281636
0.0683801
-0.0747704
0.0973547
0.0100396
0.0497388
0.12919
0.0135025
-0.0278678
0.040179
-0.00572588
-0.0628315
0.0573227
-0.0271681
0.00946198
0.00608267
-0.0712329
-0.00792739
0.00922684
0.0666173
0.0461311
-0.0178473
0.000458608
0.0151658
0.0517869
0.0130874
-0.0138168
0.0283409
-0.0669318
-0.0177371
0.04023
0.0714311
-0.0208162
-0.0674556
-0.0600976
0.0545418
-0.0675104
-0.0124497
0.0764215
-0.10219
0.0762887
-0.0183352
-0.0379991
-0.0474596
0.0260408
-0.0208537
0.00663076
-0.0489953
-0.0430088
0.0791241
0.0400574
-0.0842501
-0.0151914
-0.0411133
0.00116738
0.0258374
-0.0433835
0.0302681
-0.0117571
-0.031693
-0.0447879
-0.0222649
-0.0137764
0.018538
0.0465062
-0.00691782
0.0165197
0.016834
-0.028357
-0.0441307
-0.0990284
0.0220493
-0.0109089
-0.00241179
0.0166406
0.0673376
-0.0264179
0.0348959
0.0307967
-0.0125024
-0.0319497
-0.0158404
-0.00227474
-0.0631834
0.0920863
-0.0164935
-0.0222894
-0.10916
0.0470458
-0.0107887
-0.101131
-0.0406317
0.07527
-0.013697
0.0846276
-0.0661206
-0.0353638
-0.0379603
0.0262836
-0.00572609
0.0804201
0.0251081
-0.0163213
0.00366962
-0.0512494
-0.0605424
0.0282911
-0.117929
-0.0762034
-0.0417651
-0.0182528
0.00117028
-0.0886852
-0.0218841
-0.013131
0.0437567
-0.000199497
-0.0219057
0.00361652
-0.0874984
-0.0178966
0.0171972
0.0279006
0.0496615
0.0520147
0.0468895
0.0187485
-0.00950729
0.019042
-0.111301
-0.00465307
0.00410811
-0.00775322
0.0416681
0.0199611
-0.0716905
-0.0200191
-0.0312309
0.0546801
-0.0348917
-0.000236592
-0.0462
-0.0110741
-0.0213896
-0.0521366
0.0852
0.0466034
0.0559765
0.0616206
0.118531
-0.0366083
0.0177645
0.0402088
0.0553719
0.0904371
0.0274287
0.0102361
-0.0293231
0.0251033
-0.0374905
-0.0563828
-0.0491686
-0.0618966
-0.014648
0.0310959
0.0176769
0.0538685
0.0690489
0.092607
-0.0242159
-0.0116517
-0.0658945
0.0135908
-0.000434117
-0.0846331
-0.0230959
-0.118226
-0.0622319
0.00481839
-0.105576
0.00124177
0.00993881
0.022459
0.0875481
0.00349696
0.0381491
-0.00503544
0.0128543
-0.0264387
0.0459486
-0.0082871
0.0319678
0.0651585
0.0665827
-0.0785383
-0.0016231
0.0588824
0.0273487
-0.0450513
0.0611032
-0.0256882
0.000948047
-0.0386197
0.042889
0.0275124
0.0350778
0.0438409
-0.00979336
0.00929441
-0.0412751
0.0140227
0.0376671
0.0128308
-0.0887926
-0.0203652
0.00744272
-0.0168681
0.0244807
0.0227604
-0.015747
-0.100146
0.0228234
-0.0333725
-0.00476096
0.00570142
-0.0415711
0.0660392
-0.0068952
-0.0840899
0.0699381
0.00386875
0.0211392
-0.0626372
0.00884403
-0.0431739
-0.0105273
-0.0254994
-0.0551829
0.0290362
-0.0869281
-0.0693119
-0.0281824
0.0554869
-0.0622488
-0.0434016
-0.029794
-0.0641649
-0.0140709
-0.00403594
-0.0165157
0.00255458
0.0762531
-0.0650741
0.00977268
-0.0544087
-0.0117186
-0.0257121
0.0210586
-0.0253083
0.0161472
-0.0859482
-0.0287485
-0.0603073
0.0729784
0.000506498
0.0536237
-0.0560436
-0.029593
0.0630837
-0.00569393
-0.0474722
-0.0522308
0.00218968
-0.0278585
-0.0512485
-0.0269942
-0.00997641
0.0789629
-0.0437352
-0.116616
-0.031498
0.0514275
-0.0712996
-0.0526687
-0.0029827
0.0838164
-0.0390348
-0.0603403
0.0623271
0.00525614
-0.0406966
-0.0438039
-0.0100777
-0.0380092
-0.041194
0.0156621
-0.0244151
0.112244
-0.022788
-0.0516559
-0.0192956
-0.0554948
0.0853701
-0.0123715
0.0430937
-0.0629018
0.0350379
0.0102631
-0.00908283
0.0258777
0.0323005
-0.0266949
0.0371244
-0.0489854
0.0506721
0.00531017
-0.0357898
0.048378
-0.0506144
-0.0439272
0.06504
-0.081339
0.0265415
-0.0157557
-0.0409891
0.11186
0.0335913
-0.0535173
0.0229005
-0.000324227
0.0836316
0.065419
0.0601594
0.134201
-0.0362374
0.0542791
-0.0211371
-0.0221817
0.027191
0.0133846
-0.0113284
-0.087113
-0.00855387
-0.0141202
0.0291296
0.0357571
0.00839493
-0.0601654
0.0784267
0.0693771
0.00720564
0.00196356
-0.0486117
-0.00692498
0.0199542
-0.0581967
-0.00953823
-0.0104338
0.0625666
0.011361
0.00817628
0.0100979
-0.00209035
-0.000535533
-0.0437686
0.093413
0.0728736
-0.0679811
0.0180775
-0.0251843
-0.00224081
0.0173212
0.0861931
-0.0634684
-0.0315554
-0.0186822
0.0817627
0.00330264
-0.0764377
-0.0317193
-0.0130826
0.0409777
0.0357908
-0.048336
-0.033701
0.00509554
0.0137987
0.0304546
0.0392484
-0.0772314
0.0578185
0.00772518
-0.0122385
0.0231179
-0.0948863
0.0216104
-0.0819337
0.0920975
-0.000394688
-0.0451865
-0.0571075
0.0834119
0.0467614
0.0120494
-0.00101114
-0.0634335
-0.0821779
0.0344377
0.0341193
-0.0331567
-0.0150277
0.0352014
-0.0228056
-0.0368972
0.0323337
-0.0295468
0.0549687
-0.00139796
-0.0281125
0.000153394
0.0330412
0.0894375
-0.0367663
-0.0274715
-0.0301596
0.00403053
-0.0128757
0.0738719
0.0069939
0.00297094
0.0626656
-0.0326483
-0.0621497
0.0749791
0.0201305
-0.00603187
0.0159273
-0.0359072
0.0766655
0.0632835
0.0109127
-0.0695966
0.0154807
-0.0434719
0.0642589
0.0252336
-0.110888
0.018016
0.00551069
0.0750212
0.0211391
0.0312651
-0.0152729
0.000218184
-0.0654855
0.0867349
0.0045712
-0.0306833
0.00908905
-0.152659
0.0828405
0.0520149
0.0287165
-0.0833546
-0.0989875
0.0646479
0.0617842
-0.0167289
-0.00311172
0.031695
0.00193516
-0.0143527
-0.00264241
-0.0192987
0.0181994
0.0249204
-0.0296099
-0.0295673
-0.0164059
-0.00738715
0.0147298
0.00621547
-0.0372761
-0.0256335
-0.000567891
-0.0102812
-0.14761
0.0852081
0.0556196
0.0547198
-0.0401533
0.0699325
0.0303805
-0.0298825
0.0588803
0.0565546
0.0216006
-0.0313649
0.0619972
-0.00549762
-0.0800013
-0.0275259
-0.0988239
0.0292804
-0.0113911
-0.0709278
-0.0866575
-0.00372824
-0.0554351
0.101436
0.0565533
-0.0913455
-0.0301227
-0.00598217
0.0506427
0.0117989
0.0281488
-0.106032
-0.0693759
-0.0161022
0.0957158
0.0569033
-0.0238202
0.00144782
0.0679065
0.00502977
-0.00132978
0.0212926
-0.0241446
-0.0054333
0.0260048
-0.0324838
-0.0352072
0.0351333
-0.0085869
0.0456913
0.00571879
0.0810105
0.0486472
-0.0011693
-0.094464
0.0576436
0.0800616
-0.0157005
0.0647109
-0.0904762
-0.0367276
-0.0290846
0.0546991
0.0124215
-0.021438
-0.0703823
-0.0632059
0.0286005
0.0126592
-0.0162168
0.0461007
-0.0244986
-0.0121867
0.00646112
0.0736793
0.056607
-0.042808
0.0543925
-0.026864
-0.0890013
-0.0151923
-0.0346017
-0.0861223
-0.0247657
-0.00701528
-0.0567598
0.0289403
0.012707
0.0541091
0.0132673
-0.103728
-0.0034922
0.112914
-0.00745223
-0.0203614
-0.0674483
-0.098758
0.0211075
0.0709238
0.0256285
-0.0108928
-0.0513356
-0.0658019
0.0818897
0.0571688
-0.0337323
-0.0486657
-0.0777839
0.0339965
0.033395
-0.0474593
-0.00428407
-0.0725688
0.0142996
0.0110361
0.0257656
-0.12111
-0.0844602
-0.00819074
-0.0602612
0.0614203
0.00830859
-0.00651205
-0.0557814
-0.0715367
0.00773191
0.0337382
0.0160304
-0.0473174
-0.00286278
-0.0906182
0.00704344
-0.00586926
0.0266789
0.149797
-0.0616248
0.0267985
-0.000852384
-0.0440519
-0.0520183
-0.0138944
-0.0543589
0.0199342
-0.0475105
0.0710661
-0.089775
-0.00983488
-0.023056
-0.0565469
-0.0832441
-0.0651755
-0.0310657
0.0426665
0.0538493
-0.0259371
0.028189
0.00286492
0.0758816
0.0843012
-0.0620947
-0.0154336
-0.0504448
0.0376544
0.00993293
0.0617087
-0.0539285
0.0731218
0.107524
-0.0392637
0.0200382
0.0435196
-0.00465561
0.0911211
-0.0303558
0.0080743
0.01176
0.0340184
0.0518307
0.0181159
0.0143766
0.0199366
0.0361339
0.0485973
-0.0417203
0.036732
0.0402123
0.0212571
-0.0260974
-0.00297705
0.00164125
-0.0418172
0.00820615
0.0108675
-0.0700089
-0.0212914
-0.0379316
-0.0262741
-0.0219203
-0.0962509
-0.0824407
0.0374465
0.044618
-0.0138577
-0.0457231
0.0124805
-0.0398308
0.0576233
0.0321793
0.0300863
-0.0472142
0.0157918
0.00403388
-0.0143285
-0.018236
-0.0341554
-0.144045
0.0359177
-0.0705079
-0.0316094
-0.0165287
-0.0770165
0.0356839
-0.0295993
-0.0132193
-0.043292
0.0218659
-0.00792242
-0.0243676
0.1109
0.0322164
0.04729
0.0447502
-0.0852942
0.0523461
-0.0926354
-0.0129335
0.027093
0.0199165
0.0603309
0.0848605
0.0470204
-0.0113158
-0.024271
0.00111826
0.0142926
-0.0409595
0.00966131
0.0508383
0.05063
-0.0803269
0.00676176
0.0449503
0.00701876
0.0329535
0.0313542
-0.101059
0.131323
0.00218106
-0.0232233
-0.0578735
0.0571012
-0.0141129
-0.0229528
0.00305066
-0.0549749
-0.0300639
-0.0157802
0.0381355
0.0599935
0.0178229
0.0995741
0.0431204
0.032944
0.00508641
-0.0257024
-0.0373942
0.0295561
-0.0319946
0.0451616
0.0333098
0.00710831
0.0245903
0.0361833
-0.0429529
-0.134189
0.0327553
0.00203151
-0.0639265
0.00107907
0.0293293
-0.0221369
0.0448555
0.0124045
-0.0487679
0.011325
-0.0529255
0.0663963
0.0678854
0.0214832
0.0545933
0.0509672
0.111318
-0.0386443
-0.0389268
0.0458399
-0.0276497
-0.0422573
-0.058336
0.0656154
-0.00761855
-0.0826756
-0.0286136
0.0597996
-0.0414536
0.013745
-0.0709127
-0.0182324
-0.0636923
0.0344438
-0.0885446
-0.0117199
-0.0320606
-0.0017105
-0.106189
0.0725245
-0.0249832
-0.0441679
0.0656552
-0.0273957
-0.0554047
-0.0470151
-0.11598
-0.0204584
-0.0265863
0.00415691
-0.0916533
0.024945
0.132497
0.0843833
-0.0486042
-0.143436
-0.0093198
0.081899
0.0314497
-0.0387996
-0.0460797
-0.13341
0.0216805
0.18027
-0.0455678
0.0346399
0.0185904
0.0390593
0.0843542
-0.0449598
0.0696566
-0.0385136
-0.0294225
-0.0184155
0.0530314
-0.0773729
0.00744352
-0.100631
0.0738563
0.036286
-0.0344017
-0.0461836
-0.0313624
0.00963615
-0.0824591
-0.0482599
-0.029788
0.019628
-0.00504701
0.0299493
0.0502005
0.0401224
0.0387631
-0.0256432
0.0174195
-0.0963072
0.0228738
0.0133039
-0.0911524
-0.149204
-0.000965568
-0.109514
0.10076
0.0391845
-0.0130165
0.0480273
0.0878322
-0.0118281
-0.0270402
-0.0188108
0.0304791
0.0451857
0.0100078
0.0537478
0.0370057
-0.0193213
-0.0329292
-0.029686
0.0371689
-0.0126419
0.0995453
-0.0184575
-0.143588
0.00638874
-0.0072893
0.0527272
-0.0650606
-0.00280786
0.0271576
-0.0487462
0.0613032
-0.0571182
-0.0861943
-0.074764
0.0488209
-0.0873058
0.00384715
0.0130883
-0.0870436
0.0149982
-0.0343897
0.0507019
0.119793
0.0491558
0.00344208
0.0544957
0.00427766
0.0295477
0.0735684
-0.00355619
0.0806137
-0.0294279
0.0447549
0.0292237
-0.0572583
0.00719372
0.0218339
0.113266
-0.0199001
0.023115
-0.024642
-0.00973109
-0.0610105
-0.0366646
-0.0431817
0.0137118
-0.0730151
0.112253
-0.0527575
0.0328009
-0.0993356
0.065053
0.000510871
-0.0293092
-0.0185091
-0.0758075
-0.000893288
0.0673539
0.018858
-0.0461051
0.033582
-0.0261297
-0.0702915
0.0129048
-0.00531508
0.0342439
0.106753
-0.016659
-0.0282978
0.10679
-0.0457586
-0.0240863
0.00969516
-0.0607084
0.0382486
0.0946825
-0.0228931
0.0154434
-0.0243808
0.00728678
0.00262532
0.0248871
0.00624358
0.0459017
-0.0200074
0.0401881
-0.0110986
-0.0423169
-0.0466765
0.0121143
-0.0231684
-0.0726596
0.0317729
-0.0210503
-0.0116121
-0.0514197
-0.0509378
-0.00522245
0.0716072
-0.0425635
-0.0276145
0.0393698
-0.0742365
-0.0301016
0.00807293
0.0184209
0.0400757
0.0485406
0.0328275
0.00577531
0.0204039
-0.0712813
-0.0358708
-0.0225166
0.0353531
-0.068981
0.0234622
-0.066007
0.0650928
-0.064085
0.0386515
0.0276906
0.0841466
-0.0412523
-0.00692961
0.0785289
-0.0714841
0.0258885
0.0867049
0.0390753
0.0494877
-0.0532689
0.0297198
0.0232135
0.0305041
-0.0430985
0.0395712
-0.0319375
0.0813205
-0.011054
0.0651425
-0.0275572
0.0193976
-0.0409443
0.0223432
0.0578078
0.0288484
-0.0640956
0.000420963
-0.0542282
0.0545195
-0.078278
-0.076128
-0.0408671
-0.0498217
0.0341999
0.0321743
0.0322209
0.0100646
0.0223944
0.000853844
0.0310477
0.0520739
0.0657123
0.0287209
-0.0161958
-0.00948099
-0.0118293
0.035624
0.0040523
-0.0731898
0.03834
-0.030916
-0.0881075
0.0299177
-0.0353681
-0.0120872
4.45275e-05
0.0639046
0.0461426
-0.010398
-0.00805589
-0.0488213
-0.00532965
-0.00520664
0.0172372
0.0826158
0.0357075
0.0251433
0.0445528
0.0473532
-0.00721599
0.0499494
-0.0037999
0.0559657
0.0432606
0.0252324
0.00900799
-0.0338278
0.0256799
0.0727554
-0.016191
-0.0754567
-0.0486959
0.0575189
0.0614812
0.0744134
-0.0145051
0.0632969
0.109025
-0.0110511
0.00239334
-0.0394003
-0.0340149
0.0281543
-0.0608346
-0.0186877
0.0628693
-0.0548597
-0.0788203
-0.0318107
0.0250494
-0.0523862
-0.0923933
0.0400801
0.0205654
-0.0386408
-0.0579516
0.0812595
-0.0362591
0.0231537
-0.003451
0.0537496
-0.0436176
0.0214571
-0.0244219
-0.0594146
0.0535966
-0.0284399
0.0699457
0.0328362
-0.0793913
-0.00811936
-0.0271353
-0.0523027
-0.000788806
0.061282
0.00600871
-0.118641
0.0496521
0.0529302
0.0425928
0.0190114
-0.02862
0.0612364
0.0572968
-0.00289212
-0.0545746
-0.00314411
-0.0439069
0.0420469
0.046177
-0.156099
0.0198388
0.0647701
-0.0230361
-0.0326592
0.0235729
0.0819921
-0.0912009
-0.0642124
0.0211333
0.0702311
-0.00220827
-0.0225171
0.0535474
0.0252687
0.0160337
0.0457202
-0.001259
-0.0131751
-0.0769028
-0.105516
0.0454905
-0.0371312
0.0382444
0.0491088
-0.065907
-0.0169232
-0.039127
0.0302855
0.019816
-0.0139027
0.0144785
0.00845655
0.0352459
0.0553129
-0.0701322
-0.0508481
0.00211974
-0.00504936
0.0987821
0.00992154
0.0197384
0.0178226
-0.0422457
0.0953088
-0.0547059
-0.0386061
-0.0652657
0.0512413
0.0194615
-0.0126012
-0.05016
0.0716156
-0.00596641
0.0665589
0.0738696
-0.0293743
0.0182387
0.0246639
0.0311829
0.0849061
0.0697285
-0.00385283
0.0394767
0.00919506
0.0461728
0.0560388
0.0276068
-0.116511
-0.101964
-0.0574207
-0.0167073
0.0375665
0.0105728
-0.0613457
-0.0454465
0.0603404
0.061282
0.0284357
-0.0208748
-0.0434679
0.0116682
0.0344337
-0.0999477
0.0204716
0.0965408
-0.0488051
0.00249387
-0.0184435
0.0504
0.00773379
-0.0494801
0.0883132
0.0433365
-0.0236099
-0.0537327
0.127665
-0.0320487
0.0514388
0.0332152
0.0120842
-0.0135998
-0.0128821
-0.0640272
0.0707839
-0.0575264
0.0771094
-0.131943
-0.0783854
0.073101
0.0602778
0.0328865
-0.0152399
0.0360008
0.0608344
0.00275513
0.0252596
0.0151229
-0.0182358
0.0485571
0.0267545
-0.0757307
-0.0130818
0.0136989
-0.00598358
0.00917934
-0.0915344
0.0835554
0.0192874
0.0750522
0.0339537
0.0578871
0.00375322
-0.0125135
0.0538687
0.0420505
-0.0277044
-0.00639269
-0.0119436
0.00430657
-0.0158806
0.0065963
0.0801565
0.0160698
0.0119031
0.00644693
-0.109079
0.0224875
-0.0235168
-0.0749937
-0.0169577
-0.0354799
-0.0347698
-0.107935
0.00314137
-0.0730791
0.0254713
-0.0181685
0.0670657
0.00729661
0.0662003
0.0104966
-0.0258334
-0.0137524
0.123713
-0.161482
0.0180779
0.0236656
0.0222614
-0.0306999
0.0466538
0.0925415
-0.0595482
-0.0331759
-0.0282841
-0.0407464
-0.0197601
-0.0379434
-0.0671295
-0.0255123
0.00813693
0.0351199
-0.0566075
0.0356192
0.038211
0.0307081
0.0196288
0.0638436
0.0740291
0.0056281
-0.0107235
-0.0684603
0.019672
0.0464779
0.00207875
-0.00452458
-0.00928131
0.0642792
-0.0247703
-0.0295409
0.0659753
0.0329879
-0.0321451
0.0611301
0.0588281
0.0257242
0.023752
0.0402251
-0.0891235
0.0284511
0.0168731
0.0279545
-0.0661045
0.102008
0.0118985
0.0807044
-0.0909055
0.0743876
-0.109678
-0.145734
0.0472039
-0.0249516
0.108895
-0.0108848
0.0355534
-0.0132648
0.00493167
0.0566435
-0.0472988
-0.0619949
-0.00221986
0.0527043
-0.0238131
0.0314064
0.0372263
-0.0526974
0.0428926
0.0200649
0.129484
-0.107088
0.0214856
0.0111512
-0.0158089
0.0780575
-0.00337085
-0.0435956
-0.0389449
-0.0416697
-0.045963
-0.0464466
0.00664148
0.0087985
0.00584027
0.00345709
-0.0109404
-0.0759851
0.0144824
-0.0205953
0.0692441
-0.00824975
-0.079395
0.00549042
-0.0931285
-0.0738155
-0.0328532
0.0370286
-0.0253482
0.0336353
-0.0180895
0.00271014
0.0879202
0.0289751
-0.0944258
-0.0603792
-0.0121287
0.00499621
0.00260238
-0.0487247
0.000335423
0.0303429
-0.0748829
-0.00613861
0.0217046
0.0170328
-0.020261
-0.049384
0.0132853
-0.0598023
0.0348698
0.000585551
0.0408438
0.110897
-0.0373599
0.059242
0.0397519
-0.0158094
0.0351365
0.107368
-0.0300265
0.0832125
-0.0125615
-0.00595093
0.0109476
-0.0263879
0.0275187
-0.0202776
0.0264663
-0.0774284
-0.0460168
0.034979
-0.00729484
-0.0660112
-0.0884461
0.0510599
-0.0108102
0.0254747
0.0225251
-0.00584335
0.113323
0.00141092
-0.000745598
0.0122769
-0.0432579
0.0677412
-0.114924
0.00657006
-0.0180129
0.0701868
0.0124492
0.00774354
0.0324468
0.105295
-0.105494
0.0804942
0.0482305
-0.0312396
0.0301065
-0.0784345
-0.0693969
-0.0482088
-0.114904
0.0790128
-0.0259399
0.00532357
0.0694588
0.0329815
0.0226281
0.0171441
0.0546832
0.00631323
0.0194216
0.0721941
-0.0316031
0.0373084
0.100049
0.0268029
0.0166588
-0.0988584
0.0582918
-0.00707713
0.109827
0.0395092
-0.0213609
0.0148053
0.00866995
0.00556401
-0.0217402
-0.00136921
-0.0217957
0.0626603
0.0524069
0.0589109
-0.00432702
0.0222094
0.00757169
-0.0203337
-0.0294057
-0.050036
0.0142004
0.0322706
0.0332142
-0.0214665
0.0823713
0.0229779
-0.045504
0.142762
0.027362
0.0178428
-0.0246708
0.0338012
-0.0281371
0.0230773
-0.00589478
0.0190704
-0.015298
0.101308
0.0679706
-0.0584876
-0.0231068
-0.00273389
-0.0354402
0.0420461
-0.0200701
0.0340292
0.0430287
-0.188814
-0.0321757
0.0424106
-0.00229109
0.0797793
-0.0268911
-0.0283058
-0.0545367
0.115844
-0.0356161
-0.0649552
-0.0973647
-0.000355416
0.0125704
0.0204205
0.0182133
0.0638533
0.0712591
0.0231338
-0.0143639
-0.0306704
0.0522174
0.054761
0.0192043
0.00488897
-0.030033
0.00223962
-0.00438187
0.0545862
-0.0498063
-0.0224676
-0.0346123
-0.0560819
-0.0562746
0.0358047
0.0216217
-0.0398779
0.0201416
-0.00714626
-0.037411
0.0414986
0.0357555
-0.0194498
0.0425862
0.0462271
-0.055223
0.0435872
0.0286795
-0.0116255
0.0112635
-0.0770586
0.101388
0.0175903
-0.00100323
0.0678483
-0.0161004
-0.00129644
-0.0322881
-0.00629273
-0.0405112
0.0166347
0.0769136
0.103571
-0.0251535
-0.0851332
-0.0375642
0.0131531
0.039477
-0.0214504
0.0235592
-0.01409
-0.0212386
-0.00310935
0.0999514
-0.00645015
-0.0462426
-0.0130974
0.0782841
0.0359224
0.00350184
-0.0271112
-0.0764521
0.0460894
0.0441273
-0.0693891
0.0647179
-0.00537894
0.00657891
-0.0120792
0.0983788
-0.0534353
0.0158614
-0.0526788
0.00457218
0.0210504
-0.0456118
0.0323659
-0.015172
-0.0307342
0.0551006
0.016078
0.00871199
-0.0560818
0.0465986
-0.0247483
0.075011
-0.0892661
-0.068429
-0.0794502
0.0849248
-0.0147505
-0.0454802
-0.00867005
0.060634
-0.037466
-0.0920883
0.0560576
-0.0214444
0.0343041
-0.00301253
0.0325028
0.0658611
-0.0126527
-0.0652178
-0.0681916
0.00841527
0.0397113
0.0233127
-0.105828
-0.000487857
0.0810459
-0.0666507
0.0903268
-0.0756774
0.0874932
0.0285639
0.00320482
-0.012607
-0.00296284
-0.00189016
-0.023103
0.0844475
-0.0827729
-0.0090202
0.0163961
0.112111
-0.0962348
0.0117702
0.0384807
-0.0214739
-0.018264
0.018341
-0.0289138
0.0255625
0.0349574
-0.0885284
0.0540677
-0.0161819
-0.0161266
-0.141627
0.0398351
-0.0323899
0.0489918
0.0228536
-0.00869491
0.0255076
0.0448348
0.0323181
0.00984201
-0.0173317
0.0304373
-0.0229681
0.0327237
-0.0112631
0.0588918
0.0811667
-0.09853
-0.0332275
-0.0258043
-0.0400443
0.0753916
-0.0521803
0.0739758
0.0215577
-0.014758
-0.0179608
-0.0128522
-0.00181376
0.106218
-0.0660861
-0.0160946
0.0422009
-0.00795835
-0.0249047
0.0983505
-0.0720795
0.0186861
-0.0149829
0.00163719
0.00730431
-0.0441041
0.0597087
-0.0455685
-0.00155753
0.0633944
-0.0434298
0.0622579
-0.0675959
0.0495359
-0.0611911
-0.0138956
0.108136
0.0628867
0.0700148
-0.0203046
-0.00899354
-0.0140956
-0.0661915
0.0316532
0.0270744
-0.103702
-0.0495709
0.0463986
0.146545
0.0233536
0.00503294
0.0162553
-0.00165454
0.01648
0.0124635
-0.0337292
-0.0116024
-0.0124305
-6.53743e-05
0.0365244
-0.00963585
-0.0724362
0.0682502
0.0109574
0.00273362
-0.0451471
0.00422745
0.0167305
-0.0326246
-0.0235001
-0.0703932
-0.0286028
0.0422475
-0.0219561
-0.00260683
0.012997
-0.0207691
0.0584242
-0.0241615
-0.0575967
-0.00791786
0.107851
-0.0524344
0.0108776
-0.0249736
0.0455227
0.000753516
-0.0539302
0.028568
-0.00748738
0.0348497
0.00760928
-0.0121209
0.0283973
-0.0222814
-0.0168756
-0.0515164
0.0874012
0.0913045
0.0885714
0.0298984
-0.0114994
-0.014206
-0.0979438
0.0676076
-0.0480893
-0.0861225
0.0209889
-0.00965968
-0.0854045
-0.00141575
-0.0152143
0.061411
-0.0722071
-0.00189446
-0.0690295
-0.0499954
0.0131254
0.0441225
0.0735283
-0.0914864
-0.0224768
-0.0172118
0.0639265
-0.0248001
0.0248931
-0.0852629
-0.0876193
-0.0465622
-0.00392766
-0.112372
-0.0530242
0.0310964
-0.0695668
-0.0791401
-0.000700393
0.104045
0.0454533
0.0313261
-0.108457
-0.0253998
-0.0600103
-0.0462592
0.0904994
0.0817269
0.0218899
-0.0206502
0.0121282
0.00723607
0.0458367
0.0662892
-0.074688
0.02
0.0640255
-0.0233297
0.0559545
0.1324
-0.0110272
-0.0211706
0.0367427
-0.00219199
0.000138605
-0.0642702
0.00685829
0.0704515
-0.032182
-0.0713025
-0.0278824
-0.0852457
0.0451442
-0.00583292
0.00631562
-0.0399265
-0.069182
-0.0055769
0.0733813
0.0009155
-0.0963263
-0.0403212
0.0452634
0.027242
-0.000664506
0.0217414
-0.0869424
0.00616169
0.0882499
0.0123496
-0.0174338
0.0258118
-0.0801117
0.0396788
0.0488522
-0.0400724
0.0551144
0.0338199
0.0712483
-0.0076426
0.00114222
-0.038102
-0.00368523
0.0105361
0.0219529
-0.0240428
-0.0485653
-0.0785302
-0.0782651
-0.0331259
0.0545698
0.0814748
-0.0984833
0.0380799
0.0321342
0.01657
-0.0635473
0.0538134
-0.0787968
0.0225636
-0.00434352
0.00622982
-0.0662349
0.0226298
0.00512233
-0.0313539
0.0989596
-0.00360804
-0.055112
0.0328739
-0.0279621
0.0211918
-0.0076579
0.0893684
0.0394618
0.0191585
-0.00634517
0.0384125
0.0213104
0.0823903
0.11574
0.0341702
-7.8345e-05
-0.0650777
0.0564637
0.0720019
0.0682811
0.0814963
-0.051142
0.0880024
0.063391
0.00953138
0.0129845
0.0136284
-0.0168414
0.0614037
-0.0798294
-0.0250946
-0.0841493
-0.0337153
0.0437527
-0.0478705
-0.0117627
-0.0292644
0.0154084
-0.0378454
0.00803821
0.0255239
0.052913
-0.0490236
-0.0775097
-0.0758781
0.000278613
0.0104613
-0.0223844
0.040598
-0.000734868
0.0453639
-0.00251538
0.0358883
-0.108464
0.0329332
-0.0779683
0.0016548
-0.0361493
-0.0312618
-0.022681
0.0153162
0.0298877
-0.00606528
-0.014789
-0.0525054
0.0192575
0.0376516
-0.0581267
-0.104831
-0.0204468
0.0853064
0.0277027
-0.030182
0.0549174
-0.0658983
-0.0674995
0.0977909
0.0384441
-0.0610322
-0.0148636
-0.0243235
-0.0158446
0.0465111
-0.0755905
0.0585442
-0.0794528
-0.0112442
0.000407068
-0.00853542
0.0387266
0.0381415
0.0250935
0.114536
-0.0147233
-0.0119965
-0.0971523
-0.00485707
0.0953948
0.0210298
0.0411111
0.121637
0.0561017
-0.0116633
0.0241373
-0.0525978
0.0149858
-0.0539188
-0.0846286
0.0567507
0.115871
0.0371845
0.0512569
-0.0260911
-0.0876461
0.04848
-0.038977
0.0179757
-0.00622476
-0.0401672
0.0546146
-0.0325774
-0.068172
0.0612786
-0.15838
0.100077
0.0269166
0.0226489
0.0140016
0.0433358
0.00684055
0.106891
0.066976
0.124293
-0.0580417
-0.0134198
0.0451579
-0.0724871
-0.0180703
-0.0519083
-0.00566365
-0.0300021
-0.0294658
-0.102798
-0.0209153
0.0421165
0.0149035
-0.12307
0.0271637
0.0465791
0.032285
0.00334232
0.00520809
-0.0927624
0.00688275
0.0010251
-0.0522554
0.0514768
-0.0180254
0.0341466
0.0558097
0.0160468
0.0154288
0.00228573
0.101154
-0.026164
-0.00633675
0.0685434
-0.0357807
0.0353331
-0.0822413
-0.00511702
0.119745
-0.0135659
-0.00580254
-0.00242096
0.0575023
-0.0225632
-0.129471
0.0812888
0.0539643
-0.048256
0.0374986
-0.0677372
0.0363064
-0.0183189
0.0696206
-0.0474526
0.0497438
0.00787118
0.0354608
0.0475915
-0.0163331
0.0728422
-0.0280913
-0.108657
-0.0296495
0.00377876
-0.0151314
0.0393801
-0.0763464
-0.0396516
0.0398698
-0.0299991
-0.0753669
0.0122517
0.0329185
-0.00818635
0.0885014
0.0796151
-0.00456953
0.0600282
-0.012923
-0.0902937
0.0393852
0.0183396
-0.017689
0.00545675
0.0534796
-5.47422e-05
-0.0426243
0.0571004
0.0185342
-0.0583901
-0.0909202
-0.0233818
0.0193239
-0.0208245
0.0209417
0.029987
0.00806885
0.193332
-0.0104573
-0.0347034
0.0645144
0.0841163
0.00609243
0.0116275
0.00112963
0.0200933
-0.0300996
-0.030201
-0.0531716
0.0854455
-0.0565074
0.081065
-0.0153578
0.0258897
0.0203971
0.0337221
0.0246471
-0.0241241
0.0242693
-0.0123535
-0.0326308
0.0095349
-0.00916569
0.0106868
-0.0889992
-0.0715121
-0.0280921
0.0644351
-0.0264537
-0.0736847
0.0688335
0.0507311
0.0106169
-0.0358233
-0.0260431
0.053341
0.0173922
-0.00113315
0.00293012
0.0519713
0.0130532
-0.0573774
0.0668288
0.00515618
-0.0432805
-0.0276402
0.0507754
-0.0296453
-0.102078
0.0788606
-0.0180082
-0.038514
0.00801208
-0.0479409
0.0556288
0.0398111
0.0249457
-0.00169754
0.00463198
-0.0466932
0.0292512
-0.00525748
0.0611843
0.0194974
-0.0305712
0.0702686
-0.104236
-0.0679176
0.0280927
-0.00402467
-0.122423
0.058605
0.0527019
-0.0900582
-0.0459678
0.00942042
0.0330162
0.0726863
0.00186353
0.0960446
-0.0469493
-0.0924249
-0.154389
0.00238559
0.0566138
-0.084485
-0.0488708
0.0586257
-0.0169087
0.00990451
-0.0712375
0.0239479
-0.0195527
-0.0186494
0.0559202
0.0572883
-0.059751
-0.0699632
-0.068486
-0.0530685
-0.0747172
0.0307454
-0.0271561
0.000295408
-0.049297
0.00642854
0.0171395
-0.0083852
0.0292965
-0.0156574
0.123416
-0.0900905
-0.0514034
-0.00796035
-0.00494366
-0.00442202
-0.0352147
0.0826659
0.070214
-0.0422224
0.0463124
0.0499603
-0.0203426
0.0410905
0.0771082
-0.0253955
-0.0804969
-0.0276094
0.0217243
0.0590734
-0.11376
0.043472
-0.0122355
0.0229545
-0.0455931
-0.031108
0.0494103
0.0138286
0.0248609
-0.0103909
-0.0617164
-0.00383913
0.0265601
0.00370816
0.0432228
-0.0431791
-0.000315896
-0.0542269
0.00734032
-0.0396567
-0.049561
0.078664
0.0416007
0.0196768
0.0694103
-0.0245255
-0.0841719
-0.00182974
-0.0769176
0.0450443
0.0280912
0.0206044
0.0504322
0.0103978
-0.0800437
0.0495938
-0.0197157
-0.0124582
0.0513753
-0.0650364
0.0391564
0.0353562
-0.0464049
0.035175
-0.00673225
-0.042574
0.00733857
0.0288196
-0.0743073
-0.0182173
-0.00307877
0.0317932
-0.0264486
0.053667
-0.0281702
0.0526213
-0.0274237
0.00781125
0.0175603
-0.00613097
-0.0105632
-0.0943016
0.00563967
0.0240281
-0.0877556
0.0296923
0.026329
-0.0158687
0.000624626
-0.000462914
0.00111229
-0.0308073
-0.0202665
-0.0189094
0.00176828
-0.000620086
0.0546558
-0.0571321
-0.00186656
0.045728
0.00298905
0.0871094
0.0328262
0.0358029
0.0190581
-0.03358
-0.0354655
0.0110323
0.00155106
0.0544523
-0.0331354
0.0464372
0.0208784
-0.0312808
0.028742
0.0122662
-0.071186
-0.0325896
-0.0160626
0.00536952
0.0485426
0.0502096
-0.0727079
-0.0332688
-0.0576382
0.0526169
0.0139985
0.0161878
0.0396759
0.0357259
0.014552
0.019201
-0.0104206
-0.0406561
0.017371
-0.0429771
0.0115691
0.0504986
-0.0299395
0.0627581
-0.00949725
-0.00329714
0.00732027
0.0116347
-0.0181553
0.00409372
0.0672241
0.01302
-0.0142191
-0.0408703
0.0250579
0.00384216
0.00338981
0.00786473
0.0609605
-0.0186348
0.0486495
-0.0984298
0.048644
-0.0695519
-0.0470378
-0.052462
0.0538384
0.0495811
-0.0435031
-0.0535687
0.0347889
-0.0701059
0.0435961
0.0750205
0.0196254
0.00208609
-0.0120445
-0.0287907
0.0179334
0.109559
-0.0410375
0.0231213
0.055822
0.0396153
-0.00981131
0.0527452
-0.0218045
0.0174082
-0.0154216
-0.0208282
-0.0275702
-0.00226947
-0.00135977
-0.062496
-0.0256201
-0.0396569
0.0219867
-0.0314094
0.0807699
0.0517257
-0.0187555
-0.00728779
-0.0626318
0.0787546
0.0981913
0.0393806
-0.0670643
-0.0382228
0.0992451
0.155983
-0.0642758
0.0326131
-0.040641
0.0457235
-0.00239593
-0.019649
-0.0220748
0.00543795
0.0750826
-0.0443197
-0.033012
-0.0841894
0.0702153
-0.00981498
0.0240485
-0.0129847
-0.0284987
0.0112435
0.0819563
-0.0465199
0.0258349
0.0461434
-0.0283886
-0.0486545
0.0618192
-0.00816059
0.0100961
0.099148
0.0965368
0.0773084
-0.0899998
-0.07796
-0.0141957
-0.0361478
0.0335029
-0.049533
-0.0391348
-0.0080076
-0.0263261
-0.00605272
0.0508872
-0.00734125
0.0974063
-0.00284669
-0.102646
0.0607849
-0.0915184
-0.0448344
-0.0813907
0.126729
0.0244696
0.0813608
-0.00857377
-0.0597437
-0.0188915
0.00568842
0.0378319
-0.0798882
-0.0173438
0.0436149
0.0161002
0.0981204
-0.00981602
-0.0366598
-0.0770813
-0.058124
-0.000459743
-0.0539975
0.0452264
-0.0325444
0.089505
-0.0467647
-0.0214558
-0.00653158
-0.0150792
0.0270228
-0.0217394
-0.00679003
-0.0629919
-0.0609326
0.0433361
0.098761
-0.0290741
0.0610624
-0.0451629
-0.0122055
0.00752177
-0.106232
0.0215322
0.00131839
0.0701294
-0.0469821
-0.0467853
0.0797337
-0.104571
0.00457612
0.00772445
0.0884764
-0.0427955
0.01142
-0.0245269
0.0371078
0.000844025
-0.00354237
-0.0132235
0.0477959
0.0407554
0.00231326
-0.0132074
-0.00580613
0.0809387
-0.00834946
0.025006
0.030393
-0.0343232
0.103654
0.0166578
0.00957183
-0.0369925
0.0114007
-0.097122
-0.0420018
-0.0589211
0.0109168
0.00729856
-0.0246832
0.0569682
0.0957364
-0.0874264
0.0225792
0.0286997
-0.0324525
-0.00172344
-0.0480804
-0.10678
0.0241237
-0.00140134
-0.0274566
0.0207501
-0.0502355
-0.135667
0.00251059
0.0685856
-0.0562897
0.00505308
0.0965997
0.0597867
-0.0563623
0.0451309
-0.000956388
-0.0419763
-0.0223682
0.0016652
-0.00470701
-0.0457898
-0.106309
0.111201
-0.0311132
0.106608
0.0135933
0.0786902
-0.0302198
0.0152641
-0.15821
0.0817352
0.0206272
0.0372111
0.0518307
-0.0104938
-0.0573521
-0.0206511
0.17205
0.0161587
-0.0451531
0.0094542
0.0556375
0.0327303
0.0558483
-0.0709953
-0.0582051
-0.0261324
0.0722547
-0.0129311
-0.0073072
-0.0694908
0.0881351
0.0180105
-0.0158747
-0.0109882
-0.0569797
-0.0523314
-0.0199873
0.03468
0.0468332
0.0406443
0.0432758
0.034805
-0.0963323
0.0439789
-0.0494575
-0.0776983
0.0438047
-0.052274
-0.0591751
-0.0291146
-0.0767306
0.0030936
-0.0654687
-0.00112447
-0.0422929
-0.00414026
-0.0378519
-0.0157139
0.0593685
-0.0463167
0.0497871
0.0174364
-0.154188
-0.0548129
-0.103976
0.00371157
0.0324628
0.105636
0.0456049
-0.0219487
-0.0574958
0.0262853
0.0503631
-0.00486783
-0.042319
0.0131818
-0.0183176
-0.0804591
0.0338607
-0.000583771
0.0886082
0.058495
-0.0055553
-0.0109068
-0.048293
0.0110821
-0.101842
0.0453622
0.0581402
0.0549214
0.00907493
0.0709405
-0.0196353
0.035315
-0.0734088
-0.063708
0.0490121
-0.0519737
-0.0628286
0.10053
0.082926
0.0513714
0.00964377
0.0636236
0.02777
0.0877012
-0.125876
0.141755
-0.0105403
-0.0490401
-0.121155
-0.0240915
-0.0677438
0.076199
0.00325741
0.0246979
0.0398783
0.0729274
-0.0641532
-0.0821027
0.0245989
-0.0803075
-0.0138633
-0.0510152
-0.0277585
0.0163976
0.0468494
-0.057839
-0.0801408
-0.010648
0.0395244
0.0573893
-0.00794986
0.0288425
0.0486561
0.0332016
-0.0985933
-0.0338995
0.00363021
-0.00153341
0.021821
-0.0294798
0.11976
-0.0088258
0.0481746
0.010228
0.0902436
0.0886116
0.0477694
0.119265
-0.02202
0.0251897
0.00726668
0.0394987
0.0124646
0.0104755
-0.0219255
0.050145
-0.0459637
0.0713962
0.054783
-0.0788533
-0.00929859
-0.0441112
-0.00786664
0.0510962
0.000187126
0.007396
-0.0685301
-0.00109647
-0.0570344
-0.0541957
0.024459
-0.0020768
0.0294034
0.0506371
-0.0318162
-0.0571436
0.0322478
0.119074
-0.0288723
0.11347
0.0356019
0.085214
0.0504931
0.0686198
0.0337766
-0.0681229
0.0144594
-0.0208775
0.0418386
-0.083767
-0.0494585
0.138039
0.0356713
-0.1101
0.0424508
-0.0264675
-0.075753
0.00172806
0.0276903
-0.00286667
0.0268745
-0.0227305
-0.143449
-0.00147427
0.0257594
0.0646876
0.0172415
-0.0180618
0.0848113
0.0321255
-0.0404159
0.0149806
-0.0664541
0.00916962
-0.0143936
0.0510362
0.0279047
0.0226654
0.0146115
0.0517387
-0.000984564
0.0046077
0.00370164
0.0520868
-0.0380958
0.00718958
0.0892908
-0.125143
0.046401
0.058449
-0.0328307
-0.0733499
0.0526145
0.0615388
0.0298205
0.0428797
0.0237094
-0.0237838
0.0383917
-0.0244895
-0.0058412
-0.0905747
0.00386439
-0.00884056
-0.0614475
0.0557812
0.0022896
-0.0525048
0.0310037
-0.0291967
-0.0994278
0.0315695
0.0617197
0.0473715
-0.00765544
-0.0165981
-0.0550576
0.019291
0.006893
0.0424128
0.052424
0.0551606
-0.0119527
-0.0416481
-0.00392357
0.0248792
-0.0251127
-0.0215407
0.0349364
-0.0652499
0.0530723
-0.0315796
-0.0337577
-0.0729993
-0.0365112
-0.0343417
0.0144761
0.0250106
-0.0582419
0.00662593
-0.0141949
-0.118971
-0.0534274
0.0132926
-0.0193769
0.0154677
0.0214247
0.0187326
0.0267887
-0.0182425
0.0399196
0.00471035
-0.0152463
0.000811598
0.0870638
0.0460791
-0.0496897
0.0435239
-0.0803715
0.0326006
0.0286817
0.103516
0.0359805
0.0143917
0.0181557
-0.0485923
-0.0816388
0.0139964
0.0597489
0.0267069
-0.105254
-0.0290226
-0.11078
0.0223444
-0.00475036
-0.0287955
0.0196283
0.00525263
-0.13314
0.0144821
-0.0437163
-0.0243124
-0.0208021
0.0354284
-0.0515371
-0.0907429
0.0533799
0.0368168
0.031669
-0.0158297
-0.0806205
-0.0368311
0.0368637
-0.0336003
-0.0357271
0.0141859
0.025884
-0.0217072
-0.0476794
0.0651751
-0.0136924
0.0434412
0.0397334
-0.0680812
-0.0249293
0.101956
-0.122663
-0.0193389
0.0348245
-0.00219142
0.0544031
-0.0112889
-0.0719991
-0.027673
-0.0104904
-0.0183475
0.0278343
-0.0332925
0.137314
0.0142966
0.0457787
-0.0086525
-0.0541236
0.0343172
-0.00950429
0.0339769
0.0355244
-0.0240619
-0.027998
0.0884047
-0.0143758
-0.0342707
-0.0319126
0.0133951
-0.0203752
0.0250881
-0.0447404
0.011421
0.0136567
0.00522923
0.00284464
-0.016709
-0.0310649
0.0633991
-0.0448546
-0.00281226
-0.0907603
0.0466372
-0.00845266
-0.0319772
-0.0916825
0.0283621
-0.171549
0.109932
-0.0304737
-0.0120591
0.015929
0.0387027
-0.0940028
0.0164163
-0.112733
0.0194122
-0.00996784
0.0712361
0.0851223
-0.0440516
0.00453407
-0.0821217
-0.0122333
-0.0502631
-0.0416736
0.0603374
-0.0780744
-0.0311225
-0.00831157
0.0913887
-0.000887871
0.066653
-0.149175
0.00850372
0.0181797
0.0471948
0.110059
0.0102171
0.0672128
0.0680491
-0.0455936
0.0111442
-0.0279416
0.0408149
-0.0189075
0.0168905
0.0426384
-0.00947423
0.0301843
0.0251274
-0.0142502
0.14511
-0.0638555
-0.021213
0.0468748
0.0140865
-0.023657
-0.0292174
0.0162026
-0.0858875
0.0513622
0.0259701
-0.122437
-0.0297283
-0.0124745
-0.0539465
-0.0758506
-0.0245104
-0.028236
-0.00296624
0.0562846
0.000926176
0.0888194
0.121071
0.0644269
-0.0222571
0.114666
0.0229308
-0.0218369
0.0472144
0.025575
-0.0348998
0.0371431
0.0496842
-0.0406759
-0.0378833
-0.0514198
-0.00540427
-0.0491202
-0.0235673
0.00654326
-0.0514342
0.0204859
-0.0287662
-0.0121801
-0.0226446
0.050931
-0.00319349
-0.0409477
-0.0655094
0.00148616
-0.00935056
-0.0465177
0.0500684
0.0339139
-0.0247792
0.0594893
-0.0133674
-0.0613463
0.135667
-0.121819
-0.0760105
-0.00718407
0.00229063
0.0523227
-0.0956817
0.0281416
0.0956555
-0.0298682
0.00122975
-0.0793297
-0.0503717
-0.0765228
-0.0229217
0.0613014
0.0334361
-0.030334
0.0217452
-0.0164787
-0.0196537
0.0530217
-0.0339843
0.0518373
-0.0445591
-0.0323365
0.00103887
-0.0309919
0.0681253
0.0175297
0.0464553
0.0166298
-0.0534302
0.0561767
-0.0566972
-0.0542297
0.139192
0.0487146
-0.0317296
0.00564245
-0.00420133
0.0388056
0.0482495
-0.0176049
-0.132696
-0.0406246
-0.0346828
0.0662736
0.0101226
-0.0176057
-0.0667722
-0.0131487
-0.05447
0.0493343
0.00919669
-0.0434384
0.00779351
0.0470666
-0.0067647
-0.0165509
-0.0256973
-0.0894598
-0.113529
0.0626014
-0.0477319
0.0531526
-0.0248788
-0.0647469
0.0124959
0.069075
0.049289
0.0402771
0.0178773
-0.095474
0.0295321
-0.0203176
-0.0442316
-0.00342503
-0.000974146
-0.0784602
0.00560791
-0.0679274
-0.013959
0.00805958
-0.0139886
0.0262782
-0.00627608
0.0689033
-0.0217956
-0.0337244
-0.051059
-0.0479469
-0.00973905
0.0289094
0.0412764
-0.0405366
-0.00201559
0.0232395
0.0363813
0.0858449
-0.0893046
-0.0776517
-0.0854888
0.0538662
0.130309
-0.0287147
0.0449017
-0.0202867
-0.0399252
0.032819
0.034027
-0.0590671
-0.0355954
0.0426603
0.0219292
-0.0693292
-0.0682739
-0.024076
-0.00485353
0.063894
0.050575
0.0747894
0.0106036
-0.0374442
0.021913
-0.056721
0.131591
-0.067665
-0.051468
-0.0232105
0.0573069
-0.107251
0.0347278
-0.00010988
-0.0963215
-0.0785409
-0.0649233
0.00999417
0.0371144
-0.0461335
0.0625573
0.0439233
0.0767222
-0.0251248
-0.0304894
0.0656526
0.00572211
0.0185045
-0.0112726
0.0405835
-0.0596202
-0.0474364
0.0146175
-0.0102267
-0.0538024
6.22965e-05
-0.0358515
-0.0425843
-0.0165617
0.0460487
-0.0199443
-0.0746638
0.0453002
-0.0135642
-0.0242255
0.019654
-0.0383782
-0.0313734
0.0270166
-0.0144983
-0.0337133
0.0126591
-0.139152
-0.0494064
0.0150436
-0.0388391
0.0677994
0.104454
-0.00813665
-0.025968
-0.0435833
-0.0395678
0.106874
-0.0186733
-0.086355
-0.0305526
-0.0920323
0.0394833
0.00553957
-0.0548761
0.0648069
-0.0125477
0.0615912
0.0932122
0.0209162
0.0299687
0.00898096
-0.0537701
-0.0698378
-0.0880185
-0.0996084
0.0740682
-0.0077547
0.0457547
0.00244241
0.0732962
-0.0161042
0.0822991
-0.0450316
0.00577166
-0.0595743
-0.0713765
0.00456416
0.0970794
0.0166921
-0.04412
-0.0155855
0.0343195
0.000309785
-0.0299857
0.0553348
-0.0710389
-0.0413105
0.0406698
-0.117376
-0.0303725
-0.10561
0.0228159
0.0772965
-0.0826955
-0.0662791
0.140255
-0.0754418
-0.00841681
-0.0782568
0.0516656
-0.0508845
0.0722655
0.0312041
0.0613287
-0.0730077
-0.0475431
-0.0119211
0.0401563
-0.0719351
-0.0318625
0.0365046
-0.0416669
0.00780858
-0.0768654
0.0246251
-0.0235619
0.00507008
-0.0424683
-0.0496443
0.0175621
0.0008681
0.0719202
-0.0506934
0.0614969
0.00488828
0.0802831
-0.0246172
0.0683722
-0.0225562
-0.0289614
0.044951
0.00660536
-0.0148886
-0.0263793
-0.0183536
0.0689242
-0.0301895
-0.0248258
0.0953934
0.0882689
-0.042612
-0.0649658
-0.0894945
0.074759
0.022918
-0.0429647
-0.0866521
0.0299073
-0.00783689
0.0637443
-0.117165
0.0266593
-0.0130915
0.079674
-0.0638776
0.009139
0.0134382
0.0481982
0.0151242
-0.031094
0.0213625
-0.00477316
-0.0534728
-0.0514474
0.0147375
0.0689866
0.0400234
-0.0107465
0.0284987
0.0281833
0.00507355
-0.067352
0.0326313
-0.0273719
0.0230868
-0.00663364
-0.00824806
0.0746498
-0.0674649
0.0477865
0.0607434
0.00352612
0.0520913
0.0781636
-0.0134162
-0.10249
-0.0411932
0.0764698
0.031785
0.0289225
-0.0476032
-0.0280373
0.0323481
-0.0348964
0.0283565
-0.0251889
-0.0793284
0.0217629
-0.027344
0.05525
0.012284
-0.0304236
0.0305405
0.0538188
0.0144207
-0.0139666
0.046963
-0.0505051
0.122789
0.0211604
0.0375081
0.0400019
-0.0234176
0.00632372
-0.0493529
-0.0110461
-0.0242489
-0.020247
0.0586252
0.039677
0.0268911
0.0534745
0.0338009
0.0129122
-0.0713509
0.00274017
0.0243499
0.047776
0.040274
0.00232024
0.0297953
0.104238
0.0335715
0.070978
-0.0273389
-0.0600692
-0.0414795
0.0103764
-0.00782149
0.00221339
-0.0277595
0.0244884
-0.0617972
-0.0548864
0.0122286
-0.0443195
-0.128748
-0.0451215
0.0730537
0.0276534
-0.0338209
0.0296128
-0.0784782
0.0815539
-0.0029954
-0.0309857
0.0177582
-0.0328458
0.0665105
-0.0253828
-0.0637272
-0.0190986
0.0247353
0.00748843
-0.0209381
-0.0334163
0.00536514
0.0160569
0.0379098
-0.0834575
0.0824351
0.0531744
-0.000145086
-0.0191767
-0.0323316
0.128989
-0.0119697
0.0400226
0.0462403
-0.122113
-0.063802
-0.0384617
0.0389974
-0.0495753
-0.0106258
0.00395075
0.0437937
-0.0670153
0.0292902
-0.0235105
0.0511447
-0.0469973
0.0704747
-0.003376
-0.059504
-0.0811293
-0.0325611
-0.0323367
-0.0127755
0.00138981
0.00716185
-0.050296
0.00163276
-0.0507062
0.0421591
0.0495586
0.0067943
-0.00740819
0.0252973
0.0631449
-0.00989914
0.0796843
0.0403085
0.0664961
0.00497036
-0.0164257
-0.0450977
0.0210316
0.0559806
0.0382333
0.0402802
0.064732
0.0308988
-0.0611437
-0.0309982
0.0788903
-0.0456863
-0.013374
-0.0219715
0.058159
-0.0274613
-0.0674584
0.0616732
0.0179312
0.0643403
-0.00724542
0.00571826
-0.0549339
0.0286831
0.0397824
-0.00192092
0.0217999
-0.0224098
-0.0520073
-0.0119171
-0.0828147
-0.0788367
-0.0776466
-0.022659
-0.0187161
-0.0161179
0.0126417
-0.0508252
-0.0617556
-0.063347
-0.055289
0.0373386
-0.0699923
-0.0347283
-0.00797325
0.138388
-0.0152358
-0.0448352
0.0245435
-0.0369547
0.0305678
-0.013605
0.0255248
0.102205
-0.0210776
0.0494953
0.0395207
0.0843699
0.0676147
0.0377729
-0.037913
0.0908187
-0.0321297
-0.0629199
-0.0366869
-0.00580431
-0.0825583
0.00429217
0.0312022
-0.0225365
-0.00584213
0.0164526
0.0249205
-0.0416195
-0.0304043
-0.0304854
0.15535
-0.0133103
0.00395315
0.0225576
0.025872
-0.0465713
-0.039289
-0.0720884
0.024392
0.0245904
-0.0580564
-0.0227979
-0.0826479
0.0697361
0.0290928
0.0568112
0.0862535
0.0150129
0.0375211
0.0919379
-0.0812056
0.0837849
-0.0049199
